{"learner":{"attributes":{"scikit_learn":"{\"_estimator_type\": \"regressor\"}"},"feature_names":[],"feature_types":[],"gradient_booster":{"model":{"cats":{"enc":[],"feature_segments":[],"sorted_idx":[]},"gbtree_model_param":{"num_parallel_tree":"1","num_trees":"200"},"iteration_indptr":[0,1,2,3,4,5,6,7,8,9,10,11,12,13,14,15,16,17,18,19,20,21,22,23,24,25,26,27,28,29,30,31,32,33,34,35,36,37,38,39,40,41,42,43,44,45,46,47,48,49,50,51,52,53,54,55,56,57,58,59,60,61,62,63,64,65,66,67,68,69,70,71,72,73,74,75,76,77,78,79,80,81,82,83,84,85,86,87,88,89,90,91,92,93,94,95,96,97,98,99,100,101,102,103,104,105,106,107,108,109,110,111,112,113,114,115,116,117,118,119,120,121,122,123,124,125,126,127,128,129,130,131,132,133,134,135,136,137,138,139,140,141,142,143,144,145,146,147,148,149,150,151,152,153,154,155,156,157,158,159,160,161,162,163,164,165,166,167,168,169,170,171,172,173,174,175,176,177,178,179,180,181,182,183,184,185,186,187,188,189,190,191,192,193,194,195,196,197,198,199,200],"tree_info":[0,0,0,0,0,0,0,0,0,0,0,0,0,0,0,0,0,0,0,0,0,0,0,0,0,0,0,0,0,0,0,0,0,0,0,0,0,0,0,0,0,0,0,0,0,0,0,0,0,0,0,0,0,0,0,0,0,0,0,0,0,0,0,0,0,0,0,0,0,0,0,0,0,0,0,0,0,0,0,0,0,0,0,0,0,0,0,0,0,0,0,0,0,0,0,0,0,0,0,0,0,0,0,0,0,0,0,0,0,0,0,0,0,0,0,0,0,0,0,0,0,0,0,0,0,0,0,0,0,0,0,0,0,0,0,0,0,0,0,0,0,0,0,0,0,0,0,0,0,0,0,0,0,0,0,0,0,0,0,0,0,0,0,0,0,0,0,0,0,0,0,0,0,0,0,0,0,0,0,0,0,0,0,0,0,0,0,0,0,0,0,0,0,0,0,0,0,0,0,0],"trees":[{"base_weights":[-6.5965064E-2,-4.372928E0,7.0137076E0,-9.54058E0,-1.9835414E0,-1.5717723E0,8.495077E0,-1.2060598E1,-7.00189E0,-6.192952E0,-1.168341E-2,-3.1799762E0,7.4918213E0,6.342093E0,1.2087005E1,-1.6367989E1,-1.0711243E1,-8.404806E0,1.8106157E0,-1.2599559E1,-5.5004096E0,-2.5735662E0,1.7546501E0,-6.503169E0,-9.130892E-1,1.0438246E1,-5.1263022E0,3.5640438E0,7.9715896E0,1.0457596E1,1.8547047E1,-7.0926815E-1,-1.5289377E0,-8.881877E-1,2.0791341E-1,-1.038898E0,-5.3682595E-1,-1.1624463E0,3.059979E-1,-1.1311923E0,1.2464746E0,-8.724891E-1,-3.7823975E-1,5.7950413E-1,-2.5427863E-1,-1.8587776E-2,3.395201E-1,-1.1455454E0,-2.9654896E-1,1.1771101E-1,-5.5728704E-1,-2.1947265E-1,1.0122253E0,1.0052734E-1,-1.0735253E0,1.1169592E-1,7.869465E-1,4.026112E-1,8.3925635E-1,7.876863E-1,1.5816783E0,3.563603E-1,1.6459848E0],"categories":[],"categories_nodes":[],"categories_segments":[],"categories_sizes":[],"default_left":[0,0,0,0,0,0,0,0,0,0,0,0,0,0,0,0,0,0,0,0,0,0,0,0,0,0,0,0,0,0,0,0,0,0,0,0,0,0,0,0,0,0,0,0,0,0,0,0,0,0,0,0,0,0,0,0,0,0,0,0,0,0,0],"id":0,"left_children":[1,3,5,7,9,11,13,15,17,19,21,23,25,27,29,31,33,35,37,39,41,43,45,47,49,51,53,55,57,59,61,-1,-1,-1,-1,-1,-1,-1,-1,-1,-1,-1,-1,-1,-1,-1,-1,-1,-1,-1,-1,-1,-1,-1,-1,-1,-1,-1,-1,-1,-1,-1,-1],"loss_changes":[1.5840555E5,3.986356E4,2.500475E4,6.4474453E3,1.8343723E4,4.2508945E3,1.2884469E4,2.7947188E3,6.3328164E3,3.0586758E3,6.8193755E3,1.8547876E3,1.6893574E3,4.724746E3,6.405867E3,2.300623E3,2.0694648E3,3.3363984E3,2.3926875E3,3.1720342E3,2.6123633E3,3.675318E3,4.413116E3,2.1325557E3,2.1463687E3,1.085613E3,4.932488E2,5.289653E3,4.840953E3,2.6700664E3,3.4803906E3,0E0,0E0,0E0,0E0,0E0,0E0,0E0,0E0,0E0,0E0,0E0,0E0,0E0,0E0,0E0,0E0,0E0,0E0,0E0,0E0,0E0,0E0,0E0,0E0,0E0,0E0,0E0,0E0,0E0,0E0,0E0,0E0],"parents":[2147483647,0,0,1,1,2,2,3,3,4,4,5,5,6,6,7,7,8,8,9,9,10,10,11,11,12,12,13,13,14,14,15,15,16,16,17,17,18,18,19,19,20,20,21,21,22,22,23,23,24,24,25,25,26,26,27,27,28,28,29,29,30,30],"right_children":[2,4,6,8,10,12,14,16,18,20,22,24,26,28,30,32,34,36,38,40,42,44,46,48,50,52,54,56,58,60,62,-1,-1,-1,-1,-1,-1,-1,-1,-1,-1,-1,-1,-1,-1,-1,-1,-1,-1,-1,-1,-1,-1,-1,-1,-1,-1,-1,-1,-1,-1,-1,-1],"split_conditions":[6.899E1,6.614E1,1.9954E2,2.1134E2,2.0666E2,6.56E0,7.093E1,2.1004E2,2.2422E2,1.8898E2,6.738E1,7.007E1,9.14E0,2.0715E2,2.3314E2,-2.26E0,2.4122E2,6.435E1,-4.82E0,1.198E1,6.655E1,-9.6E0,2.136E2,1.908E2,1.9E0,6.925E1,7.158E1,2.3486E2,2.135E2,7.484E1,7.123E1,-7.0926815E-1,-1.5289377E0,-8.881877E-1,2.0791341E-1,-1.038898E0,-5.3682595E-1,-1.1624463E0,3.059979E-1,-1.1311923E0,1.2464746E0,-8.724891E-1,-3.7823975E-1,5.7950413E-1,-2.5427863E-1,-1.8587776E-2,3.395201E-1,-1.1455454E0,-2.9654896E-1,1.1771101E-1,-5.5728704E-1,-2.1947265E-1,1.0122253E0,1.0052734E-1,-1.0735253E0,1.1169592E-1,7.869465E-1,4.026112E-1,8.3925635E-1,7.876863E-1,1.5816783E0,3.563603E-1,1.6459848E0],"split_indices":[0,0,3,3,3,7,0,4,4,3,0,0,8,4,3,9,4,0,10,8,0,7,4,3,7,0,1,3,3,0,0,0,0,0,0,0,0,0,0,0,0,0,0,0,0,0,0,0,0,0,0,0,0,0,0,0,0,0,0,0,0,0,0],"split_type":[0,0,0,0,0,0,0,0,0,0,0,0,0,0,0,0,0,0,0,0,0,0,0,0,0,0,0,0,0,0,0,0,0,0,0,0,0,0,0,0,0,0,0,0,0,0,0,0,0,0,0,0,0,0,0,0,0,0,0,0,0,0,0],"sum_hessian":[5.193E3,3.229E3,1.964E3,1.02E3,2.209E3,2.89E2,1.675E3,5.1E2,5.1E2,7.04E2,1.505E3,2.46E2,4.3E1,1.049E3,6.26E2,1.19E2,3.91E2,4.4E2,7E1,6.7E1,6.37E2,6.14E2,8.91E2,9.9E1,1.47E2,3.5E1,8E0,3.89E2,6.6E2,5.02E2,1.24E2,3.3E1,8.6E1,3.8E2,1.1E1,1.17E2,3.23E2,7E0,6.3E1,6.4E1,3E0,7.8E1,5.59E2,3.5E1,5.79E2,4.96E2,3.95E2,2.5E1,7.4E1,1.06E2,4.1E1,5E0,3E1,5E0,3E0,2.9E2,9.9E1,3.06E2,3.54E2,4.73E2,2.9E1,1.6E1,1.08E2],"tree_param":{"num_deleted":"0","num_feature":"13","num_nodes":"63","size_leaf_vector":"1"}},{"base_weights":[5.879579E-2,-4.0322733E0,3.6842418E0,-6.9368205E0,-9.9321306E-1,-6.1804056E-1,7.364888E0,-1.1138033E1,-5.0680747E0,-7.4410634E0,1.4897606E-1,-1.4940828E0,8.845695E0,2.3587345E-1,8.709581E0,-1.1667782E1,6.256491E0,-7.989886E0,-2.7394724E0,-1.5014505E1,-6.064934E0,-2.4510574E-1,1.7983362E1,-6.085779E0,1.1792875E-1,3.8196354E0,1.6652843E1,-9.429342E-1,1.0737081E1,7.820949E0,1.5131269E1,-1.2209606E0,-7.4310744E-1,-6.099691E-2,9.1031617E-1,-6.6599643E-1,7.039209E-1,-5.8900386E-1,-1.12625875E-1,-1.4459403E0,5.678088E-1,-2.2234684E-1,-7.451549E-1,-1.55579E-1,2.1085948E-1,-2.3090646E-1,2.0791914E0,-5.4834706E-1,1.0498389E0,-2.214E-1,1.7633353E-1,-2.9052842E-1,7.15201E-1,1.0377213E0,2.067861E0,8.375172E-2,-5.3715104E-1,1.1025556E0,-2.8718358E-1,4.727312E-1,8.377733E-1,2.6174214E-1,1.3702765E0],"categories":[],"categories_nodes":[],"categories_segments":[],"categories_sizes":[],"default_left":[0,0,0,0,0,0,0,0,0,0,0,0,0,0,0,0,0,0,0,0,0,0,0,0,0,0,0,0,0,0,0,0,0,0,0,0,0,0,0,0,0,0,0,0,0,0,0,0,0,0,0,0,0,0,0,0,0,0,0,0,0,0,0],"id":1,"left_children":[1,3,5,7,9,11,13,15,17,19,21,23,25,27,29,31,33,35,37,39,41,43,45,47,49,51,53,55,57,59,61,-1,-1,-1,-1,-1,-1,-1,-1,-1,-1,-1,-1,-1,-1,-1,-1,-1,-1,-1,-1,-1,-1,-1,-1,-1,-1,-1,-1,-1,-1,-1,-1],"loss_changes":[7.718549E4,2.1575352E4,4.3693805E4,9.757305E3,8.809248E3,1.0567191E4,1.4252836E4,3.6114531E3,5.876953E3,1.7849053E3,7.1520938E3,8.631295E3,4.1742246E3,2.9439246E3,7.0205156E3,3.0475469E3,4.4012772E2,2.2334238E3,2.969291E3,1.9550366E3,1.6183022E3,4.8819243E3,3.7510806E3,4.563164E3,5.207119E3,2.5887288E3,1.0864658E3,2.4646519E3,1.0964358E3,5.518672E3,3.5204883E3,0E0,0E0,0E0,0E0,0E0,0E0,0E0,0E0,0E0,0E0,0E0,0E0,0E0,0E0,0E0,0E0,0E0,0E0,0E0,0E0,0E0,0E0,0E0,0E0,0E0,0E0,0E0,0E0,0E0,0E0,0E0,0E0],"parents":[2147483647,0,0,1,1,2,2,3,3,4,4,5,5,6,6,7,7,8,8,9,9,10,10,11,11,12,12,13,13,14,14,15,15,16,16,17,17,18,18,19,19,20,20,21,21,22,22,23,23,24,24,25,25,26,26,27,27,28,28,29,29,30,30],"right_children":[2,4,6,8,10,12,14,16,18,20,22,24,26,28,30,32,34,36,38,40,42,44,46,48,50,52,54,56,58,60,62,-1,-1,-1,-1,-1,-1,-1,-1,-1,-1,-1,-1,-1,-1,-1,-1,-1,-1,-1,-1,-1,-1,-1,-1,-1,-1,-1,-1,-1,-1,-1,-1],"split_conditions":[6.794E1,6.796E1,6.83E1,2.0436E2,1.9836E2,7.41E1,2.008E2,2.4122E2,6.56E1,-6.22E0,2.4014E2,2.048E2,2.2016E2,7.64E0,7.374E1,6.512E1,-2.372E1,2.3782E2,6.418E1,7.286E1,-1.26E1,7.092E1,-3.54E0,-6.2E-1,6.586E1,6.586E1,2.18E0,2.44E0,1.9954E2,2.2218E2,2.0614E2,-1.2209606E0,-7.4310744E-1,-6.099691E-2,9.1031617E-1,-6.6599643E-1,7.039209E-1,-5.8900386E-1,-1.12625875E-1,-1.4459403E0,5.678088E-1,-2.2234684E-1,-7.451549E-1,-1.55579E-1,2.1085948E-1,-2.3090646E-1,2.0791914E0,-5.4834706E-1,1.0498389E0,-2.214E-1,1.7633353E-1,-2.9052842E-1,7.15201E-1,1.0377213E0,2.067861E0,8.375172E-2,-5.3715104E-1,1.1025556E0,-2.8718358E-1,4.727312E-1,8.377733E-1,2.6174214E-1,1.3702765E0],"split_indices":[2,1,1,3,3,2,3,4,2,8,4,3,3,7,1,1,5,4,1,1,5,1,7,11,1,1,7,7,3,3,3,0,0,0,0,0,0,0,0,0,0,0,0,0,0,0,0,0,0,0,0,0,0,0,0,0,0,0,0,0,0,0,0],"split_type":[0,0,0,0,0,0,0,0,0,0,0,0,0,0,0,0,0,0,0,0,0,0,0,0,0,0,0,0,0,0,0,0,0,0,0,0,0,0,0,0,0,0,0,0,0,0,0,0,0,0,0,0,0,0,0,0,0,0,0,0,0,0,0],"sum_hessian":[5.202E3,2.444E3,2.758E3,1.249E3,1.195E3,1.272E3,1.486E3,3.83E2,8.66E2,1.79E2,1.016E3,1.165E3,1.07E2,2.36E2,1.25E3,3.72E2,1.1E1,3.83E2,4.83E2,2.6E1,1.53E2,9.95E2,2.1E1,3.02E2,8.63E2,6.6E1,4.1E1,2.13E2,2.3E1,1.1E3,1.5E2,1.46E2,2.26E2,5E0,6E0,3.76E2,7E0,1.07E2,3.76E2,2.3E1,3E0,7.7E1,7.6E1,6.26E2,3.69E2,6E0,1.5E1,2.91E2,1.1E1,3.62E2,5.01E2,2.7E1,3.9E1,3.1E1,1E1,1.59E2,5.4E1,1.9E1,4E0,6.41E2,4.59E2,2.2E1,1.28E2],"tree_param":{"num_deleted":"0","num_feature":"13","num_nodes":"63","size_leaf_vector":"1"}},{"base_weights":[-1.7472552E-2,-3.1180627E0,3.9309535E0,-5.923932E0,-4.0639365E-1,2.01463E-1,6.9669065E0,-8.861293E0,-3.5279925E0,-2.9882386E0,2.1864378E0,-5.514027E0,2.1986284E0,2.2148025E0,8.475954E0,-1.18590765E1,-6.679258E0,-9.122807E0,-2.5349498E0,-4.373014E0,-1.954713E-1,1.4431362E0,1.7159897E1,-8.369033E0,-1.9999787E0,8.848676E-1,7.94704E0,-2.8661897E0,3.9357746E0,5.8860793E0,1.0491663E1,-1.0183041E0,8.193861E-2,-1.1833215E0,-4.214799E-1,-1.6169278E-1,-9.110926E-1,-4.981533E-1,-1.0218308E-1,-4.0023002E-1,2.534601E-1,-2.963802E-1,1.9601782E-1,-3.017324E-1,2.4681585E-1,5.268341E-1,2.4656131E0,-4.5566154E-1,-1.1148512E0,6.9994915E-1,-2.4377689E-1,-3.473853E-1,2.468521E-1,3.5447338E-1,1.320051E0,-1.8326959E-2,-6.758146E-1,8.491815E-1,1.7957087E-1,-8.8786376E-1,5.0264573E-1,7.334269E-1,1.2794855E0],"categories":[],"categories_nodes":[],"categories_segments":[],"categories_sizes":[],"default_left":[0,0,0,0,0,0,0,0,0,0,0,0,0,0,0,0,0,0,0,0,0,0,0,0,0,0,0,0,0,0,0,0,0,0,0,0,0,0,0,0,0,0,0,0,0,0,0,0,0,0,0,0,0,0,0,0,0,0,0,0,0,0,0],"id":2,"left_children":[1,3,5,7,9,11,13,15,17,19,21,23,25,27,29,31,33,35,37,39,41,43,45,47,49,51,53,55,57,59,61,-1,-1,-1,-1,-1,-1,-1,-1,-1,-1,-1,-1,-1,-1,-1,-1,-1,-1,-1,-1,-1,-1,-1,-1,-1,-1,-1,-1,-1,-1,-1,-1],"loss_changes":[6.3819918E4,2.221467E4,2.5961219E4,1.0067895E4,9.954246E3,1.1769348E4,9.0455625E3,4.133367E3,4.3771396E3,2.8803252E3,8.233544E3,2.6619727E3,5.762725E3,2.68702E3,4.9446484E3,3.038371E3,4.2137383E3,1.8918438E3,3.1215918E3,2.3813262E3,2.3116296E3,6.074247E3,4.85279E3,2.1081348E3,1.3887656E3,7.1803296E3,4.1976074E3,1.1461448E3,2.562753E3,2.9151357E3,3.7719297E3,0E0,0E0,0E0,0E0,0E0,0E0,0E0,0E0,0E0,0E0,0E0,0E0,0E0,0E0,0E0,0E0,0E0,0E0,0E0,0E0,0E0,0E0,0E0,0E0,0E0,0E0,0E0,0E0,0E0,0E0,0E0,0E0],"parents":[2147483647,0,0,1,1,2,2,3,3,4,4,5,5,6,6,7,7,8,8,9,9,10,10,11,11,12,12,13,13,14,14,15,15,16,16,17,17,18,18,19,19,20,20,21,21,22,22,23,23,24,24,25,25,26,26,27,27,28,28,29,29,30,30],"right_children":[2,4,6,8,10,12,14,16,18,20,22,24,26,28,30,32,34,36,38,40,42,44,46,48,50,52,54,56,58,60,62,-1,-1,-1,-1,-1,-1,-1,-1,-1,-1,-1,-1,-1,-1,-1,-1,-1,-1,-1,-1,-1,-1,-1,-1,-1,-1,-1,-1,-1,-1,-1,-1],"split_conditions":[6.868E1,6.774E1,6.83E1,2.1032E2,2.1404E2,2.048E2,2.0436E2,6.512E1,6.374E1,7.11E1,2.3302E2,2.207E2,2.3196E2,2.1126E2,7.062E1,2.3782E2,1.925E2,-2.7E0,6.424E1,6.826E1,2.0284E2,6.474E1,7.032E1,3.2E0,-5.82E0,2.0644E2,7.206E1,6.8E-1,-2.26E0,-1.18E1,2.3314E2,-1.0183041E0,8.193861E-2,-1.1833215E0,-4.214799E-1,-1.6169278E-1,-9.110926E-1,-4.981533E-1,-1.0218308E-1,-4.0023002E-1,2.534601E-1,-2.963802E-1,1.9601782E-1,-3.017324E-1,2.4681585E-1,5.268341E-1,2.4656131E0,-4.5566154E-1,-1.1148512E0,6.9994915E-1,-2.4377689E-1,-3.473853E-1,2.468521E-1,3.5447338E-1,1.320051E0,-1.8326959E-2,-6.758146E-1,8.491815E-1,1.7957087E-1,-8.8786376E-1,5.0264573E-1,7.334269E-1,1.2794855E0],"split_indices":[2,1,1,3,3,3,3,1,2,1,4,4,3,4,2,4,3,9,1,2,3,2,1,9,9,4,2,11,11,8,3,0,0,0,0,0,0,0,0,0,0,0,0,0,0,0,0,0,0,0,0,0,0,0,0,0,0,0,0,0,0,0,0],"split_type":[0,0,0,0,0,0,0,0,0,0,0,0,0,0,0,0,0,0,0,0,0,0,0,0,0,0,0,0,0,0,0,0,0,0,0,0,0,0,0,0,0,0,0,0,0,0,0,0,0,0,0,0,0,0,0,0,0,0,0,0,0,0,0],"sum_hessian":[5.211E3,2.919E3,2.292E3,1.434E3,1.485E3,1.029E3,1.263E3,6.43E2,7.91E2,7.44E2,7.41E2,2.66E2,7.63E2,3.05E2,9.58E2,2.69E2,3.74E2,1.18E2,6.73E2,4.97E2,2.47E2,7.07E2,3.4E1,1.46E2,1.2E2,6.22E2,1.41E2,7.7E1,2.28E2,4.21E2,5.37E2,2.52E2,1.7E1,5.4E1,3.2E2,2.9E1,8.9E1,1.7E2,5.03E2,4.59E2,3.8E1,1.06E2,1.41E2,1.69E2,5.38E2,2E1,1.4E1,1E2,4.6E1,1E1,1.1E2,1.84E2,4.38E2,1.01E2,4E1,5.3E1,2.4E1,4.5E1,1.83E2,9E0,4.12E2,4.35E2,1.02E2],"tree_param":{"num_deleted":"0","num_feature":"13","num_nodes":"63","size_leaf_vector":"1"}},{"base_weights":[1.1151397E-1,-3.4201334E0,3.2259874E0,-5.611533E0,-1.3979257E0,1.6950837E0,7.3764E0,-8.52758E0,-4.276488E0,-5.632343E0,3.4610194E-1,-8.9521176E-1,5.3881755E0,3.6542203E0,1.0403094E1,-9.860202E0,2.6464267E0,-1.242451E1,-3.880434E0,-6.0836725E0,1.8330177E0,-1.9435428E0,2.2083259E0,-4.3157506E0,2.5233787E-1,-6.97772E0,5.952657E0,2.605754E0,1.5595659E1,9.393302E0,1.7213324E1,-1.0611382E0,-5.684475E-1,-5.6398086E-2,1.7404164E0,-4.620587E-1,-1.4229745E0,-3.592722E-1,8.330718E-2,-9.403502E-1,-3.7660524E-1,-2.7405623E-1,4.5949855E-1,-6.242052E-2,5.198557E-1,1.1938529E-1,-4.0509963E-1,-2.0899925E-1,1.6163382E-1,-1.5508823E0,-2.3090029E-1,3.6205375E-1,7.8371656E-1,-6.0907807E-2,4.7995925E-1,4.546788E-1,1.5024596E0,5.243079E-1,1.0181206E0,1.4163879E-1,1.5660958E0],"categories":[],"categories_nodes":[],"categories_segments":[],"categories_sizes":[],"default_left":[0,0,0,0,0,0,0,0,0,0,0,0,0,0,0,0,0,0,0,0,0,0,0,0,0,0,0,0,0,0,0,0,0,0,0,0,0,0,0,0,0,0,0,0,0,0,0,0,0,0,0,0,0,0,0,0,0,0,0,0,0],"id":3,"left_children":[1,3,5,7,9,11,13,15,17,19,21,23,25,27,29,31,33,35,37,39,-1,41,43,45,47,49,51,53,55,57,59,-1,-1,-1,-1,-1,-1,-1,-1,-1,-1,-1,-1,-1,-1,-1,-1,-1,-1,-1,-1,-1,-1,-1,-1,-1,-1,-1,-1,-1,-1],"loss_changes":[5.748197E4,1.0844816E4,1.7632223E4,4.537871E3,9.417748E3,1.9424207E4,8.388879E3,5.505881E3,2.559246E3,4.93196E3,3.8587954E3,4.6878237E3,5.8840664E3,4.178668E3,2.6715977E3,2.9907031E3,2.5769854E3,1.2165083E3,2.3242217E3,2.8085488E3,0E0,4.6455483E3,6.4025654E3,1.3108774E3,4.538686E3,1.8224696E3,4.3491875E3,3.558382E3,7.4568066E2,3.3332754E3,1.8627949E3,0E0,0E0,0E0,0E0,0E0,0E0,0E0,0E0,0E0,0E0,0E0,0E0,0E0,0E0,0E0,0E0,0E0,0E0,0E0,0E0,0E0,0E0,0E0,0E0,0E0,0E0,0E0,0E0,0E0,0E0],"parents":[2147483647,0,0,1,1,2,2,3,3,4,4,5,5,6,6,7,7,8,8,9,9,10,10,11,11,12,12,13,13,14,14,15,15,16,16,17,17,18,18,19,19,21,21,22,22,23,23,24,24,25,25,26,26,27,27,28,28,29,29,30,30],"right_children":[2,4,6,8,10,12,14,16,18,20,22,24,26,28,30,32,34,36,38,40,-1,42,44,46,48,50,52,54,56,58,60,-1,-1,-1,-1,-1,-1,-1,-1,-1,-1,-1,-1,-1,-1,-1,-1,-1,-1,-1,-1,-1,-1,-1,-1,-1,-1,-1,-1,-1,-1],"split_conditions":[6.794E1,2.12E0,7.18E1,6.566E1,6.412E1,-4.2E-1,6.8E-1,2.3036E2,1.9058E2,2.4014E2,2.1266E2,-4.6E0,-2.022E1,2.3782E2,2.502E1,-1.56E0,3.66E0,1E0,1.37E1,6.186E1,1.8330177E0,2.39E1,-3.16E0,-5.66E0,6.926E1,3.8E-1,7.013E1,-4.9E0,7.232E1,2.0794E2,1.8476E2,-1.0611382E0,-5.684475E-1,-5.6398086E-2,1.7404164E0,-4.620587E-1,-1.4229745E0,-3.592722E-1,8.330718E-2,-9.403502E-1,-3.7660524E-1,-2.7405623E-1,4.5949855E-1,-6.242052E-2,5.198557E-1,1.1938529E-1,-4.0509963E-1,-2.0899925E-1,1.6163382E-1,-1.5508823E0,-2.3090029E-1,3.6205375E-1,7.8371656E-1,-6.0907807E-2,4.7995925E-1,4.546788E-1,1.5024596E0,5.243079E-1,1.0181206E0,1.4163879E-1,1.5660958E0],"split_indices":[2,11,2,2,2,11,5,4,4,4,4,11,5,4,6,6,9,10,6,2,0,5,5,10,2,11,2,11,2,4,4,0,0,0,0,0,0,0,0,0,0,0,0,0,0,0,0,0,0,0,0,0,0,0,0,0,0,0,0,0,0],"split_type":[0,0,0,0,0,0,0,0,0,0,0,0,0,0,0,0,0,0,0,0,0,0,0,0,0,0,0,0,0,0,0,0,0,0,0,0,0,0,0,0,0,0,0,0,0,0,0,0,0,0,0,0,0,0,0,0,0,0,0,0,0],"sum_hessian":[5.224E3,2.448E3,2.776E3,1.174E3,1.274E3,2.029E3,7.47E2,3.67E2,8.07E2,3.71E2,9.03E2,1.193E3,8.36E2,3.36E2,4.11E2,3.28E2,3.9E1,3.6E1,7.71E2,3.66E2,5E0,4.05E2,4.98E2,2.99E2,8.94E2,3.6E1,8E2,3.1E2,2.6E1,3.6E2,5.1E1,1.45E2,1.83E2,3.4E1,5E0,1.7E1,1.9E1,6.86E2,8.5E1,7E1,2.96E2,3.4E2,6.5E1,2.94E2,2.04E2,3.4E1,2.65E2,3.41E2,5.53E2,8E0,2.8E1,5.85E2,2.15E2,1.56E2,1.54E2,7E0,1.9E1,1.96E2,1.64E2,7E0,4.4E1],"tree_param":{"num_deleted":"0","num_feature":"13","num_nodes":"61","size_leaf_vector":"1"}},{"base_weights":[1.4148806E-1,-3.111152E0,5.2969413E0,-6.585327E0,-1.4850411E0,2.333957E0,7.7451935E0,-9.8993845E0,-5.353178E0,-4.8610086E0,3.265136E-1,-1.2471869E0,3.6546283E0,5.319001E0,1.0401126E1,-1.0925E1,-4.9460373E0,-7.166187E0,-2.8691683E0,-1.0016385E1,-4.197956E0,-8.1213075E-1,3.4086223E0,-1.2355257E-1,-1.0031199E1,-1.5260263E-2,5.2910185E0,1.9730502E0,7.5343504E0,8.811163E0,1.41846E1,-3.6255026E-1,-9.749128E-1,-4.9869162E-1,6.105312E-1,-8.8141036E-1,-4.5118117E-1,-3.5651553E-1,3.9316696E-1,-8.8439614E-1,7.2155076E-1,9.8920155E-1,-3.5721725E-1,-2.2118647E-1,1.1606342E-1,1.675795E-1,8.357405E-1,-8.008041E-2,7.369326E-1,-4.6006274E-1,-1.3728695E0,-5.0101274E-1,1.2523991E-1,1.4605694E0,3.9710128E-1,-6.2362928E-2,6.0192764E-1,6.731509E-1,1.0102883E-1,1.0990846E0,5.158856E-1,1.6036074E0,8.7286603E-1],"categories":[],"categories_nodes":[],"categories_segments":[],"categories_sizes":[],"default_left":[0,0,0,0,0,0,0,0,0,0,0,0,0,0,0,0,0,0,0,0,0,0,0,0,0,0,0,0,0,0,0,0,0,0,0,0,0,0,0,0,0,0,0,0,0,0,0,0,0,0,0,0,0,0,0,0,0,0,0,0,0,0,0],"id":4,"left_children":[1,3,5,7,9,11,13,15,17,19,21,23,25,27,29,31,33,35,37,39,41,43,45,47,49,51,53,55,57,59,61,-1,-1,-1,-1,-1,-1,-1,-1,-1,-1,-1,-1,-1,-1,-1,-1,-1,-1,-1,-1,-1,-1,-1,-1,-1,-1,-1,-1,-1,-1,-1,-1],"loss_changes":[8.743241E4,1.8051334E4,1.4613504E4,4.108004E3,1.3327806E4,4.327335E3,7.0586406E3,1.3430254E3,3.3345703E3,2.5592656E3,4.982643E3,2.4366553E3,4.011666E3,4.2769424E3,3.0392148E3,1.7753809E3,8.4113367E2,2.4658008E3,3.9260715E3,1.7999209E3,3.0476025E3,4.586319E3,3.519815E3,1.8112859E3,7.558137E2,2.0540603E3,1.8697295E3,3.5507637E3,1.9100352E3,4.253662E3,2.7359238E3,0E0,0E0,0E0,0E0,0E0,0E0,0E0,0E0,0E0,0E0,0E0,0E0,0E0,0E0,0E0,0E0,0E0,0E0,0E0,0E0,0E0,0E0,0E0,0E0,0E0,0E0,0E0,0E0,0E0,0E0,0E0,0E0],"parents":[2147483647,0,0,1,1,2,2,3,3,4,4,5,5,6,6,7,7,8,8,9,9,10,10,11,11,12,12,13,13,14,14,15,15,16,16,17,17,18,18,19,19,20,20,21,21,22,22,23,23,24,24,25,25,26,26,27,27,28,28,29,29,30,30],"right_children":[2,4,6,8,10,12,14,16,18,20,22,24,26,28,30,32,34,36,38,40,42,44,46,48,50,52,54,56,58,60,62,-1,-1,-1,-1,-1,-1,-1,-1,-1,-1,-1,-1,-1,-1,-1,-1,-1,-1,-1,-1,-1,-1,-1,-1,-1,-1,-1,-1,-1,-1,-1,-1],"split_conditions":[6.897E1,6.617E1,2.1284E2,6.45E1,2.0752E2,1.9804E2,7.056E1,2.2846E2,2.1524E2,1.899E2,6.827E1,-3.12E0,2.1126E2,2.047E2,2.3314E2,-1.506E1,4.46E0,2.1036E2,2.2218E2,1.054E1,-1.308E1,2.131E2,2.361E2,7.291E1,-1.98E0,-4.82E0,2.12E2,2.3452E2,1E0,-3.3E0,1.712E1,-3.6255026E-1,-9.749128E-1,-4.9869162E-1,6.105312E-1,-8.8141036E-1,-4.5118117E-1,-3.5651553E-1,3.9316696E-1,-8.8439614E-1,7.2155076E-1,9.8920155E-1,-3.5721725E-1,-2.2118647E-1,1.1606342E-1,1.675795E-1,8.357405E-1,-8.008041E-2,7.369326E-1,-4.6006274E-1,-1.3728695E0,-5.0101274E-1,1.2523991E-1,1.4605694E0,3.9710128E-1,-6.2362928E-2,6.0192764E-1,6.731509E-1,1.0102883E-1,1.0990846E0,5.158856E-1,1.6036074E0,8.7286603E-1],"split_indices":[0,0,3,0,3,3,0,3,3,3,0,6,4,4,3,5,11,4,4,8,7,4,3,0,7,11,4,3,12,6,6,0,0,0,0,0,0,0,0,0,0,0,0,0,0,0,0,0,0,0,0,0,0,0,0,0,0,0,0,0,0,0,0],"split_type":[0,0,0,0,0,0,0,0,0,0,0,0,0,0,0,0,0,0,0,0,0,0,0,0,0,0,0,0,0,0,0,0,0,0,0,0,0,0,0,0,0,0,0,0,0,0,0,0,0,0,0,0,0,0,0,0,0,0,0,0,0,0,0],"sum_hessian":[5.212E3,3.196E3,2.016E3,1.018E3,2.178E3,9.13E2,1.103E3,2.74E2,7.44E2,7.6E2,1.418E3,2.46E2,6.67E2,5.78E2,5.25E2,2.26E2,4.8E1,4.29E2,3.15E2,8.5E1,6.75E2,1.036E3,3.82E2,2.19E2,2.7E1,2.06E2,4.61E2,2.31E2,3.47E2,3.72E2,1.53E2,3.8E1,1.88E2,4.4E1,4E0,1.2E2,3.09E2,2.62E2,5.3E1,8.1E1,4E0,1E1,6.65E2,5.56E2,4.8E2,3.23E2,5.9E1,2.01E2,1.8E1,1.8E1,9E0,4.1E1,1.65E2,1E1,4.51E2,1.55E2,7.6E1,3.04E2,4.3E1,1.19E2,2.53E2,5.3E1,1E2],"tree_param":{"num_deleted":"0","num_feature":"13","num_nodes":"63","size_leaf_vector":"1"}},{"base_weights":[-5.0118733E-2,-3.6888962E0,3.9744098E0,-6.9013357E0,-2.2970374E0,2.655483E0,8.095753E0,-9.608037E0,-5.5550456E0,-2.6585171E0,2.0710995E0,3.416295E0,-1.5819756E0,6.818439E0,1.20656595E1,8.177773E-1,-1.0388069E1,-7.0363603E0,-2.9844215E0,-5.2684307E0,-1.7989516E0,6.1915163E-2,1.1419152E1,2.2042394E0,5.2693577E0,-2.7389176E0,7.4059687E0,5.749401E0,1.2849413E1,1.3015064E1,-2.0528092E0,-4.1920817E-1,7.0432687E-1,-1.0818558E0,-5.7768166E-1,-7.652731E-1,-3.760974E-1,-4.3565953E-1,2.33215E-1,-7.1885604E-1,-2.1704763E-1,-2.5983793E-1,4.0130276E-2,-8.5784644E-2,1.0297956E0,4.2799094E-1,2.4606712E0,1.5205175E-1,9.290373E-1,3.359683E-2,5.017501E-1,-1.1579505E-1,-7.7155465E-1,1.7297876E0,4.210869E-1,2.3090957E-1,5.8306634E-1,1.1816616E0,-7.573132E-1,7.4644774E-2,1.0930755E0,-9.8519254E-1,3.283604E-1],"categories":[],"categories_nodes":[],"categories_segments":[],"categories_sizes":[],"default_left":[0,0,0,0,0,0,0,0,0,0,0,0,0,0,0,0,0,0,0,0,0,0,0,0,0,0,0,0,0,0,0,0,0,0,0,0,0,0,0,0,0,0,0,0,0,0,0,0,0,0,0,0,0,0,0,0,0,0,0,0,0,0,0],"id":5,"left_children":[1,3,5,7,9,11,13,15,17,19,21,23,25,27,29,31,33,35,37,39,41,43,45,47,49,51,53,55,57,59,61,-1,-1,-1,-1,-1,-1,-1,-1,-1,-1,-1,-1,-1,-1,-1,-1,-1,-1,-1,-1,-1,-1,-1,-1,-1,-1,-1,-1,-1,-1,-1,-1],"loss_changes":[7.651681E4,1.2253289E4,1.3464594E4,2.9675117E3,3.0308564E3,6.069577E3,2.965293E3,2.236791E3,2.0961934E3,3.9613242E3,2.7602412E3,3.5707812E3,3.004662E3,2.8725566E3,1.9703164E3,1.01373615E3,2.4342695E3,2.034248E3,2.9926475E3,4.136127E3,4.4453086E3,1.7864635E3,2.8871956E3,2.7372275E3,3.0601836E3,2.2602144E3,8.912671E2,1.6973047E3,3.0554414E3,1.0526387E3,6.8241626E2,0E0,0E0,0E0,0E0,0E0,0E0,0E0,0E0,0E0,0E0,0E0,0E0,0E0,0E0,0E0,0E0,0E0,0E0,0E0,0E0,0E0,0E0,0E0,0E0,0E0,0E0,0E0,0E0,0E0,0E0,0E0,0E0],"parents":[2147483647,0,0,1,1,2,2,3,3,4,4,5,5,6,6,7,7,8,8,9,9,10,10,11,11,12,12,13,13,14,14,15,15,16,16,17,17,18,18,19,19,20,20,21,21,22,22,23,23,24,24,25,25,26,26,27,27,28,28,29,29,30,30],"right_children":[2,4,6,8,10,12,14,16,18,20,22,24,26,28,30,32,34,36,38,40,42,44,46,48,50,52,54,56,58,60,62,-1,-1,-1,-1,-1,-1,-1,-1,-1,-1,-1,-1,-1,-1,-1,-1,-1,-1,-1,-1,-1,-1,-1,-1,-1,-1,-1,-1,-1,-1,-1,-1],"split_conditions":[6.838E1,6.578E1,7.123E1,6.441E1,2.3202E2,1E0,7.472E1,-2.118E1,2.2014E2,-7.84E0,3.36E0,6.983E1,2.428E1,2.178E1,1.12E1,-2.372E1,-6E-1,1.14E0,-5.56E0,-9.22E0,2.131E2,-3.44E0,3.03E0,2.391E2,-4.38E0,4.52E0,6.861E1,-1.38E0,1.198E1,-1.174E1,2.0782E2,-4.1920817E-1,7.0432687E-1,-1.0818558E0,-5.7768166E-1,-7.652731E-1,-3.760974E-1,-4.3565953E-1,2.33215E-1,-7.1885604E-1,-2.1704763E-1,-2.5983793E-1,4.0130276E-2,-8.5784644E-2,1.0297956E0,4.2799094E-1,2.4606712E0,1.5205175E-1,9.290373E-1,3.359683E-2,5.017501E-1,-1.1579505E-1,-7.7155465E-1,1.7297876E0,4.210869E-1,2.3090957E-1,5.8306634E-1,1.1816616E0,-7.573132E-1,7.4644774E-2,1.0930755E0,-9.8519254E-1,3.283604E-1],"split_indices":[0,0,0,0,4,12,2,5,4,5,10,0,5,5,8,5,6,6,6,6,4,6,11,4,10,11,0,9,8,11,4,0,0,0,0,0,0,0,0,0,0,0,0,0,0,0,0,0,0,0,0,0,0,0,0,0,0,0,0,0,0,0,0],"split_type":[0,0,0,0,0,0,0,0,0,0,0,0,0,0,0,0,0,0,0,0,0,0,0,0,0,0,0,0,0,0,0,0,0,0,0,0,0,0,0,0,0,0,0,0,0,0,0,0,0,0,0,0,0,0,0,0,0,0,0,0,0,0,0],"sum_hessian":[5.223E3,2.743E3,2.48E3,8.28E2,1.915E3,1.88E3,6E2,2.73E2,5.55E2,1.769E3,1.46E2,1.594E3,2.86E2,4.56E2,1.44E2,1.9E1,2.54E2,3.51E2,2.04E2,4.37E2,1.332E3,1.21E2,2.5E1,9.65E2,6.29E2,2.54E2,3.2E1,3.89E2,6.7E1,1.35E2,9E0,1.1E1,8E0,1.26E2,1.28E2,1.67E2,1.84E2,1.44E2,6E1,1.77E2,2.6E2,8.17E2,5.15E2,1.12E2,9E0,2E1,5E0,9.36E2,2.9E1,1.08E2,5.21E2,2.15E2,3.9E1,3E0,2.9E1,1.37E2,2.52E2,6.2E1,5E0,7E0,1.28E2,3E0,6E0],"tree_param":{"num_deleted":"0","num_feature":"13","num_nodes":"63","size_leaf_vector":"1"}},{"base_weights":[-6.8754636E-2,-4.8754373E0,1.332565E0,-7.8597355E0,-3.3288636E0,-2.772393E-1,5.511117E0,-8.906327E0,-8.394741E-1,-5.732983E0,-1.2511472E0,-3.0779674E0,1.2102406E0,-7.4844784E-1,7.366669E0,-1.0630865E1,-6.3597465E0,-5.102044E0,6.4488688E0,-7.873003E0,-2.2487988E0,-1.5727336E1,-7.0922667E-1,-5.0607543E0,-6.526382E-1,-1.416582E0,2.5393448E0,-2.087934E0,7.2724957E0,5.043348E0,9.249874E0,-9.7907466E-1,-3.6859024E-1,8.282908E-1,-5.7338345E-1,-8.9373994E-1,2.6648256E-1,7.84026E-2,2.2463362E0,-7.872405E-1,-3.4061423E-1,-3.9203617E-1,5.350353E-1,-4.2142436E-1,-1.6344256E0,-3.8063744E-1,4.8582423E-2,-3.383949E-1,-7.07586E-1,-5.602261E-1,1.0480972E-2,-2.8682107E-1,1.8817812E-1,5.0633524E-2,3.53184E-1,-7.4346684E-2,-1.0020608E0,-9.4235134E-1,1.03475E0,2.8340772E-1,8.9419675E-1,6.261421E-1,1.4631017E0],"categories":[],"categories_nodes":[],"categories_segments":[],"categories_sizes":[],"default_left":[0,0,0,0,0,0,0,0,0,0,0,0,0,0,0,0,0,0,0,0,0,0,0,0,0,0,0,0,0,0,0,0,0,0,0,0,0,0,0,0,0,0,0,0,0,0,0,0,0,0,0,0,0,0,0,0,0,0,0,0,0,0,0],"id":6,"left_children":[1,3,5,7,9,11,13,15,17,19,21,23,25,27,29,31,33,35,37,39,41,43,45,47,49,51,53,55,57,59,61,-1,-1,-1,-1,-1,-1,-1,-1,-1,-1,-1,-1,-1,-1,-1,-1,-1,-1,-1,-1,-1,-1,-1,-1,-1,-1,-1,-1,-1,-1,-1,-1],"loss_changes":[3.503213E4,5.3923613E3,2.708975E4,2.9314648E3,3.8640127E3,1.211853E4,1.3014258E4,1.4606914E3,1.6794572E3,2.6590781E3,3.260187E3,4.8488887E3,6.6371064E3,2.776378E3,3.7335977E3,1.9383457E3,2.0042559E3,1.7775471E3,2.3383367E3,1.5372246E3,3.302979E3,6.3024243E2,2.1509585E3,1.7074365E3,2.2651465E3,5.231201E3,4.509381E3,2.6609722E3,4.1435303E3,3.5414492E3,5.9797617E3,0E0,0E0,0E0,0E0,0E0,0E0,0E0,0E0,0E0,0E0,0E0,0E0,0E0,0E0,0E0,0E0,0E0,0E0,0E0,0E0,0E0,0E0,0E0,0E0,0E0,0E0,0E0,0E0,0E0,0E0,0E0,0E0],"parents":[2147483647,0,0,1,1,2,2,3,3,4,4,5,5,6,6,7,7,8,8,9,9,10,10,11,11,12,12,13,13,14,14,15,15,16,16,17,17,18,18,19,19,20,20,21,21,22,22,23,23,24,24,25,25,26,26,27,27,28,28,29,29,30,30],"right_children":[2,4,6,8,10,12,14,16,18,20,22,24,26,28,30,32,34,36,38,40,42,44,46,48,50,52,54,56,58,60,62,-1,-1,-1,-1,-1,-1,-1,-1,-1,-1,-1,-1,-1,-1,-1,-1,-1,-1,-1,-1,-1,-1,-1,-1,-1,-1,-1,-1,-1,-1,-1,-1],"split_conditions":[6.564E1,2.068E2,7.038E1,2.2934E2,2.1004E2,2.0752E2,2.0436E2,6.81E1,-1.6E1,2.2796E2,6.104E1,6.728E1,6.616E1,7.08E0,2.0826E2,6.516E1,-2.258E1,2.3782E2,-1.594E1,6.464E1,7.008E1,6.69E1,6.578E1,6.1E0,2.056E2,2.1572E2,6.924E1,4.8E0,6.792E1,2.3848E2,2.3016E2,-9.7907466E-1,-3.6859024E-1,8.282908E-1,-5.7338345E-1,-8.9373994E-1,2.6648256E-1,7.84026E-2,2.2463362E0,-7.872405E-1,-3.4061423E-1,-3.9203617E-1,5.350353E-1,-4.2142436E-1,-1.6344256E0,-3.8063744E-1,4.8582423E-2,-3.383949E-1,-7.07586E-1,-5.602261E-1,1.0480972E-2,-2.8682107E-1,1.8817812E-1,5.0633524E-2,3.53184E-1,-7.4346684E-2,-1.0020608E0,-9.4235134E-1,1.03475E0,2.8340772E-1,8.9419675E-1,6.261421E-1,1.4631017E0],"split_indices":[1,3,2,4,4,3,3,2,6,3,1,2,2,7,4,1,6,4,5,1,2,2,2,7,4,4,1,7,1,3,3,0,0,0,0,0,0,0,0,0,0,0,0,0,0,0,0,0,0,0,0,0,0,0,0,0,0,0,0,0,0,0,0],"split_type":[0,0,0,0,0,0,0,0,0,0,0,0,0,0,0,0,0,0,0,0,0,0,0,0,0,0,0,0,0,0,0,0,0,0,0,0,0,0,0,0,0,0,0,0,0,0,0,0,0,0,0,0,0,0,0,0,0,0,0,0,0,0,0],"sum_hessian":[5.199E3,1.173E3,4.026E3,3.99E2,7.74E2,2.907E3,1.119E3,3.47E2,5.2E1,3.58E2,4.16E2,1.008E3,1.899E3,2.56E2,8.63E2,2.05E2,1.42E2,3.3E1,1.9E1,2.21E2,1.37E2,1.4E1,4.02E2,5.54E2,4.54E2,6.38E2,1.261E3,2.2E2,3.6E1,3.88E2,4.75E2,1.61E2,4.4E1,6E0,1.36E2,1.9E1,1.4E1,1.6E1,3E0,1.42E2,7.9E1,1.06E2,3.1E1,5E0,9E0,9.8E1,3.04E2,4.56E2,9.8E1,4.9E1,4.05E2,4.05E2,2.33E2,6.26E2,6.35E2,1.99E2,2.1E1,8E0,2.8E1,3.13E2,7.5E1,4.12E2,6.3E1],"tree_param":{"num_deleted":"0","num_feature":"13","num_nodes":"63","size_leaf_vector":"1"}},{"base_weights":[-1.3443528E-1,-2.657841E0,3.913074E0,-4.3412333E0,-6.338654E-2,3.9871258E-1,5.2841988E0,-5.6692667E0,-2.6632261E0,-4.8054175E0,1.5689372E0,8.27252E-1,-1.0803112E1,3.4476237E0,8.293252E0,-9.055744E0,-4.529424E0,-2.805684E0,1.4654673E0,-8.772115E0,-2.863146E0,-3.544545E-1,5.1173315E0,-1.5018095E0,1.0058771E0,-1.690413E1,-7.9018486E-1,3.0159461E0,1.3481362E1,7.158069E0,1.3866686E1,-9.0760213E-1,-5.515478E-1,-1.1909436E0,-3.3379328E-1,-2.5580743E-1,3.2665846E-1,-6.017097E-1,-1.7244487E0,-3.395531E-1,4.3420848E-1,7.864538E-1,-5.5560116E-2,2.5993876E0,3.749641E-1,2.6347902E-1,-3.0110078E-2,-1.7660898E0,2.0150451E-2,-5.4308814E-1,4.2930153E-1,1.7986366E-1,5.763247E-1,1.3464811E0,-6.1200254E-2,3.5589924E-1,7.3717093E-1,2.0294008E0,9.7238284E-1],"categories":[],"categories_nodes":[],"categories_segments":[],"categories_sizes":[],"default_left":[0,0,0,0,0,0,0,0,0,0,0,0,0,0,0,0,0,0,0,0,0,0,0,0,0,0,0,0,0,0,0,0,0,0,0,0,0,0,0,0,0,0,0,0,0,0,0,0,0,0,0,0,0,0,0,0,0,0,0],"id":7,"left_children":[1,3,5,7,9,11,13,15,17,19,21,23,25,27,29,31,33,35,-1,37,39,41,43,-1,45,47,49,51,53,55,57,-1,-1,-1,-1,-1,-1,-1,-1,-1,-1,-1,-1,-1,-1,-1,-1,-1,-1,-1,-1,-1,-1,-1,-1,-1,-1,-1,-1],"loss_changes":[5.3723234E4,1.4150369E4,9.73152E3,4.3638086E3,9.884455E3,2.7355776E3,8.001203E3,4.1895977E3,2.6518179E3,2.494225E3,6.485518E3,1.937448E3,1.2695125E3,3.874871E3,3.3805156E3,1.2824961E3,2.9773672E3,2.3484067E3,0E0,1.5486797E3,2.5538743E3,2.1437585E3,3.7818682E3,0E0,1.7213989E3,1.1590608E3,3.6879025E2,2.7744292E3,1.7785288E3,2.5165156E3,1.5029824E3,0E0,0E0,0E0,0E0,0E0,0E0,0E0,0E0,0E0,0E0,0E0,0E0,0E0,0E0,0E0,0E0,0E0,0E0,0E0,0E0,0E0,0E0,0E0,0E0,0E0,0E0,0E0,0E0],"parents":[2147483647,0,0,1,1,2,2,3,3,4,4,5,5,6,6,7,7,8,8,9,9,10,10,11,11,12,12,13,13,14,14,15,15,16,16,17,17,19,19,20,20,21,21,22,22,24,24,25,25,26,26,27,27,28,28,29,29,30,30],"right_children":[2,4,6,8,10,12,14,16,18,20,22,24,26,28,30,32,34,36,-1,38,40,42,44,-1,46,48,50,52,54,56,58,-1,-1,-1,-1,-1,-1,-1,-1,-1,-1,-1,-1,-1,-1,-1,-1,-1,-1,-1,-1,-1,-1,-1,-1,-1,-1,-1,-1],"split_conditions":[6.899E1,2.1722E2,2.0596E2,6.719E1,6.5875E1,5.4E0,7.093E1,2.1004E2,1.692E1,6.374E1,2.129E2,-1.036E1,-5.78E0,2.3388E2,7.361E1,-4E-2,-1.056E1,9.66E0,1.4654673E0,6.571E1,2.2422E2,-9.04E0,-1.772E1,-1.5018095E0,-1.54E0,1.126E1,6.25E0,2.352E2,2.441E2,2.0804E2,7.154E1,-9.0760213E-1,-5.515478E-1,-1.1909436E0,-3.3379328E-1,-2.5580743E-1,3.2665846E-1,-6.017097E-1,-1.7244487E0,-3.395531E-1,4.3420848E-1,7.864538E-1,-5.5560116E-2,2.5993876E0,3.749641E-1,2.6347902E-1,-3.0110078E-2,-1.7660898E0,2.0150451E-2,-5.4308814E-1,4.2930153E-1,1.7986366E-1,5.763247E-1,1.3464811E0,-6.1200254E-2,3.5589924E-1,7.3717093E-1,2.0294008E0,9.7238284E-1],"split_indices":[0,3,3,0,0,6,0,4,8,2,4,10,7,4,0,6,7,7,0,0,4,10,5,0,10,6,6,3,4,4,2,0,0,0,0,0,0,0,0,0,0,0,0,0,0,0,0,0,0,0,0,0,0,0,0,0,0,0,0],"split_type":[0,0,0,0,0,0,0,0,0,0,0,0,0,0,0,0,0,0,0,0,0,0,0,0,0,0,0,0,0,0,0,0,0,0,0,0,0,0,0,0,0,0,0,0,0,0,0,0,0,0,0,0,0,0,0,0,0,0,0],"sum_hessian":[5.258E3,3.239E3,2.019E3,1.964E3,1.275E3,5.67E2,1.452E3,1.095E3,8.69E2,3.26E2,9.49E2,5.47E2,2E1,9.03E2,5.49E2,2.74E2,8.21E2,8.64E2,5E0,1.06E2,2.2E2,6.16E2,3.33E2,4E0,5.43E2,1.2E1,8E0,8.67E2,3.6E1,4.58E2,9.1E1,1.31E2,1.43E2,2.6E1,7.95E2,8.18E2,4.6E1,9.8E1,8E0,1.89E2,3.1E1,1.9E1,5.97E2,4E0,3.29E2,2.04E2,3.39E2,9E0,3E0,4E0,4E0,7.34E2,1.33E2,2.9E1,7E0,1.99E2,2.59E2,1E1,8.1E1],"tree_param":{"num_deleted":"0","num_feature":"13","num_nodes":"59","size_leaf_vector":"1"}},{"base_weights":[1.6278142E-1,-2.8382936E0,2.9833975E0,-6.908428E0,-2.009777E0,-2.5523606E-1,4.343485E0,-8.046723E0,-2.7782447E0,-2.3965225E0,3.8392215E0,-4.298229E0,1.5122145E0,3.1681345E0,7.41937E0,-1.2833688E1,-6.543934E0,-3.9794106E0,7.7094893E0,-4.84833E0,-1.3719E0,3.1251163E0,2.0584621E0,8.159681E0,-5.09548E0,-8.646719E-1,3.2549965E0,4.0641036E0,-1.5287559E0,7.0895114E0,2.5506887E1,-1.1925215E0,-1.7160627E-1,-5.6274325E-1,5.017047E-1,-2.1171887E-1,-1.1952932E0,-2.3627257E-1,1.5170454E0,-2.0178588E-1,-5.719814E-1,-7.055299E-1,-8.615856E-2,8.274893E-1,5.692302E-2,1.6760352E0,-2.645935E-2,-5.1851434E-1,1.2921323E-1,-1.7918895E-1,4.9113873E-1,2.217633E-1,1.3290837E0,-1.0346403E-1,3.6100838E-1,-5.448615E-1,1.2131474E-1,3.843867E-1,7.309812E-1,8.6261535E-1,2.4857495E0],"categories":[],"categories_nodes":[],"categories_segments":[],"categories_sizes":[],"default_left":[0,0,0,0,0,0,0,0,0,0,0,0,0,0,0,0,0,0,0,0,0,0,0,0,0,0,0,0,0,0,0,0,0,0,0,0,0,0,0,0,0,0,0,0,0,0,0,0,0,0,0,0,0,0,0,0,0,0,0,0,0],"id":8,"left_children":[1,3,5,7,9,11,13,15,17,19,21,23,25,27,29,31,33,35,37,39,41,43,-1,45,47,49,51,53,55,57,59,-1,-1,-1,-1,-1,-1,-1,-1,-1,-1,-1,-1,-1,-1,-1,-1,-1,-1,-1,-1,-1,-1,-1,-1,-1,-1,-1,-1,-1,-1],"loss_changes":[4.4254395E4,8.527836E3,1.1872111E4,1.9898281E3,4.773128E3,5.7088403E3,6.8382266E3,2.3259414E3,1.214845E3,4.95741E3,1.9674944E3,2.4550732E3,2.305986E3,5.792584E3,2.9455234E3,1.7183232E3,1.6591133E3,1.20241E3,1.2559631E3,3.097504E3,3.0543684E3,2.2227095E3,0E0,1.6359136E3,2.140309E3,2.286833E3,2.0249038E3,2.7810723E3,3.565054E3,2.3701797E3,4.024204E2,0E0,0E0,0E0,0E0,0E0,0E0,0E0,0E0,0E0,0E0,0E0,0E0,0E0,0E0,0E0,0E0,0E0,0E0,0E0,0E0,0E0,0E0,0E0,0E0,0E0,0E0,0E0,0E0,0E0,0E0],"parents":[2147483647,0,0,1,1,2,2,3,3,4,4,5,5,6,6,7,7,8,8,9,9,10,10,11,11,12,12,13,13,14,14,15,15,16,16,17,17,18,18,19,19,20,20,21,21,23,23,24,24,25,25,26,26,27,27,28,28,29,29,30,30],"right_children":[2,4,6,8,10,12,14,16,18,20,22,24,26,28,30,32,34,36,38,40,42,44,-1,46,48,50,52,54,56,58,60,-1,-1,-1,-1,-1,-1,-1,-1,-1,-1,-1,-1,-1,-1,-1,-1,-1,-1,-1,-1,-1,-1,-1,-1,-1,-1,-1,-1,-1,-1],"split_conditions":[6.817E1,6.497E1,2.0638E2,2.253E2,2.3302E2,6.91E1,7.093E1,2.0766E2,2.239E2,2.057E2,7.054E1,6.822E1,1.9836E2,1E0,2.5838E2,4.38E0,6.734E1,5.78E0,3.02E0,3.8E-1,-6.38E0,6.6035E1,2.0584621E0,2.0782E2,4.78E0,6.1E0,2.4014E2,-8.82E0,2.184E2,2.0804E2,7.187E1,-1.1925215E0,-1.7160627E-1,-5.6274325E-1,5.017047E-1,-2.1171887E-1,-1.1952932E0,-2.3627257E-1,1.5170454E0,-2.0178588E-1,-5.719814E-1,-7.055299E-1,-8.615856E-2,8.274893E-1,5.692302E-2,1.6760352E0,-2.645935E-2,-5.1851434E-1,1.2921323E-1,-1.7918895E-1,4.9113873E-1,2.217633E-1,1.3290837E0,-1.0346403E-1,3.6100838E-1,-5.448615E-1,1.2131474E-1,3.843867E-1,7.309812E-1,8.6261535E-1,2.4857495E0],"split_indices":[0,0,3,3,4,0,0,4,4,3,1,0,3,12,3,7,1,8,8,9,9,0,0,4,11,7,4,7,3,4,0,0,0,0,0,0,0,0,0,0,0,0,0,0,0,0,0,0,0,0,0,0,0,0,0,0,0,0,0,0,0],"split_type":[0,0,0,0,0,0,0,0,0,0,0,0,0,0,0,0,0,0,0,0,0,0,0,0,0,0,0,0,0,0,0,0,0,0,0,0,0,0,0,0,0,0,0,0,0,0,0,0,0,0,0,0,0,0,0,0,0,0,0,0,0],"sum_hessian":[5.226E3,2.532E3,2.694E3,4.27E2,2.105E3,7.97E2,1.897E3,3.34E2,9.3E1,1.975E3,1.3E2,2.42E2,5.55E2,1.374E3,5.23E2,7.8E1,2.56E2,8.4E1,9E0,5.81E2,1.394E3,1.27E2,3E0,1.4E1,2.28E2,2.35E2,3.2E2,1.154E3,2.2E2,5.15E2,8E0,6.5E1,1.3E1,2.47E2,9E0,7.6E1,8E0,5E0,4E0,2.9E2,2.91E2,5.2E1,1.342E3,3.1E1,9.6E1,5E0,9E0,1.89E2,3.9E1,1.97E2,3.8E1,3.1E2,1E1,8.9E1,1.065E3,8E1,1.4E2,2.45E2,2.7E2,3E0,5E0],"tree_param":{"num_deleted":"0","num_feature":"13","num_nodes":"61","size_leaf_vector":"1"}},{"base_weights":[7.2907805E-2,-3.0731497E0,2.7176025E0,-5.526446E0,-2.0444028E0,9.468372E-1,5.239572E0,-4.399882E0,-7.686524E0,-3.3518128E0,8.606966E-1,-4.181987E0,1.7211466E0,3.5133007E0,8.277666E0,-2.0939264E0,-5.9324527E0,-1.479089E1,-6.683176E0,-3.1234088E0,-1.5645665E1,4.9408197E0,-1.0230844E0,-3.0718234E0,-1.1387829E1,2.4847243E0,-3.258852E0,2.7876394E0,1.0760932E1,1.2156734E1,6.410157E0,3.6970085E-1,-3.0159792E-1,-7.5082046E-1,-3.4408286E-1,-1.6746142E0,-8.3653194E-1,5.1909024E-1,-6.113953E-1,-2.5825396E-1,1.3842144E0,-6.420272E-1,-1.8580393E0,2.6849785E-1,1.3619161E0,2.0866003E0,-1.0591381E-1,-4.1676734E-2,-5.1323813E-1,-3.6060613E-1,-1.1035384E0,6.410726E-2,2.696997E-1,-3.1132132E-1,1.7147342E0,-1.4062418E0,2.3950341E-1,1.0677577E0,-1.9355987E-1,4.7131878E-1,1.1816919E0,1.7704278E-1,7.7494663E-1],"categories":[],"categories_nodes":[],"categories_segments":[],"categories_sizes":[],"default_left":[0,0,0,0,0,0,0,0,0,0,0,0,0,0,0,0,0,0,0,0,0,0,0,0,0,0,0,0,0,0,0,0,0,0,0,0,0,0,0,0,0,0,0,0,0,0,0,0,0,0,0,0,0,0,0,0,0,0,0,0,0,0,0],"id":9,"left_children":[1,3,5,7,9,11,13,15,17,19,21,23,25,27,29,31,33,35,37,39,41,43,45,47,49,51,53,55,57,59,61,-1,-1,-1,-1,-1,-1,-1,-1,-1,-1,-1,-1,-1,-1,-1,-1,-1,-1,-1,-1,-1,-1,-1,-1,-1,-1,-1,-1,-1,-1,-1,-1],"loss_changes":[4.3632004E4,6.033254E3,1.2718148E4,1.6866406E3,6.4179707E3,6.65912E3,6.133297E3,1.6379736E3,1.6190342E3,3.222414E3,4.0402356E3,1.7249446E3,5.5447056E3,3.919755E3,3.0008574E3,2.133357E3,1.5368633E3,5.5309424E2,2.7408994E3,2.5061074E3,1.0265825E3,3.1212476E3,2.970115E3,1.6342653E3,4.1796436E2,1.8821455E3,3.1141584E3,2.9243647E3,2.3500806E3,2.1570312E3,3.9530674E3,0E0,0E0,0E0,0E0,0E0,0E0,0E0,0E0,0E0,0E0,0E0,0E0,0E0,0E0,0E0,0E0,0E0,0E0,0E0,0E0,0E0,0E0,0E0,0E0,0E0,0E0,0E0,0E0,0E0,0E0,0E0,0E0],"parents":[2147483647,0,0,1,1,2,2,3,3,4,4,5,5,6,6,7,7,8,8,9,9,10,10,11,11,12,12,13,13,14,14,15,15,16,16,17,17,18,18,19,19,20,20,21,21,22,22,23,23,24,24,25,25,26,26,27,27,28,28,29,29,30,30],"right_children":[2,4,6,8,10,12,14,16,18,20,22,24,26,28,30,32,34,36,38,40,42,44,46,48,50,52,54,56,58,60,62,-1,-1,-1,-1,-1,-1,-1,-1,-1,-1,-1,-1,-1,-1,-1,-1,-1,-1,-1,-1,-1,-1,-1,-1,-1,-1,-1,-1,-1,-1,-1,-1],"split_conditions":[6.796E1,6.557E1,7.019E1,1.46E0,2.2104E2,1.9836E2,2.2122E2,-9.4E-1,-1.828E1,1.688E1,5.4E0,6.5E0,1E0,7.361E1,6.8E0,-1.554E1,-7.42E0,2.8E-1,-1.72E1,1.692E1,2.142E2,3.92E0,-1.122E1,1.12E0,-9E-1,2.1116E2,3.092E1,1.8242E2,5.24E0,-2.2E0,2.3354E2,3.6970085E-1,-3.0159792E-1,-7.5082046E-1,-3.4408286E-1,-1.6746142E0,-8.3653194E-1,5.1909024E-1,-6.113953E-1,-2.5825396E-1,1.3842144E0,-6.420272E-1,-1.8580393E0,2.6849785E-1,1.3619161E0,2.0866003E0,-1.0591381E-1,-4.1676734E-2,-5.1323813E-1,-3.6060613E-1,-1.1035384E0,6.410726E-2,2.696997E-1,-3.1132132E-1,1.7147342E0,-1.4062418E0,2.3950341E-1,1.0677577E0,-1.9355987E-1,4.7131878E-1,1.1816919E0,1.7704278E-1,7.7494663E-1],"split_indices":[0,0,0,10,3,3,3,9,6,6,6,8,12,0,6,5,5,8,5,8,3,6,5,10,9,3,5,3,6,10,3,0,0,0,0,0,0,0,0,0,0,0,0,0,0,0,0,0,0,0,0,0,0,0,0,0,0,0,0,0,0,0,0],"split_type":[0,0,0,0,0,0,0,0,0,0,0,0,0,0,0,0,0,0,0,0,0,0,0,0,0,0,0,0,0,0,0,0,0,0,0,0,0,0,0,0,0,0,0,0,0,0,0,0,0,0,0,0,0,0,0,0,0,0,0,0,0,0,0],"sum_hessian":[5.242E3,2.394E3,2.848E3,7.06E2,1.688E3,1.674E3,1.174E3,4.66E2,2.4E2,1.164E3,5.24E2,2.19E2,1.455E3,7.5E2,4.24E2,1.87E2,2.79E2,2.8E1,2.12E2,1.144E3,2E1,1.65E2,3.59E2,1.91E2,2.8E1,1.262E3,1.93E2,6.83E2,6.7E1,1.36E2,2.88E2,3.7E1,1.5E2,8.8E1,1.91E2,1E1,1.8E1,1.4E1,1.98E2,1.139E3,5E0,1.1E1,9E0,1.47E2,1.8E1,3E0,3.56E2,1.09E2,8.2E1,8E0,2E1,4.36E2,8.26E2,1.89E2,4E0,6E0,6.77E2,5.6E1,1.1E1,4.1E1,9.5E1,1.27E2,1.61E2],"tree_param":{"num_deleted":"0","num_feature":"13","num_nodes":"63","size_leaf_vector":"1"}},{"base_weights":[1.0342433E-1,-1.8644775E0,3.3275094E0,-4.5718675E0,-6.1368227E-1,1.4073458E0,4.977767E0,-5.151988E0,-1.2811799E0,-1.885364E0,1.9409896E0,-1.564967E0,2.8764653E0,3.0475821E0,7.0586247E0,-7.4009466E0,-4.076451E0,2.6789E-1,-7.386161E0,-3.282764E0,4.02625E-1,4.5850876E-1,5.155335E0,-9.423544E-1,-1.6429142E1,2.4212093E0,2.6900125E0,8.0425625E0,2.019932E0,1.2921289E1,6.0539293E0,-6.1971086E-1,7.593964E-1,-2.5616086E-1,-5.809423E-1,-7.993285E-1,1.3418317E-1,3.244049E-2,-9.353483E-1,-5.2642655E-1,-2.0297357E-1,5.633608E-2,-1.440379E0,1.2140452E0,1.2627085E-2,1.8341236E-1,6.7397225E-1,6.533308E-3,-5.082904E-1,-4.023455E-1,-2.1592596E0,-2.3231447E-1,2.7157384E-1,8.035834E-1,-4.0412238E-1,3.649914E-1,6.527993E-2,-8.6850755E-2,1.1353476E0,9.399535E-2,5.893447E-1],"categories":[],"categories_nodes":[],"categories_segments":[],"categories_sizes":[],"default_left":[0,0,0,0,0,0,0,0,0,0,0,0,0,0,0,0,0,0,0,0,0,0,0,0,0,0,0,0,0,0,0,0,0,0,0,0,0,0,0,0,0,0,0,0,0,0,0,0,0,0,0,0,0,0,0,0,0,0,0,0,0],"id":10,"left_children":[1,3,5,7,9,11,13,15,17,19,21,23,25,27,29,31,33,35,37,39,41,43,45,47,49,-1,51,53,55,57,59,-1,-1,-1,-1,-1,-1,-1,-1,-1,-1,-1,-1,-1,-1,-1,-1,-1,-1,-1,-1,-1,-1,-1,-1,-1,-1,-1,-1,-1,-1],"loss_changes":[3.2725736E4,1.0843803E4,6.1879297E3,1.9253008E3,7.1248745E3,3.95635E3,4.1997656E3,2.0500332E3,1.4489061E3,4.682074E3,3.4714714E3,2.7609048E3,3.0132422E3,2.7915557E3,2.8963223E3,1.6900039E3,1.6034082E3,1.7953057E3,1.0447454E3,2.2182168E3,3.0991562E3,2.2100945E3,2.1332578E3,1.6019427E3,1.3090598E3,0E0,2.3867827E3,2.4889595E3,1.3890103E3,1.3145566E3,2.7649355E3,0E0,0E0,0E0,0E0,0E0,0E0,0E0,0E0,0E0,0E0,0E0,0E0,0E0,0E0,0E0,0E0,0E0,0E0,0E0,0E0,0E0,0E0,0E0,0E0,0E0,0E0,0E0,0E0,0E0,0E0],"parents":[2147483647,0,0,1,1,2,2,3,3,4,4,5,5,6,6,7,7,8,8,9,9,10,10,11,11,12,12,13,13,14,14,15,15,16,16,17,17,18,18,19,19,20,20,21,21,22,22,23,23,24,24,26,26,27,27,28,28,29,29,30,30],"right_children":[2,4,6,8,10,12,14,16,18,20,22,24,26,28,30,32,34,36,38,40,42,44,46,48,50,-1,52,54,56,58,60,-1,-1,-1,-1,-1,-1,-1,-1,-1,-1,-1,-1,-1,-1,-1,-1,-1,-1,-1,-1,-1,-1,-1,-1,-1,-1,-1,-1,-1,-1],"split_conditions":[6.899E1,6.617E1,2.1332E2,2.3016E2,2.2036E2,2.1252E2,7.056E1,2.1036E2,2.852E1,2.2098E2,2.129E2,2.1212E2,-1.036E1,-2.84E0,6.902E1,6.614E1,2.66E0,-7.38E0,2.44E0,1.985E2,1E1,-9.58E0,6.796E1,4.7E0,1.82E0,2.4212093E0,6.74E1,7.176E1,-1.76E0,-4.56E0,1.9612E2,-6.1971086E-1,7.593964E-1,-2.5616086E-1,-5.809423E-1,-7.993285E-1,1.3418317E-1,3.244049E-2,-9.353483E-1,-5.2642655E-1,-2.0297357E-1,5.633608E-2,-1.440379E0,1.2140452E0,1.2627085E-2,1.8341236E-1,6.7397225E-1,6.533308E-3,-5.082904E-1,-4.023455E-1,-2.1592596E0,-2.3231447E-1,2.7157384E-1,8.035834E-1,-4.0412238E-1,3.649914E-1,6.527993E-2,-8.6850755E-2,1.1353476E0,9.399535E-2,5.893447E-1],"split_indices":[0,0,3,3,3,4,0,4,5,4,4,4,10,5,1,0,11,8,8,3,10,10,1,9,11,0,1,1,9,9,4,0,0,0,0,0,0,0,0,0,0,0,0,0,0,0,0,0,0,0,0,0,0,0,0,0,0,0,0,0,0],"split_type":[0,0,0,0,0,0,0,0,0,0,0,0,0,0,0,0,0,0,0,0,0,0,0,0,0,0,0,0,0,0,0,0,0,0,0,0,0,0,0,0,0,0,0,0,0,0,0,0,0,0,0,0,0,0,0,0,0,0,0,0,0],"sum_hessian":[5.156E3,3.202E3,1.954E3,1.011E3,2.191E3,9.04E2,1.05E3,8.59E2,1.52E2,1.463E3,7.28E2,2.99E2,6.05E2,5.46E2,5.04E2,2.76E2,5.83E2,1.22E2,3E1,9.08E2,5.55E2,4.99E2,2.29E2,2.88E2,1.1E1,3E0,6.02E2,9.2E1,4.54E2,7.2E1,4.32E2,2.71E2,5E0,4.59E2,1.24E2,1.4E1,1.08E2,1.1E1,1.9E1,1.66E2,7.42E2,5.47E2,8E0,9E0,4.9E2,1.23E2,1.06E2,2.43E2,4.5E1,6E0,5E0,6.7E1,5.35E2,8E1,1.2E1,1.45E2,3.09E2,6E0,6.6E1,9.2E1,3.4E2],"tree_param":{"num_deleted":"0","num_feature":"13","num_nodes":"61","size_leaf_vector":"1"}},{"base_weights":[1.0164427E-1,-1.9355289E0,3.4293907E0,-3.6400204E0,-4.636488E-1,-5.0927687E-1,4.2319345E0,-4.1475153E0,8.5876465E-2,-1.8193158E0,2.1181583E0,-2.193225E-1,-1.3981532E1,3.1179187E0,6.7361383E0,-6.37582E0,-2.993699E0,1.3880256E0,-4.078841E-1,-3.778914E0,-6.264741E-1,6.573363E-1,5.547789E0,-8.51686E-1,7.799753E0,-3.9135802E-1,-1.5660565E0,1.1025391E-1,4.406779E0,3.7437012E0,7.909348E0,-4.753387E-1,-1.7235168E0,8.7640977E-1,-2.6026833E-1,3.8040277E-1,-1.4997144E-1,-1.7920491E-1,-4.8378626E-1,-7.918658E-1,-1.2402185E-2,-6.56791E-2,4.1846406E-1,2.0188217E0,3.6709484E-1,-3.124201E-1,7.599202E-2,1.2250675E0,2.4686988E-1,-1.528912E-1,4.2747518E-1,9.643769E-2,4.455451E-1,3.870385E-1,-1.4566184E0,1.1907928E0,5.590406E-1],"categories":[],"categories_nodes":[],"categories_segments":[],"categories_sizes":[],"default_left":[0,0,0,0,0,0,0,0,0,0,0,0,0,0,0,0,0,0,0,0,0,0,0,0,0,0,0,0,0,0,0,0,0,0,0,0,0,0,0,0,0,0,0,0,0,0,0,0,0,0,0,0,0,0,0,0,0],"id":11,"left_children":[1,3,5,7,9,11,13,15,17,19,21,23,25,27,29,31,33,-1,35,37,39,41,43,45,47,-1,-1,49,51,53,55,-1,-1,-1,-1,-1,-1,-1,-1,-1,-1,-1,-1,-1,-1,-1,-1,-1,-1,-1,-1,-1,-1,-1,-1,-1,-1],"loss_changes":[3.502796E4,8.039038E3,6.2039473E3,2.8083027E3,6.0274756E3,1.2977445E3,4.526248E3,3.3412812E3,1.5329626E3,2.636659E3,2.9673313E3,1.6648502E3,2.6017603E2,4.379911E3,1.7292793E3,2.801996E3,3.1613247E3,0E0,1.3341466E3,1.4770063E3,3.0714077E3,2.82366E3,3.226378E3,1.6760929E3,8.027809E2,0E0,0E0,3.6068445E3,2.9370986E3,3.5230923E3,2.2032266E3,0E0,0E0,0E0,0E0,0E0,0E0,0E0,0E0,0E0,0E0,0E0,0E0,0E0,0E0,0E0,0E0,0E0,0E0,0E0,0E0,0E0,0E0,0E0,0E0,0E0,0E0],"parents":[2147483647,0,0,1,1,2,2,3,3,4,4,5,5,6,6,7,7,8,8,9,9,10,10,11,11,12,12,13,13,14,14,15,15,16,16,18,18,19,19,20,20,21,21,22,22,23,23,24,24,27,27,28,28,29,29,30,30],"right_children":[2,4,6,8,10,12,14,16,18,20,22,24,26,28,30,32,34,-1,36,38,40,42,44,46,48,-1,-1,50,52,54,56,-1,-1,-1,-1,-1,-1,-1,-1,-1,-1,-1,-1,-1,-1,-1,-1,-1,-1,-1,-1,-1,-1,-1,-1,-1,-1],"split_conditions":[6.899E1,6.684E1,2.008E2,2.2966E2,2.2086E2,1.416E1,7.123E1,2.068E2,2.2986E2,2.1368E2,2.139E2,9.66E0,7.112E1,2.0458E2,-5.4E-1,6.9E1,-9.58E0,1.3880256E0,6.376E1,8.2E-1,1.8792E2,2.47E1,-1.166E1,2.1572E2,2.1728E2,-3.9135802E-1,-1.5660565E0,2.3452E2,-3.78E0,6.54E0,2.26E0,-4.753387E-1,-1.7235168E0,8.7640977E-1,-2.6026833E-1,3.8040277E-1,-1.4997144E-1,-1.7920491E-1,-4.8378626E-1,-7.918658E-1,-1.2402185E-2,-6.56791E-2,4.1846406E-1,2.0188217E0,3.6709484E-1,-3.124201E-1,7.599202E-2,1.2250675E0,2.4686988E-1,-1.528912E-1,4.2747518E-1,9.643769E-2,4.455451E-1,3.870385E-1,-1.4566184E0,1.1907928E0,5.590406E-1],"split_indices":[0,0,3,4,3,8,0,3,4,4,4,7,2,4,5,2,10,0,1,10,3,5,7,4,4,0,0,3,7,10,5,0,0,0,0,0,0,0,0,0,0,0,0,0,0,0,0,0,0,0,0,0,0,0,0,0,0],"split_type":[0,0,0,0,0,0,0,0,0,0,0,0,0,0,0,0,0,0,0,0,0,0,0,0,0,0,0,0,0,0,0,0,0,0,0,0,0,0,0,0,0,0,0,0,0,0,0,0,0,0,0,0,0,0,0,0,0],"sum_hessian":[5.165E3,3.204E3,1.961E3,1.484E3,1.72E3,3.32E2,1.629E3,1.306E3,1.78E2,1.128E3,5.92E2,3.26E2,6E0,1.129E3,5E2,4.44E2,8.62E2,4E0,1.74E2,4.26E2,7.02E2,4.16E2,1.76E2,3.03E2,2.3E1,3E0,3E0,3.39E2,7.9E2,1.42E2,3.58E2,4.33E2,1.1E1,1.5E1,8.47E2,3.8E1,1.36E2,2.55E2,1.71E2,3.3E1,6.69E2,3.15E2,1.01E2,7E0,1.69E2,1.12E2,1.91E2,8E0,1.5E1,2.45E2,9.4E1,2.11E2,5.79E2,1.36E2,6E0,4E1,3.18E2],"tree_param":{"num_deleted":"0","num_feature":"13","num_nodes":"57","size_leaf_vector":"1"}},{"base_weights":[-5.4103835E-3,-1.8020204E0,1.9539407E0,-2.796129E0,4.8999417E-1,-6.072343E-2,3.6572115E0,-8.260662E0,-2.4455671E0,-7.372349E0,1.1730306E0,-4.9755543E-1,7.198343E0,2.6453424E0,7.665201E0,-2.2362633E1,-7.129107E0,-3.6796896E0,-1.3019004E0,-4.21383E0,-1.5560963E1,-1.4551907E0,2.97114E0,-3.001812E0,1.1006106E0,9.884487E0,-9.675069E-1,-2.8548315E0,3.1842983E0,1.9423237E1,6.9518843E0,-2.1935031E0,-8.3614224E-1,-6.9301975E-1,3.440044E-2,-3.1557667E-1,2.1318002E-1,-3.7732702E-1,-4.105718E-2,-4.792649E-1,4.5136398E-1,-8.3222634E-1,-1.6566621E0,4.499513E-2,-3.745074E-1,-4.012074E-1,2.9074576E-1,5.9113044E-1,-2.7444506E-1,-6.334757E-1,1.3191704E-1,1.2519574E0,1.1621065E-1,-8.6401E-1,5.5962706E-1,-5.291532E-1,1.2668718E-3,-1.225794E-3,3.2922158E-1,3.1538817E-1,1.9755403E0,3.4409428E-1,8.009554E-1],"categories":[],"categories_nodes":[],"categories_segments":[],"categories_sizes":[],"default_left":[0,0,0,0,0,0,0,0,0,0,0,0,0,0,0,0,0,0,0,0,0,0,0,0,0,0,0,0,0,0,0,0,0,0,0,0,0,0,0,0,0,0,0,0,0,0,0,0,0,0,0,0,0,0,0,0,0,0,0,0,0,0,0],"id":12,"left_children":[1,3,5,7,9,11,13,15,17,19,21,23,25,27,29,31,33,35,37,39,41,43,45,47,49,51,53,55,57,59,61,-1,-1,-1,-1,-1,-1,-1,-1,-1,-1,-1,-1,-1,-1,-1,-1,-1,-1,-1,-1,-1,-1,-1,-1,-1,-1,-1,-1,-1,-1,-1,-1],"loss_changes":[1.8361312E4,6.201199E3,8.561862E3,3.6157148E3,4.433747E3,3.6311968E3,5.462842E3,1.6596914E3,2.5146016E3,1.6414453E3,3.5912283E3,4.325699E3,1.4353159E3,3.2135532E3,2.146291E3,1.9520996E2,1.2441724E3,1.4531523E3,2.49679E3,8.919723E2,2.6248535E2,2.0139696E3,2.4068699E3,1.9009585E3,3.2771677E3,2.3591318E3,1.406576E3,1.0469788E3,2.9341367E3,1.1266465E3,2.0496572E3,0E0,0E0,0E0,0E0,0E0,0E0,0E0,0E0,0E0,0E0,0E0,0E0,0E0,0E0,0E0,0E0,0E0,0E0,0E0,0E0,0E0,0E0,0E0,0E0,0E0,0E0,0E0,0E0,0E0,0E0,0E0,0E0],"parents":[2147483647,0,0,1,1,2,2,3,3,4,4,5,5,6,6,7,7,8,8,9,9,10,10,11,11,12,12,13,13,14,14,15,15,16,16,17,17,18,18,19,19,20,20,21,21,22,22,23,23,24,24,25,25,26,26,27,27,28,28,29,29,30,30],"right_children":[2,4,6,8,10,12,14,16,18,20,22,24,26,28,30,32,34,36,38,40,42,44,46,48,50,52,54,56,58,60,62,-1,-1,-1,-1,-1,-1,-1,-1,-1,-1,-1,-1,-1,-1,-1,-1,-1,-1,-1,-1,-1,-1,-1,-1,-1,-1,-1,-1,-1,-1,-1,-1],"split_conditions":[6.84E1,2.2122E2,6.83E1,1.9046E2,6.36E1,2.3938E2,2.2988E2,1.9978E2,2.1716E2,1.78E0,2.029E2,2.1004E2,2.6E0,1.9732E2,6.862E1,6.494E1,4.72E0,1.124E1,6.442E1,2.1778E2,3.92E0,1.1E0,-5.34E0,-1.21E1,1.908E2,-3.78E0,6.578E1,-8.4E-1,2.008E2,-7.4E-1,2.024E1,-2.1935031E0,-8.3614224E-1,-6.9301975E-1,3.440044E-2,-3.1557667E-1,2.1318002E-1,-3.7732702E-1,-4.105718E-2,-4.792649E-1,4.5136398E-1,-8.3222634E-1,-1.6566621E0,4.499513E-2,-3.745074E-1,-4.012074E-1,2.9074576E-1,5.9113044E-1,-2.7444506E-1,-6.334757E-1,1.3191704E-1,1.2519574E0,1.1621065E-1,-8.6401E-1,5.5962706E-1,-5.291532E-1,1.2668718E-3,-1.225794E-3,3.2922158E-1,3.1538817E-1,1.9755403E0,3.4409428E-1,8.009554E-1],"split_indices":[2,3,1,3,1,3,3,4,4,10,4,4,10,4,2,1,11,7,2,4,7,10,10,7,3,11,1,11,3,7,5,0,0,0,0,0,0,0,0,0,0,0,0,0,0,0,0,0,0,0,0,0,0,0,0,0,0,0,0,0,0,0,0],"split_type":[0,0,0,0,0,0,0,0,0,0,0,0,0,0,0,0,0,0,0,0,0,0,0,0,0,0,0,0,0,0,0,0,0,0,0,0,0,0,0,0,0,0,0,0,0,0,0,0,0,0,0,0,0,0,0,0,0,0,0,0,0,0,0],"sum_hessian":[5.214E3,2.72E3,2.494E3,1.897E3,8.23E2,1.143E3,1.351E3,1.13E2,1.784E3,6.5E1,7.58E2,1.079E3,6.4E1,1.08E3,2.71E2,7E0,1.06E2,8.57E2,9.27E2,4.8E1,1.7E1,3.08E2,4.5E2,4.2E2,6.59E2,4.8E1,1.6E1,9.6E1,9.84E2,1.4E1,2.57E2,4E0,3E0,8.8E1,1.8E1,8.23E2,3.4E1,1.73E2,7.54E2,4.1E1,7E0,1E1,7E0,1.9E2,1.18E2,3.4E1,4.16E2,1.6E1,4.04E2,3.7E1,6.22E2,2.8E1,2E1,7E0,9E0,4.1E1,5.5E1,2.22E2,7.62E2,4E0,1E1,1.39E2,1.18E2],"tree_param":{"num_deleted":"0","num_feature":"13","num_nodes":"63","size_leaf_vector":"1"}},{"base_weights":[9.1857195E-2,-1.9929671E0,1.4897062E0,-3.9497352E0,-5.13908E-1,5.365299E-1,3.521467E0,-7.2117764E-1,-4.9029083E0,-8.29695E-1,6.3120203E0,-8.1115985E-1,1.8537178E0,2.9391713E0,8.7269125E0,-7.9538E0,5.979423E-1,-2.982821E0,-6.6114025E0,-7.15701E0,-4.913197E-1,8.240681E0,-8.1354123E-1,-2.1083903E0,2.7304409E0,1.0166174E0,4.061812E0,-1.1835743E0,3.5749571E0,1.3162791E1,4.379125E0,-8.555121E-1,7.1852195E-1,-1.21834196E-1,4.2332363E-1,-2.8740522E-1,8.049048E-1,-7.850797E-1,-3.5496783E-1,-2.6874533E-1,-1.1820376E0,-7.408759E-2,3.613393E-1,3.8462397E-1,9.940353E-1,-7.13697E-1,-1.2993854E-1,1.4252766E0,1.8266292E-1,-1.3343862E-1,1.6871002E-1,1.6932382E-1,1.0352582E0,-1.2580152E0,-4.4161744E-2,2.1219397E-1,7.066237E-1,1.10609844E-1,1.3229164E0,-1.234776E-1,1.1145961E0],"categories":[],"categories_nodes":[],"categories_segments":[],"categories_sizes":[],"default_left":[0,0,0,0,0,0,0,0,0,0,0,0,0,0,0,0,0,0,0,0,0,0,0,0,0,0,0,0,0,0,0,0,0,0,0,0,0,0,0,0,0,0,0,0,0,0,0,0,0,0,0,0,0,0,0,0,0,0,0,0,0],"id":13,"left_children":[1,3,5,7,9,11,13,15,17,19,21,23,25,27,29,31,33,35,37,39,41,43,-1,45,47,49,51,53,55,57,59,-1,-1,-1,-1,-1,-1,-1,-1,-1,-1,-1,-1,-1,-1,-1,-1,-1,-1,-1,-1,-1,-1,-1,-1,-1,-1,-1,-1,-1,-1],"loss_changes":[1.5232941E4,6.069949E3,6.0578145E3,2.775334E3,2.5832617E3,3.784371E3,3.0024277E3,1.9796802E3,2.2667598E3,2.445796E3,1.7685024E3,4.8481196E3,1.9884421E3,2.3632964E3,1.8709844E3,1.5809915E3,1.7600546E3,2.6608284E3,2.5185918E3,1.6284536E3,2.3709956E3,6.298186E2,0E0,2.531941E3,1.8683125E3,2.2994893E3,5.0850737E3,1.1025586E3,3.7599844E3,1.9245098E3,2.9636892E3,0E0,0E0,0E0,0E0,0E0,0E0,0E0,0E0,0E0,0E0,0E0,0E0,0E0,0E0,0E0,0E0,0E0,0E0,0E0,0E0,0E0,0E0,0E0,0E0,0E0,0E0,0E0,0E0,0E0,0E0],"parents":[2147483647,0,0,1,1,2,2,3,3,4,4,5,5,6,6,7,7,8,8,9,9,10,10,11,11,12,12,13,13,14,14,15,15,16,16,17,17,18,18,19,19,20,20,21,21,23,23,24,24,25,25,26,26,27,27,28,28,29,29,30,30],"right_children":[2,4,6,8,10,12,14,16,18,20,22,24,26,28,30,32,34,36,38,40,42,44,-1,46,48,50,52,54,56,58,60,-1,-1,-1,-1,-1,-1,-1,-1,-1,-1,-1,-1,-1,-1,-1,-1,-1,-1,-1,-1,-1,-1,-1,-1,-1,-1,-1,-1,-1,-1],"split_conditions":[6.74E1,2.1014E2,7.013E1,-1.594E1,7.41E1,2.1404E2,7.412E1,1.8898E2,3.8E-1,6.194E1,7.796E1,2.3016E2,3.02E0,1.9612E2,1.3E0,-1.838E1,6.82E1,9.66E0,2.136E2,3.64E0,2.3938E2,1.86E0,-8.1354123E-1,6.334E1,2.3044E2,6.872E1,2.2104E2,-1.012E1,2.2988E2,-9.46E0,2.2584E2,-8.555121E-1,7.1852195E-1,-1.21834196E-1,4.2332363E-1,-2.8740522E-1,8.049048E-1,-7.850797E-1,-3.5496783E-1,-2.6874533E-1,-1.1820376E0,-7.408759E-2,3.613393E-1,3.8462397E-1,9.940353E-1,-7.13697E-1,-1.2993854E-1,1.4252766E0,1.8266292E-1,-1.3343862E-1,1.6871002E-1,1.6932382E-1,1.0352582E0,-1.2580152E0,-4.4161744E-2,2.1219397E-1,7.066237E-1,1.10609844E-1,1.3229164E0,-1.234776E-1,1.1145961E0],"split_indices":[1,3,2,5,2,4,1,3,9,1,2,3,8,4,8,5,2,7,4,8,3,9,0,2,3,1,3,7,3,5,3,0,0,0,0,0,0,0,0,0,0,0,0,0,0,0,0,0,0,0,0,0,0,0,0,0,0,0,0,0,0],"split_type":[0,0,0,0,0,0,0,0,0,0,0,0,0,0,0,0,0,0,0,0,0,0,0,0,0,0,0,0,0,0,0,0,0,0,0,0,0,0,0,0,0,0,0,0,0,0,0,0,0,0,0,0,0,0,0,0,0,0,0,0,0],"sum_hessian":[5.225E3,2.097E3,3.128E3,9.02E2,1.195E3,2.13E3,9.98E2,2.06E2,6.96E2,1.143E3,5.2E1,1.053E3,1.077E3,8.99E2,9.9E1,3.1E1,1.75E2,3.29E2,3.67E2,5.7E1,1.086E3,4.7E1,5E0,7.71E2,2.82E2,7.82E2,2.95E2,1.2E2,7.79E2,4.8E1,5.1E1,2.7E1,4E0,1.21E2,5.4E1,3.15E2,1.4E1,1.47E2,2.2E2,3.9E1,1.8E1,1E3,8.6E1,2.7E1,2E1,5E1,7.21E2,7E0,2.75E2,2.26E2,5.56E2,2.43E2,5.2E1,4E0,1.16E2,6.64E2,1.15E2,1.1E1,3.7E1,3.2E1,1.9E1],"tree_param":{"num_deleted":"0","num_feature":"13","num_nodes":"61","size_leaf_vector":"1"}},{"base_weights":[-1.16217375E-1,-9.862699E-1,2.6289454E0,-1.9126031E0,1.1933882E0,-1.2332929E0,3.8374262E0,-3.8510754E0,-1.1907938E0,3.642581E0,-1.22815154E-1,-4.443649E0,1.1219003E0,1.7861052E-1,5.0993657E0,-4.071853E0,1.3092367E1,-2.0742297E0,6.1603415E-1,2.6792433E0,9.787622E0,-4.9246526E0,4.758527E-1,-6.217744E0,2.1144676E0,-1.3176063E0,1.7361944E0,1.8324212E0,-4.1382666E0,2.907669E0,6.986698E0,-5.159794E-1,-2.1516143E-1,-5.18855E-2,1.7888868E0,1.166797E0,-1.716708E-1,-2.6161766E-1,1.8661363E-1,-5.3138454E-2,3.4941432E-1,1.0172426E0,3.1052867E-1,-4.9195135E-1,7.8207153E-1,1.7079579E0,2.338587E-2,-4.0344393E-1,-1.0093166E0,1.5088247E0,-1.1698817E-1,-1.1698488E-1,3.6764464E-1,6.2536545E-2,8.1592405E-1,-1.5093854E-1,-9.182844E-1,1.737167E-1,1.1968181E0,1.0410229E0,4.1421333E-1],"categories":[],"categories_nodes":[],"categories_segments":[],"categories_sizes":[],"default_left":[0,0,0,0,0,0,0,0,0,0,0,0,0,0,0,0,0,0,0,0,0,0,0,0,0,0,0,0,0,0,0,0,0,0,0,0,0,0,0,0,0,0,0,0,0,0,0,0,0,0,0,0,0,0,0,0,0,0,0,0,0],"id":14,"left_children":[1,3,5,7,9,11,13,15,17,19,21,23,25,27,29,31,33,35,37,39,41,43,45,47,49,-1,51,53,55,57,59,-1,-1,-1,-1,-1,-1,-1,-1,-1,-1,-1,-1,-1,-1,-1,-1,-1,-1,-1,-1,-1,-1,-1,-1,-1,-1,-1,-1,-1,-1],"loss_changes":[1.2544269E4,8.054413E3,5.904378E3,3.911795E3,3.8365747E3,2.2884102E3,4.445458E3,2.8925283E3,3.259156E3,2.436392E3,2.2302402E3,1.5023916E3,1.9197585E3,1.7781289E3,2.9413887E3,2.4479346E3,1.2881115E3,1.6678843E3,4.484062E3,2.0408335E3,9.1901074E2,1.6084895E3,2.637095E3,6.9554443E2,1.7046924E3,0E0,1.5614875E3,1.574396E3,1.1187004E3,2.9222957E3,4.118756E3,0E0,0E0,0E0,0E0,0E0,0E0,0E0,0E0,0E0,0E0,0E0,0E0,0E0,0E0,0E0,0E0,0E0,0E0,0E0,0E0,0E0,0E0,0E0,0E0,0E0,0E0,0E0,0E0,0E0,0E0],"parents":[2147483647,0,0,1,1,2,2,3,3,4,4,5,5,6,6,7,7,8,8,9,9,10,10,11,11,12,12,13,13,14,14,15,15,16,16,17,17,18,18,19,19,20,20,21,21,22,22,23,23,24,24,26,26,27,27,28,28,29,29,30,30],"right_children":[2,4,6,8,10,12,14,16,18,20,22,24,26,28,30,32,34,36,38,40,42,44,46,48,50,-1,52,54,56,58,60,-1,-1,-1,-1,-1,-1,-1,-1,-1,-1,-1,-1,-1,-1,-1,-1,-1,-1,-1,-1,-1,-1,-1,-1,-1,-1,-1,-1,-1,-1],"split_conditions":[7.062E1,2.2218E2,6.654E1,2.1004E2,7.36E0,2.1146E2,2.0596E2,1.416E1,6.936E1,7.148E1,6.388E1,6.604E1,6.104E1,-2.7E0,2.0842E2,6.628E1,-1.65E1,2.1018E2,2.0126E2,2.2E-1,7.8E-1,4.88E0,-1.506E1,2.0786E2,-7.24E0,-1.3176063E0,-1E-1,-5.96E0,4.7E0,2.4854E2,2.1278E2,-5.159794E-1,-2.1516143E-1,-5.18855E-2,1.7888868E0,1.166797E0,-1.716708E-1,-2.6161766E-1,1.8661363E-1,-5.3138454E-2,3.4941432E-1,1.0172426E0,3.1052867E-1,-4.9195135E-1,7.8207153E-1,1.7079579E0,2.338587E-2,-4.0344393E-1,-1.0093166E0,1.5088247E0,-1.1698817E-1,-1.1698488E-1,3.6764464E-1,6.2536545E-2,8.1592405E-1,-1.5093854E-1,-9.182844E-1,1.737167E-1,1.1968181E0,1.0410229E0,4.1421333E-1],"split_indices":[2,3,1,4,6,3,3,8,1,1,2,1,1,5,4,2,6,4,3,8,9,9,5,3,8,0,9,5,9,3,4,0,0,0,0,0,0,0,0,0,0,0,0,0,0,0,0,0,0,0,0,0,0,0,0,0,0,0,0,0,0],"split_type":[0,0,0,0,0,0,0,0,0,0,0,0,0,0,0,0,0,0,0,0,0,0,0,0,0,0,0,0,0,0,0,0,0,0,0,0,0,0,0,0,0,0,0,0,0,0,0,0,0,0,0,0,0,0,0,0,0,0,0,0,0],"sum_hessian":[5.25E3,3.987E3,1.263E3,2.798E3,1.189E3,3.01E2,9.62E2,7.58E2,2.04E3,4.15E2,7.74E2,1.27E2,1.74E2,2.47E2,7.15E2,7.49E2,9E0,1.37E3,6.7E2,3.6E2,5.5E1,8.5E1,6.89E2,1E2,2.7E1,5E0,1.69E2,1.79E2,6.8E1,3.32E2,3.83E2,2.74E2,4.75E2,4E0,5E0,5E0,1.365E3,2.05E2,4.65E2,1.21E2,2.39E2,3.6E1,1.9E1,7.9E1,6E0,5E0,6.84E2,8.6E1,1.4E1,4E0,2.3E1,8E1,8.9E1,1.6E2,1.9E1,5.3E1,1.5E1,3.14E2,1.8E1,8.7E1,2.96E2],"tree_param":{"num_deleted":"0","num_feature":"13","num_nodes":"61","size_leaf_vector":"1"}},{"base_weights":[-1.233139E-1,-2.49406E0,1.2327644E0,-5.660281E0,-1.9576615E0,3.7229273E-1,2.8792148E0,2.7554555E0,-6.2627764E0,5.009154E0,-2.1733007E0,4.5297414E-2,4.4123125E0,2.1829965E0,6.359807E0,-2.8126607E0,1.2702606E1,4.855118E0,-6.687538E0,1.23983674E-1,1.4197475E1,-1.6902808E0,-5.3549337E0,4.7149363E-1,-3.1388292E0,1.4672011E1,2.5353E0,-5.5706E0,2.5481803E0,7.6125517E0,-4.6065164E0,9.067029E-1,-6.551979E-1,1.261098E0,5.172668E-1,8.137599E-1,-4.5305634E-1,-7.619205E-1,-3.4110168E-1,-8.010073E-1,1.833343E-1,1.6345546E-1,1.6513072E0,-1.2102731E-1,-7.058133E-1,-1.2197988E0,-3.8203E-1,-2.1211082E-2,1.2618661E-1,1.4391973E0,-2.7880892E-1,1.9069173E0,6.42178E-1,2.500042E-1,-8.846712E-1,-1.4453453E-1,-1.2114799E0,1.5005657E-1,5.3612477E-1,7.370633E-1,3.3715896E-2,-7.5489655E-2,-1.2325183E0],"categories":[],"categories_nodes":[],"categories_segments":[],"categories_sizes":[],"default_left":[0,0,0,0,0,0,0,0,0,0,0,0,0,0,0,0,0,0,0,0,0,0,0,0,0,0,0,0,0,0,0,0,0,0,0,0,0,0,0,0,0,0,0,0,0,0,0,0,0,0,0,0,0,0,0,0,0,0,0,0,0,0,0],"id":15,"left_children":[1,3,5,7,9,11,13,15,17,19,21,23,25,27,29,31,33,35,37,39,41,43,45,47,49,51,53,55,57,59,61,-1,-1,-1,-1,-1,-1,-1,-1,-1,-1,-1,-1,-1,-1,-1,-1,-1,-1,-1,-1,-1,-1,-1,-1,-1,-1,-1,-1,-1,-1,-1,-1],"loss_changes":[1.674315E4,3.2073047E3,4.692534E3,1.4065566E3,2.447648E3,2.8757642E3,2.7413535E3,1.088079E3,1.241417E3,2.1976792E3,2.4098604E3,2.7359614E3,3.1017878E3,2.7012764E3,2.6315508E3,1.0817317E3,3.1714844E1,6.1685284E2,1.6575029E3,7.480548E2,1.2892751E3,1.7179468E3,1.1139829E3,1.4487711E3,1.8040308E3,1.3310557E3,1.148909E3,1.5219995E3,2.5207144E3,1.953E3,7.7664484E2,0E0,0E0,0E0,0E0,0E0,0E0,0E0,0E0,0E0,0E0,0E0,0E0,0E0,0E0,0E0,0E0,0E0,0E0,0E0,0E0,0E0,0E0,0E0,0E0,0E0,0E0,0E0,0E0,0E0,0E0,0E0,0E0],"parents":[2147483647,0,0,1,1,2,2,3,3,4,4,5,5,6,6,7,7,8,8,9,9,10,10,11,11,12,12,13,13,14,14,15,15,16,16,17,17,18,18,19,19,20,20,21,21,22,22,23,23,24,24,25,25,26,26,27,27,28,28,29,29,30,30],"right_children":[2,4,6,8,10,12,14,16,18,20,22,24,26,28,30,32,34,36,38,40,42,44,46,48,50,52,54,56,58,60,62,-1,-1,-1,-1,-1,-1,-1,-1,-1,-1,-1,-1,-1,-1,-1,-1,-1,-1,-1,-1,-1,-1,-1,-1,-1,-1,-1,-1,-1,-1,-1,-1],"split_conditions":[6.738E1,6.441E1,7.023E1,-2.118E1,-1.166E1,2.47E1,6.86E0,-2.372E1,-2.126E1,6.667E1,1.478E1,1E0,-1.56E0,-6.38E0,9.76E0,6.282E1,-9E-1,2.84E0,-6E-1,-1.938E1,6.722E1,8.26E0,-7.28E0,6.899E1,-8.98E0,-6.6E-1,1.416E1,1.48E0,1.958E1,9.34E0,2.456E1,9.067029E-1,-6.551979E-1,1.261098E0,5.172668E-1,8.137599E-1,-4.5305634E-1,-7.619205E-1,-3.4110168E-1,-8.010073E-1,1.833343E-1,1.6345546E-1,1.6513072E0,-1.2102731E-1,-7.058133E-1,-1.2197988E0,-3.8203E-1,-2.1211082E-2,1.2618661E-1,1.4391973E0,-2.7880892E-1,1.9069173E0,6.42178E-1,2.500042E-1,-8.846712E-1,-1.4453453E-1,-1.2114799E0,1.5005657E-1,5.3612477E-1,7.370633E-1,3.3715896E-2,-7.5489655E-2,-1.2325183E0],"split_indices":[0,0,0,5,7,5,7,5,6,0,6,12,7,9,6,0,11,9,6,5,1,9,11,0,11,9,8,7,5,8,6,0,0,0,0,0,0,0,0,0,0,0,0,0,0,0,0,0,0,0,0,0,0,0,0,0,0,0,0,0,0,0,0],"split_type":[0,0,0,0,0,0,0,0,0,0,0,0,0,0,0,0,0,0,0,0,0,0,0,0,0,0,0,0,0,0,0,0,0,0,0,0,0,0,0,0,0,0,0,0,0,0,0,0,0,0,0,0,0,0,0,0,0,0,0,0,0,0,0],"sum_hessian":[5.206E3,1.894E3,3.312E3,2.73E2,1.621E3,2.176E3,1.136E3,1.8E1,2.55E2,4.8E1,1.573E3,2.014E3,1.62E2,9.48E2,1.88E2,1.2E1,6E0,9E0,2.46E2,3.2E1,1.6E1,1.367E3,2.06E2,1.777E3,2.37E2,2.4E1,1.38E2,4.2E1,9.06E2,1.69E2,1.9E1,3E0,9E0,3E0,3E0,6E0,3E0,1.12E2,1.34E2,5E0,2.7E1,6E0,1E1,1.335E3,3.2E1,1E1,1.96E2,1.067E3,7.1E2,3E0,2.34E2,9E0,1.5E1,1.33E2,5E0,3.1E1,1.1E1,7.81E2,1.25E2,1.38E2,3.1E1,1.5E1,4E0],"tree_param":{"num_deleted":"0","num_feature":"13","num_nodes":"63","size_leaf_vector":"1"}},{"base_weights":[-5.845207E-2,-1.664371E0,1.7895061E0,-3.1981804E0,-7.7030027E-1,-1.2557063E0,2.7952328E0,-3.081636E0,-1.6025301E1,3.9433892E0,-1.0804707E0,-5.3620443E0,-2.7502683E-1,2.597178E0,1.4147512E1,-3.7107124E0,-6.4351916E-1,-1.4904935E0,-6.488138E-1,1.517707E0,1.6122244E1,-1.460539E0,2.428927E0,-1.0226028E1,-2.8613079E0,-6.2586007E0,3.0377924E-1,1.9861177E0,5.1162696E0,-1.01385295E-1,1.7160645E1,-2.2446346E-1,-4.8965392E-1,-1.7903204E-3,-1.3059608E0,-3.2688025E-1,5.575918E-1,1.9448659E-1,1.8212187E0,-1.2387245E-1,1.3930802E0,4.892386E-1,-7.860841E-2,4.4913155E-1,-1.0620948E0,1.5764724E0,-3.2213932E-1,8.171161E-1,-6.1995125E-1,-2.6890881E-2,4.6893245E-1,2.3444551E-1,-5.0833553E-2,7.243537E-1,2.7807322E-1,1.5011108E-1,1.7321682E0],"categories":[],"categories_nodes":[],"categories_segments":[],"categories_sizes":[],"default_left":[0,0,0,0,0,0,0,0,0,0,0,0,0,0,0,0,0,0,0,0,0,0,0,0,0,0,0,0,0,0,0,0,0,0,0,0,0,0,0,0,0,0,0,0,0,0,0,0,0,0,0,0,0,0,0,0,0],"id":16,"left_children":[1,3,5,7,9,11,13,15,17,19,21,23,25,27,29,31,33,-1,-1,35,37,39,41,43,45,47,49,51,53,-1,55,-1,-1,-1,-1,-1,-1,-1,-1,-1,-1,-1,-1,-1,-1,-1,-1,-1,-1,-1,-1,-1,-1,-1,-1,-1,-1],"loss_changes":[1.5458608E4,3.8194443E3,7.421252E3,1.4844141E3,2.5803875E3,2.4227803E3,4.057542E3,1.5589824E3,3.4530273E1,3.1956125E3,2.2096707E3,1.3817107E3,1.6885425E3,2.746755E3,1.461603E3,1.7471104E3,2.0450542E3,0E0,0E0,2.8393086E3,1.5817603E3,2.5029539E3,2.0434509E3,1.9588203E3,2.1307974E3,1.1351078E3,1.5846439E3,3.574606E3,2.2230537E3,0E0,1.7442354E3,0E0,0E0,0E0,0E0,0E0,0E0,0E0,0E0,0E0,0E0,0E0,0E0,0E0,0E0,0E0,0E0,0E0,0E0,0E0,0E0,0E0,0E0,0E0,0E0,0E0,0E0],"parents":[2147483647,0,0,1,1,2,2,3,3,4,4,5,5,6,6,7,7,8,8,9,9,10,10,11,11,12,12,13,13,14,14,15,15,16,16,19,19,20,20,21,21,22,22,23,23,24,24,25,25,26,26,27,27,28,28,30,30],"right_children":[2,4,6,8,10,12,14,16,18,20,22,24,26,28,30,32,34,-1,-1,36,38,40,42,44,46,48,50,52,54,-1,56,-1,-1,-1,-1,-1,-1,-1,-1,-1,-1,-1,-1,-1,-1,-1,-1,-1,-1,-1,-1,-1,-1,-1,-1,-1,-1],"split_conditions":[6.85E1,6.617E1,2.0466E2,9.52E0,-9.6E0,6.908E1,2.4014E2,2.2488E2,-2.8E-1,3.9E0,8.8E0,-1.3E0,2.0334E2,2.3314E2,-2.52E0,2.3E0,4.082E1,-1.4904935E0,-6.488138E-1,-1.34E0,-4.04E0,1.692E1,-4.4E-1,-4.84E0,-9.14E0,-1.26E1,7.291E1,7.9E0,1.37E1,-1.01385295E-1,-5.36E0,-2.2446346E-1,-4.8965392E-1,-1.7903204E-3,-1.3059608E0,-3.2688025E-1,5.575918E-1,1.9448659E-1,1.8212187E0,-1.2387245E-1,1.3930802E0,4.892386E-1,-7.860841E-2,4.4913155E-1,-1.0620948E0,1.5764724E0,-3.2213932E-1,8.171161E-1,-6.1995125E-1,-2.6890881E-2,4.6893245E-1,2.3444551E-1,-5.0833553E-2,7.243537E-1,2.7807322E-1,1.5011108E-1,1.7321682E0],"split_indices":[0,0,3,11,7,0,4,3,9,8,7,11,4,3,9,9,5,0,0,9,9,8,10,8,7,5,0,6,6,0,7,0,0,0,0,0,0,0,0,0,0,0,0,0,0,0,0,0,0,0,0,0,0,0,0,0,0],"split_type":[0,0,0,0,0,0,0,0,0,0,0,0,0,0,0,0,0,0,0,0,0,0,0,0,0,0,0,0,0,0,0,0,0,0,0,0,0,0,0,0,0,0,0,0,0,0,0,0,0,0,0,0,0,0,0,0,0],"sum_hessian":[5.207E3,2.786E3,2.421E3,1.025E3,1.761E3,6.01E2,1.82E3,1.017E3,8E0,1.08E2,1.653E3,1.15E2,4.86E2,1.79E3,3E1,8.08E2,2.09E2,5E0,3E0,9.1E1,1.7E1,1.492E3,1.61E2,3.8E1,7.7E1,4.2E1,4.44E2,1.442E3,3.48E2,5E0,2.5E1,5.89E2,2.19E2,2.02E2,7E0,4.5E1,4.6E1,6E0,1.1E1,1.486E3,6E0,7.7E1,8.4E1,6E0,3.2E1,3E0,7.4E1,3E0,3.9E1,3.99E2,4.5E1,1.06E3,3.82E2,1.01E2,2.47E2,6E0,1.9E1],"tree_param":{"num_deleted":"0","num_feature":"13","num_nodes":"57","size_leaf_vector":"1"}},{"base_weights":[-1.7958115E-1,-1.8268342E0,1.2257534E0,-7.8430166E0,-1.6088394E0,-2.1463757E0,1.7694974E0,-6.4599147E0,-2.0002108E1,-3.0545568E0,-9.8952955E-1,-1.1980419E0,-1.8022125E0,1.0341257E0,3.8838024E0,-3.640343E0,-1.1163454E1,-7.445279E-1,-1.9646475E0,1.0074117E0,-3.6125615E0,-1.0249241E1,-8.8434494E-1,5.89172E0,-2.3158422E0,6.0312116E-1,3.9896402E0,-3.698387E-1,4.731955E0,-9.320208E-2,-7.796335E-1,-3.350505E-1,-1.1844766E0,1.8843639E-1,-1.1326045E0,-9.749159E-1,-2.5781268E-1,2.7112732E-2,-9.9115723E-1,-8.0065794E-2,6.665978E-1,1.8375304E0,1.510106E-2,-1.0620293E-1,-4.6114895E-1,1.6643474E-1,-3.7115946E-2,1.0191053E0,2.3526146E-1,3.573046E-1,-2.5775665E-1,1.2170459E0,3.4761363E-1],"categories":[],"categories_nodes":[],"categories_segments":[],"categories_sizes":[],"default_left":[0,0,0,0,0,0,0,0,0,0,0,0,0,0,0,0,0,0,0,0,0,0,0,0,0,0,0,0,0,0,0,0,0,0,0,0,0,0,0,0,0,0,0,0,0,0,0,0,0,0,0,0,0],"id":17,"left_children":[1,3,5,7,9,11,13,15,17,19,21,-1,23,25,27,29,31,-1,-1,33,35,37,39,41,43,45,47,49,51,-1,-1,-1,-1,-1,-1,-1,-1,-1,-1,-1,-1,-1,-1,-1,-1,-1,-1,-1,-1,-1,-1,-1,-1],"loss_changes":[1.1972803E4,3.1100542E3,5.121305E3,1.2666211E3,2.0553804E3,1.6861558E3,3.7337227E3,9.672705E2,1.6127637E2,1.5653252E3,1.5600171E3,0E0,1.5113885E3,2.271398E3,2.2385469E3,7.2913434E2,6.494053E2,0E0,0E0,1.750562E3,1.9865757E3,4.120973E2,1.7195808E3,2.3330657E3,1.2056635E3,2.4585688E3,2.0456641E3,1.44889E3,2.0297793E3,0E0,0E0,0E0,0E0,0E0,0E0,0E0,0E0,0E0,0E0,0E0,0E0,0E0,0E0,0E0,0E0,0E0,0E0,0E0,0E0,0E0,0E0,0E0,0E0],"parents":[2147483647,0,0,1,1,2,2,3,3,4,4,5,5,6,6,7,7,8,8,9,9,10,10,12,12,13,13,14,14,15,15,16,16,19,19,20,20,21,21,22,22,23,23,24,24,25,25,26,26,27,27,28,28],"right_children":[2,4,6,8,10,12,14,16,18,20,22,-1,24,26,28,30,32,-1,-1,34,36,38,40,42,44,46,48,50,52,-1,-1,-1,-1,-1,-1,-1,-1,-1,-1,-1,-1,-1,-1,-1,-1,-1,-1,-1,-1,-1,-1,-1,-1],"split_conditions":[6.796E1,1.8898E2,1.9918E2,-7.44E0,6.557E1,-9.58E0,7.093E1,1.96E0,-1.432E1,-1.506E1,6.186E1,-1.1980419E0,6.822E1,2.352E2,2.0596E2,6.755E1,1.8484E2,-7.445279E-1,-1.9646475E0,4.4E0,-1.308E1,-3.44E0,7.142E1,-3.76E0,1.9728E2,-1.34E0,5.24E0,-1.48E0,-1.792E1,-9.320208E-2,-7.796335E-1,-3.350505E-1,-1.1844766E0,1.8843639E-1,-1.1326045E0,-9.749159E-1,-2.5781268E-1,2.7112732E-2,-9.9115723E-1,-8.0065794E-2,6.665978E-1,1.8375304E0,1.510106E-2,-1.0620293E-1,-4.6114895E-1,1.6643474E-1,-3.7115946E-2,1.0191053E0,2.3526146E-1,3.573046E-1,-2.5775665E-1,1.2170459E0,3.4761363E-1],"split_indices":[0,3,3,6,0,10,0,10,5,5,2,0,0,3,3,2,3,0,0,6,5,6,1,10,3,5,6,10,6,0,0,0,0,0,0,0,0,0,0,0,0,0,0,0,0,0,0,0,0,0,0,0,0],"split_type":[0,0,0,0,0,0,0,0,0,0,0,0,0,0,0,0,0,0,0,0,0,0,0,0,0,0,0,0,0,0,0,0,0,0,0,0,0,0,0,0,0,0,0,0,0,0,0,0,0,0,0,0,0],"sum_hessian":[5.17E3,2.38E3,2.79E3,8.2E1,2.298E3,3.87E2,2.403E3,7.5E1,7E0,6.88E2,1.61E3,9E0,3.78E2,1.784E3,6.19E2,4.8E1,2.7E1,3E0,4E0,8.3E1,6.05E2,1.7E1,1.593E3,2.3E1,3.55E2,1.558E3,2.26E2,1.03E2,5.16E2,3.5E1,1.3E1,1E1,1.7E1,7.7E1,6E0,2.5E1,5.8E2,3E0,1.4E1,1.574E3,1.9E1,5E0,1.8E1,2.77E2,7.8E1,6.53E2,9.05E2,2.3E1,2.03E2,3.8E1,6.5E1,1.7E1,4.99E2],"tree_param":{"num_deleted":"0","num_feature":"13","num_nodes":"53","size_leaf_vector":"1"}},{"base_weights":[-6.893709E-2,-1.3214146E0,1.9071319E0,-3.2471683E0,-7.5754905E-1,1.2907765E0,6.2434015E0,-2.1816213E0,-5.1865997E0,-6.2247354E-1,-8.382692E0,1.6954801E0,-9.435275E-1,-2.8957114E0,7.001079E0,-2.6141055E0,1.022647E1,-1.0856969E1,-4.2692595E0,-1.5541046E0,2.46064E-1,-1.8649063E0,-6.680261E0,-4.3935504E0,1.9559268E0,-3.5133047E0,2.362216E0,8.062635E0,-1.2594599E1,7.705711E0,-8.885338E-1,-4.4277695E-1,-9.122842E-2,1.1181283E0,-6.553174E-2,-1.4024234E0,-6.298185E-1,-4.724397E-1,1.5590106E-1,-2.188446E-1,3.4414854E-2,-6.231573E-2,3.4957027E-1,-8.304899E-1,7.474225E-2,1.1209927E0,-5.003152E-1,-2.266602E-2,2.0591214E-1,-3.2592154E-1,8.7973326E-1,8.742091E-1,5.948333E-2,1.1006294E0,1.5782695E-1,-1.3376689E0,-3.4391284E-1,5.03303E-1,1.0816354E0,9.8233014E-1,-8.5521877E-1],"categories":[],"categories_nodes":[],"categories_segments":[],"categories_sizes":[],"default_left":[0,0,0,0,0,0,0,0,0,0,0,0,0,0,0,0,0,0,0,0,0,0,0,0,0,0,0,0,0,0,0,0,0,0,0,0,0,0,0,0,0,0,0,0,0,0,0,0,0,0,0,0,0,0,0,0,0,0,0,0,0],"id":18,"left_children":[1,3,5,7,9,11,13,15,17,19,21,23,25,27,29,31,33,35,37,39,41,-1,43,45,47,49,51,53,55,57,59,-1,-1,-1,-1,-1,-1,-1,-1,-1,-1,-1,-1,-1,-1,-1,-1,-1,-1,-1,-1,-1,-1,-1,-1,-1,-1,-1,-1,-1,-1],"loss_changes":[1.2931826E4,3.4701396E3,5.40947E3,1.4848711E3,2.543958E3,1.6075139E3,1.7652471E3,2.5435295E3,1.2852734E3,1.96906E3,9.371177E2,2.3937378E3,2.327441E3,2.2272212E3,1.3021572E3,1.9478154E3,6.742097E2,5.5900635E2,2.270172E3,2.7534387E3,5.3290425E3,0E0,1.1369135E3,2.2106523E3,1.9975562E3,1.2977379E3,1.6556255E3,3.1968628E2,3.046505E2,1.6749805E3,2.7125764E3,0E0,0E0,0E0,0E0,0E0,0E0,0E0,0E0,0E0,0E0,0E0,0E0,0E0,0E0,0E0,0E0,0E0,0E0,0E0,0E0,0E0,0E0,0E0,0E0,0E0,0E0,0E0,0E0,0E0,0E0],"parents":[2147483647,0,0,1,1,2,2,3,3,4,4,5,5,6,6,7,7,8,8,9,9,10,10,11,11,12,12,13,13,14,14,15,15,16,16,17,17,18,18,19,19,20,20,22,22,23,23,24,24,25,25,26,26,27,27,28,28,29,29,30,30],"right_children":[2,4,6,8,10,12,14,16,18,20,22,24,26,28,30,32,34,36,38,40,42,-1,44,46,48,50,52,54,56,58,60,-1,-1,-1,-1,-1,-1,-1,-1,-1,-1,-1,-1,-1,-1,-1,-1,-1,-1,-1,-1,-1,-1,-1,-1,-1,-1,-1,-1,-1,-1],"split_conditions":[6.899E1,6.557E1,7.2665E1,1.46E0,6.894E1,1E0,-8.44E0,2.391E2,-1.828E1,2.136E2,-8.98E0,1.8972E2,7.86E0,-2.48E0,9.14E0,-7.08E0,4.6E-1,-2.96E0,2.2276E2,1.338E1,2.1E0,-1.8649063E0,6.897E1,-5.34E0,-1.288E1,2.3508E2,6.5E0,3.16E0,7.112E1,4.66E0,7.33E1,-4.4277695E-1,-9.122842E-2,1.1181283E0,-6.553174E-2,-1.4024234E0,-6.298185E-1,-4.724397E-1,1.5590106E-1,-2.188446E-1,3.4414854E-2,-6.231573E-2,3.4957027E-1,-8.304899E-1,7.474225E-2,1.1209927E0,-5.003152E-1,-2.266602E-2,2.0591214E-1,-3.2592154E-1,8.7973326E-1,8.742091E-1,5.948333E-2,1.1006294E0,1.5782695E-1,-1.3376689E0,-3.4391284E-1,5.03303E-1,1.0816354E0,9.8233014E-1,-8.5521877E-1],"split_indices":[0,0,0,10,0,12,8,4,6,4,7,4,5,11,8,5,11,11,4,5,5,0,0,11,6,4,6,5,2,8,0,0,0,0,0,0,0,0,0,0,0,0,0,0,0,0,0,0,0,0,0,0,0,0,0,0,0,0,0,0,0],"split_type":[0,0,0,0,0,0,0,0,0,0,0,0,0,0,0,0,0,0,0,0,0,0,0,0,0,0,0,0,0,0,0,0,0,0,0,0,0,0,0,0,0,0,0,0,0,0,0,0,0,0,0,0,0,0,0,0,0,0,0,0,0],"sum_hessian":[5.223E3,3.197E3,2.026E3,7.23E2,2.474E3,1.775E3,2.51E2,4.68E2,2.55E2,2.432E3,4.2E1,1.503E3,2.72E2,1.9E1,2.32E2,4.53E2,1.5E1,3.4E1,2.21E2,1.173E3,1.259E3,3E0,3.9E1,6.1E1,1.442E3,1.53E2,1.19E2,9E0,1E1,2.13E2,1.9E1,1.51E2,3.02E2,1.1E1,4E0,9E0,2.5E1,1.75E2,4.6E1,7.35E2,4.38E2,1.009E3,2.5E2,2.6E1,1.3E1,5E0,5.6E1,3.12E2,1.13E3,1.48E2,5E0,1.8E1,1.01E2,4E0,5E0,6E0,4E0,1.73E2,4E1,8E0,1.1E1],"tree_param":{"num_deleted":"0","num_feature":"13","num_nodes":"61","size_leaf_vector":"1"}},{"base_weights":[-1.0235279E-1,-1.125732E0,1.180126E0,-6.2551928E0,-7.3469734E-1,-2.8793123E-1,2.230976E0,-3.6786013E0,-9.442587E0,-8.509813E-1,9.274419E0,-3.0373735E0,4.7154218E-1,2.1032E0,2.099334E1,2.3819253E0,-6.3598557E0,-1.2038831E1,-4.2795477E0,-1.5083464E0,7.780953E-1,1.7272263E0,1.8315495E1,3.1726532E0,-3.89837E0,1.5049577E-1,1.364392E1,-3.6390538E0,2.3990285E0,1.9528795E0,8.4948146E-1,-1.052217E0,4.2494345E-1,-3.410644E-1,-9.3546706E-1,-8.351231E-1,-1.6906077E0,4.7805175E-1,-4.4371894E-1,-2.4916434E-1,-6.304132E-2,-2.9688814E-1,1.3140872E-1,-6.7770034E-1,8.5865086E-1,1.8194177E0,4.638352E-1,4.915153E-1,-2.4979518E-1,-1.8827234E-1,-6.3934475E-1,-2.431927E-1,6.683212E-2,4.7858858E-1,2.5894008E0,-4.706894E-1,8.940085E-2,-3.795928E-1,2.0600994E-1],"categories":[],"categories_nodes":[],"categories_segments":[],"categories_sizes":[],"default_left":[0,0,0,0,0,0,0,0,0,0,0,0,0,0,0,0,0,0,0,0,0,0,0,0,0,0,0,0,0,0,0,0,0,0,0,0,0,0,0,0,0,0,0,0,0,0,0,0,0,0,0,0,0,0,0,0,0,0,0],"id":19,"left_children":[1,3,5,7,9,11,13,15,17,19,21,23,25,27,29,31,33,35,37,39,41,43,45,47,49,51,53,55,57,-1,-1,-1,-1,-1,-1,-1,-1,-1,-1,-1,-1,-1,-1,-1,-1,-1,-1,-1,-1,-1,-1,-1,-1,-1,-1,-1,-1,-1,-1],"loss_changes":[6.8340063E3,5.804192E3,3.5658406E3,1.6488501E3,3.1411104E3,2.016476E3,3.185121E3,1.8838773E3,1.1682891E3,2.8519048E3,2.0836418E3,1.1298517E3,3.1992576E3,2.2833188E3,5.990918E1,1.708384E3,8.447009E2,6.522842E2,4.4891046E2,2.192374E3,2.978921E3,1.7441617E3,6.439917E2,5.05502E2,1.1448494E3,1.6195332E3,2.3885015E3,7.1121826E2,1.6149326E3,0E0,0E0,0E0,0E0,0E0,0E0,0E0,0E0,0E0,0E0,0E0,0E0,0E0,0E0,0E0,0E0,0E0,0E0,0E0,0E0,0E0,0E0,0E0,0E0,0E0,0E0,0E0,0E0,0E0,0E0],"parents":[2147483647,0,0,1,1,2,2,3,3,4,4,5,5,6,6,7,7,8,8,9,9,10,10,11,11,12,12,13,13,14,14,15,15,16,16,17,17,18,18,19,19,20,20,21,21,22,22,23,23,24,24,25,25,26,26,27,27,28,28],"right_children":[2,4,6,8,10,12,14,16,18,20,22,24,26,28,30,32,34,36,38,40,42,44,46,48,50,52,54,56,58,-1,-1,-1,-1,-1,-1,-1,-1,-1,-1,-1,-1,-1,-1,-1,-1,-1,-1,-1,-1,-1,-1,-1,-1,-1,-1,-1,-1,-1,-1],"split_conditions":[6.872E1,1.933E2,6.794E1,-5E-1,2.4264E2,2.018E2,2.5838E2,2.1532E2,2.2144E2,2.2298E2,7.8E-1,6.908E1,2.3844E2,-9.54E0,1.9918E2,1.9978E2,-1.104E1,7.12E1,2.2302E2,2.1052E2,6.392E1,1.84E0,2.469E2,1.24E0,3.32E0,1.9732E2,3.26E0,7.12E1,-7.94E0,1.9528795E0,8.4948146E-1,-1.052217E0,4.2494345E-1,-3.410644E-1,-9.3546706E-1,-8.351231E-1,-1.6906077E0,4.7805175E-1,-4.4371894E-1,-2.4916434E-1,-6.304132E-2,-2.9688814E-1,1.3140872E-1,-6.7770034E-1,8.5865086E-1,1.8194177E0,4.638352E-1,4.915153E-1,-2.4979518E-1,-1.8827234E-1,-6.3934475E-1,-2.431927E-1,6.683212E-2,4.7858858E-1,2.5894008E0,-4.706894E-1,8.940085E-2,-3.795928E-1,2.0600994E-1],"split_indices":[1,3,2,7,4,3,3,4,4,3,9,1,4,8,4,4,6,2,4,4,1,7,4,10,8,4,9,2,9,0,0,0,0,0,0,0,0,0,0,0,0,0,0,0,0,0,0,0,0,0,0,0,0,0,0,0,0,0,0],"split_type":[0,0,0,0,0,0,0,0,0,0,0,0,0,0,0,0,0,0,0,0,0,0,0,0,0,0,0,0,0,0,0,0,0,0,0,0,0,0,0,0,0,0,0,0,0,0,0,0,0,0,0,0,0,0,0,0,0,0,0],"sum_hessian":[5.205E3,2.895E3,2.31E3,2.04E2,2.691E3,9.64E2,1.346E3,1.14E2,9E1,2.661E3,3E1,2.08E2,7.56E2,1.338E3,8E0,3.5E1,7.9E1,5.9E1,3.1E1,1.896E3,7.65E2,1.7E1,1.3E1,2.5E1,1.83E2,7.39E2,1.7E1,6.5E1,1.273E3,5E0,3E0,5E0,3E1,5.8E1,2.1E1,5.2E1,7E0,3E0,2.8E1,5.86E2,1.31E3,1.23E2,6.42E2,8E0,9E0,9E0,4E0,1.7E1,8E0,1.34E2,4.9E1,1.3E2,6.09E2,1.3E1,4E0,4.4E1,2.1E1,3E1,1.243E3],"tree_param":{"num_deleted":"0","num_feature":"13","num_nodes":"59","size_leaf_vector":"1"}},{"base_weights":[4.1110724E-2,-6.5846443E-1,1.9714838E0,-6.3657837E0,-4.7795814E-1,1.5123181E0,4.902548E0,-3.5006094E0,-1.0712017E1,-1.921007E0,-1.1206722E-2,1.6213422E0,1.4482762E0,1.331871E0,6.705941E0,-6.0358725E0,3.8891184E0,2.3621215E-1,-1.2083715E1,-3.3235276E0,-5.6299686E-1,-5.2805656E-1,1.1685327E0,-1.2719532E0,1.9162292E0,-7.686917E-1,1.0498367E1,1.5548684E1,4.752094E0,-5.8132845E-1,5.982908E-1,7.957715E-1,2.6235351E-2,-1.3144943E0,-7.247917E-1,-1.9785653E-1,-7.652823E-1,3.3555853E-1,-1.2104242E-1,-1.2738479E-2,-3.428277E-1,1.743103E-1,-1.427554E-1,8.850343E-2,-3.0189434E-1,-2.9552307E-2,1.9989076E-1,4.2472845E-1,-3.6904702E-1,-7.719726E-2,1.1541357E0,2.2553453E0,9.6548957E-1,-7.732187E-1,4.7232294E-1],"categories":[],"categories_nodes":[],"categories_segments":[],"categories_sizes":[],"default_left":[0,0,0,0,0,0,0,0,0,0,0,0,0,0,0,0,0,0,0,0,0,0,0,0,0,0,0,0,0,0,0,0,0,0,0,0,0,0,0,0,0,0,0,0,0,0,0,0,0,0,0,0,0,0,0],"id":20,"left_children":[1,3,5,7,9,11,13,15,17,19,21,-1,23,25,27,29,31,-1,33,35,37,39,41,43,45,47,49,51,53,-1,-1,-1,-1,-1,-1,-1,-1,-1,-1,-1,-1,-1,-1,-1,-1,-1,-1,-1,-1,-1,-1,-1,-1,-1,-1],"loss_changes":[7.026293E3,3.931318E3,1.8552339E3,1.4194692E3,2.4941162E3,1.409533E3,1.1952236E3,1.3723875E3,8.9789404E2,1.7218254E3,1.7073021E3,0E0,1.5236006E3,1.2403773E3,2.068505E3,9.525132E2,4.066381E2,0E0,4.0326514E2,2.3384585E3,2.0899575E3,2.6974402E3,2.5488364E3,1.0513256E3,1.3587107E3,1.2628607E3,5.5430225E2,6.2773975E2,1.7676816E3,0E0,0E0,0E0,0E0,0E0,0E0,0E0,0E0,0E0,0E0,0E0,0E0,0E0,0E0,0E0,0E0,0E0,0E0,0E0,0E0,0E0,0E0,0E0,0E0,0E0,0E0],"parents":[2147483647,0,0,1,1,2,2,3,3,4,4,5,5,6,6,7,7,8,8,9,9,10,10,12,12,13,13,14,14,15,15,16,16,18,18,19,19,20,20,21,21,22,22,23,23,24,24,25,25,26,26,27,27,28,28],"right_children":[2,4,6,8,10,12,14,16,18,20,22,-1,24,26,28,30,32,-1,34,36,38,40,42,44,46,48,50,52,54,-1,-1,-1,-1,-1,-1,-1,-1,-1,-1,-1,-1,-1,-1,-1,-1,-1,-1,-1,-1,-1,-1,-1,-1,-1,-1],"split_conditions":[6.983E1,1.8848E2,7.3E1,1.18E0,6.522E1,6.38E1,-1.52E0,3.64E0,-6.74E0,-2.4E-1,2.2218E2,1.6213422E0,1.9972E2,7.484E1,1.2E0,5.2E-1,5.28E0,2.3621215E-1,3.58E0,-7E-1,5.8E-1,1E0,6.99E1,-1.26E1,-3.76E0,-2.38E0,-1.364E1,7.14E1,2.0654E2,-5.8132845E-1,5.982908E-1,7.957715E-1,2.6235351E-2,-1.3144943E0,-7.247917E-1,-1.9785653E-1,-7.652823E-1,3.3555853E-1,-1.2104242E-1,-1.2738479E-2,-3.428277E-1,1.743103E-1,-1.427554E-1,8.850343E-2,-3.0189434E-1,-2.9552307E-2,1.9989076E-1,4.2472845E-1,-3.6904702E-1,-7.719726E-2,1.1541357E0,2.2553453E0,9.6548957E-1,-7.732187E-1,4.7232294E-1],"split_indices":[0,3,0,10,1,2,5,8,8,10,3,0,3,0,5,10,8,0,10,10,10,12,1,5,10,10,5,2,3,0,0,0,0,0,0,0,0,0,0,0,0,0,0,0,0,0,0,0,0,0,0,0,0,0,0],"split_type":[0,0,0,0,0,0,0,0,0,0,0,0,0,0,0,0,0,0,0,0,0,0,0,0,0,0,0,0,0,0,0,0,0,0,0,0,0,0,0,0,0,0,0,0,0,0,0,0,0,0,0,0,0,0,0],"sum_hessian":[5.201E3,3.818E3,1.383E3,1.16E2,3.702E3,1.197E3,1.86E2,7.1E1,4.5E1,9.04E2,2.798E3,3E0,1.194E3,6.3E1,1.23E2,5.3E1,1.8E1,4E0,4.1E1,4.44E2,4.6E2,1.946E3,8.52E2,1.75E2,1.019E3,5.2E1,1.1E1,2.1E1,1.02E2,4.9E1,4E0,6E0,1.2E1,1.5E1,2.6E1,3.92E2,5.2E1,7.6E1,3.84E2,1.773E3,1.73E2,6.35E2,2.17E2,9E1,8.5E1,2.07E2,8.12E2,2E1,3.2E1,3E0,8E0,3E0,1.8E1,7E0,9.5E1],"tree_param":{"num_deleted":"0","num_feature":"13","num_nodes":"55","size_leaf_vector":"1"}},{"base_weights":[-1.5580508E-2,-1.9844887E0,9.5976806E-1,-8.925226E0,-1.8089532E0,-8.9362293E-1,1.6962436E0,-1.0741771E1,8.81391E-1,-2.4955251E0,1.4310777E-1,4.2154503E0,-1.271511E0,4.8410683E0,1.2700999E0,-2.059646E0,-8.291463E0,-8.389702E0,-2.3017235E0,-3.1370437E0,1.9818245E0,-5.384623E0,6.582461E0,-1.6276568E0,3.7528906E0,1.0800428E1,2.6866138E0,5.735093E-1,3.0469465E0,-1.1933584E0,-2.5312942E-1,-1.0186534E0,-4.7302324E-2,-1.7494708E-1,-1.0091627E0,-1.6462544E-1,-7.7328223E-1,1.1382558E0,1.1804464E-1,3.277893E-1,-7.669724E-1,8.868424E-1,-2.0264956E-1,-2.592981E-1,-3.019558E-2,8.222191E-1,4.4517238E-2,6.8520796E-1,2.0115318E0,2.6541397E-2,4.9828824E-1,-3.5688463E-1,6.8632536E-2,-7.391773E-2,3.334422E-1],"categories":[],"categories_nodes":[],"categories_segments":[],"categories_sizes":[],"default_left":[0,0,0,0,0,0,0,0,0,0,0,0,0,0,0,0,0,0,0,0,0,0,0,0,0,0,0,0,0,0,0,0,0,0,0,0,0,0,0,0,0,0,0,0,0,0,0,0,0,0,0,0,0,0,0],"id":21,"left_children":[1,3,5,7,9,11,13,15,-1,17,19,21,23,25,27,-1,29,31,33,35,37,39,41,43,45,47,49,51,53,-1,-1,-1,-1,-1,-1,-1,-1,-1,-1,-1,-1,-1,-1,-1,-1,-1,-1,-1,-1,-1,-1,-1,-1,-1,-1],"loss_changes":[9.930228E3,2.0708828E3,4.721607E3,1.6398652E3,2.2412222E3,1.9051272E3,3.3107168E3,1.2203252E3,0E0,1.3937173E3,2.6358506E3,1.5806403E3,1.6470065E3,3.758539E3,2.6977522E3,0E0,1.1417971E3,1.3134863E3,1.3929717E3,1.08637E3,1.714985E3,5.9715924E2,2.2857256E3,1.7276062E3,1.266508E3,2.285546E3,1.8162368E3,2.248918E3,2.737208E3,0E0,0E0,0E0,0E0,0E0,0E0,0E0,0E0,0E0,0E0,0E0,0E0,0E0,0E0,0E0,0E0,0E0,0E0,0E0,0E0,0E0,0E0,0E0,0E0,0E0,0E0],"parents":[2147483647,0,0,1,1,2,2,3,3,4,4,5,5,6,6,7,7,9,9,10,10,11,11,12,12,13,13,14,14,16,16,17,17,18,18,19,19,20,20,21,21,22,22,23,23,24,24,25,25,26,26,27,27,28,28],"right_children":[2,4,6,8,10,12,14,16,-1,18,20,22,24,26,28,-1,30,32,34,36,38,40,42,44,46,48,50,52,54,-1,-1,-1,-1,-1,-1,-1,-1,-1,-1,-1,-1,-1,-1,-1,-1,-1,-1,-1,-1,-1,-1,-1,-1,-1,-1],"split_conditions":[6.717E1,-7.94E0,2.0596E2,6.282E1,2.2202E2,-9.14E0,-1.038E1,-3.92E0,8.81391E-1,1.87E2,2.015E2,2.1084E2,9.66E0,9.6E-1,2.2988E2,-2.059646E0,-1.98E0,3.52E0,2.2162E2,6.1E0,-1.08E1,2.0014E2,2.2576E2,1.9836E2,1.959E2,2.4014E2,2.142E2,1.9058E2,6.827E1,-1.1933584E0,-2.5312942E-1,-1.0186534E0,-4.7302324E-2,-1.7494708E-1,-1.0091627E0,-1.6462544E-1,-7.7328223E-1,1.1382558E0,1.1804464E-1,3.277893E-1,-7.669724E-1,8.868424E-1,-2.0264956E-1,-2.592981E-1,-3.019558E-2,8.222191E-1,4.4517238E-2,6.8520796E-1,2.0115318E0,2.6541397E-2,4.9828824E-1,-3.5688463E-1,6.8632536E-2,-7.391773E-2,3.334422E-1],"split_indices":[0,11,3,1,3,7,6,8,0,3,4,4,7,8,3,0,7,8,3,7,7,4,4,3,3,4,3,4,0,0,0,0,0,0,0,0,0,0,0,0,0,0,0,0,0,0,0,0,0,0,0,0,0,0,0],"split_type":[0,0,0,0,0,0,0,0,0,0,0,0,0,0,0,0,0,0,0,0,0,0,0,0,0,0,0,0,0,0,0,0,0,0,0,0,0,0,0,0,0,0,0,0,0,0,0,0,0,0,0,0,0,0,0],"sum_hessian":[5.169E3,1.712E3,3.457E3,4.1E1,1.671E3,9.83E2,2.474E3,3.8E1,3E0,1.236E3,4.35E2,6.7E1,9.16E2,2.94E2,2.18E3,4E0,3.4E1,3.8E1,1.198E3,1.56E2,2.79E2,1.3E1,5.4E1,8.56E2,6E1,7.7E1,2.17E2,1.567E3,6.13E2,1.4E1,2E1,2.4E1,1.4E1,1.186E3,1.2E1,1.35E2,2.1E1,1E1,2.69E2,4E0,9E0,3.6E1,1.8E1,3.73E2,4.83E2,1.9E1,4.1E1,6.8E1,9E0,1.31E2,8.6E1,8.3E1,1.484E3,1.35E2,4.78E2],"tree_param":{"num_deleted":"0","num_feature":"13","num_nodes":"55","size_leaf_vector":"1"}},{"base_weights":[2.92505E-1,-1.3324571E0,1.0815817E0,-1.5105349E0,8.5834055E0,-3.4638557E-1,1.8521935E0,-2.7065752E0,-1.1318759E-1,-5.196106E-1,1.1152993E1,-3.5196593E0,6.5373874E-1,2.0819187E0,-2.936835E0,-5.216599E0,-1.9305962E0,-1.9833729E0,1.3003844E0,7.2005143E0,1.850227E0,-2.6910803E0,-9.966309E0,-8.223796E0,8.9798224E-1,1.7686973E0,6.179089E0,9.698025E0,-4.690274E0,-2.4834102E-1,-6.909397E-1,5.0616484E-2,-2.1743046E-1,-1.1271573E0,-1.2809981E-1,1.2559491E-1,-7.4446845E-1,8.4051883E-1,4.119995E-2,-2.776157E-1,2.090183E-1,-1.1863889E0,-1.7541707E-2,4.201076E-1,-9.484118E-1,5.377077E-2,7.0639724E-1,3.7246707E-1,1.08887956E-1,1.42868E-1,7.258069E-1,1.5590013E0,9.149231E-2,-8.130563E-1,-2.2790479E-2],"categories":[],"categories_nodes":[],"categories_segments":[],"categories_sizes":[],"default_left":[0,0,0,0,0,0,0,0,0,0,0,0,0,0,0,0,0,0,0,0,0,0,0,0,0,0,0,0,0,0,0,0,0,0,0,0,0,0,0,0,0,0,0,0,0,0,0,0,0,0,0,0,0,0,0],"id":22,"left_children":[1,3,5,7,9,11,13,15,17,-1,19,21,23,25,27,29,31,33,35,37,-1,39,41,43,45,47,49,51,53,-1,-1,-1,-1,-1,-1,-1,-1,-1,-1,-1,-1,-1,-1,-1,-1,-1,-1,-1,-1,-1,-1,-1,-1,-1,-1],"loss_changes":[6.6369277E3,3.0006914E3,3.8344646E3,2.7790386E3,1.2348091E3,3.8805232E3,2.4957798E3,1.7350908E3,2.0328959E3,0E0,1.0640564E3,1.5382561E3,2.0238856E3,2.761046E3,2.3495493E3,1.4975596E3,1.3861006E3,1.5086598E3,1.2668224E3,4.5873376E2,0E0,1.0875922E3,1.5611208E3,1.2855801E3,1.6170907E3,2.3566616E3,1.9287075E3,1.0663712E3,2.2152622E3,0E0,0E0,0E0,0E0,0E0,0E0,0E0,0E0,0E0,0E0,0E0,0E0,0E0,0E0,0E0,0E0,0E0,0E0,0E0,0E0,0E0,0E0,0E0,0E0,0E0,0E0],"parents":[2147483647,0,0,1,1,2,2,3,3,4,4,5,5,6,6,7,7,8,8,10,10,11,11,12,12,13,13,14,14,15,15,16,16,17,17,18,18,19,19,21,21,22,22,23,23,24,24,25,25,26,26,27,27,28,28],"right_children":[2,4,6,8,10,12,14,16,18,-1,20,22,24,26,28,30,32,34,36,38,-1,40,42,44,46,48,50,52,54,-1,-1,-1,-1,-1,-1,-1,-1,-1,-1,-1,-1,-1,-1,-1,-1,-1,-1,-1,-1,-1,-1,-1,-1,-1,-1],"split_conditions":[2.068E2,2.4264E2,6.738E1,6.82E1,6.488E1,2.0172E2,1.12E1,6.526E1,-3.02E0,-5.196106E-1,2.88E0,6.88E1,6.104E1,7.432E1,6.682E1,2.003E2,-2.86E0,1.8242E2,8.26E0,6.912E1,1.850227E0,3.22E0,6.2E-1,-1.38E0,2.391E2,-9.65E0,2.2054E2,2.2122E2,2.1608E2,-2.4834102E-1,-6.909397E-1,5.0616484E-2,-2.1743046E-1,-1.1271573E0,-1.2809981E-1,1.2559491E-1,-7.4446845E-1,8.4051883E-1,4.119995E-2,-2.776157E-1,2.090183E-1,-1.1863889E0,-1.7541707E-2,4.201076E-1,-9.484118E-1,5.377077E-2,7.0639724E-1,3.7246707E-1,1.08887956E-1,1.42868E-1,7.258069E-1,1.5590013E0,9.149231E-2,-8.130563E-1,-2.2790479E-2],"split_indices":[3,4,0,2,2,4,8,1,11,0,9,1,1,2,2,3,9,3,9,1,0,11,9,8,4,6,3,3,3,0,0,0,0,0,0,0,0,0,0,0,0,0,0,0,0,0,0,0,0,0,0,0,0,0,0],"split_type":[0,0,0,0,0,0,0,0,0,0,0,0,0,0,0,0,0,0,0,0,0,0,0,0,0,0,0,0,0,0,0,0,0,0,0,0,0,0,0,0,0,0,0,0,0,0,0,0,0,0,0,0,0,0,0],"sum_hessian":[5.174E3,1.691E3,3.483E3,1.662E3,2.9E1,1.221E3,2.262E3,8.95E2,7.67E2,4E0,2.5E1,2.92E2,9.29E2,2.159E3,1.03E2,2.1E2,6.85E2,3.3E2,4.37E2,2E1,5E0,2.6E2,3.2E1,2.4E1,9.05E2,2.007E3,1.52E2,1.2E1,9.1E1,1.31E2,7.9E1,1.61E2,5.24E2,9E0,3.21E2,4.27E2,1E1,1.3E1,7E0,2.27E2,3.3E1,2.1E1,1.1E1,5E0,1.9E1,8.81E2,2.4E1,2.47E2,1.76E3,6.1E1,9.1E1,5E0,7E0,4E1,5.1E1],"tree_param":{"num_deleted":"0","num_feature":"13","num_nodes":"55","size_leaf_vector":"1"}},{"base_weights":[-1.861644E-1,-1.3669715E0,8.042687E-1,-1.2330408E1,-1.2737976E0,-1.4625808E0,1.1907566E0,-1.5972535E1,-3.2846658E0,-1.4255804E0,4.5885396E0,-1.5456329E1,-1.1495432E0,1.0558382E1,1.0811996E0,-1.6320895E0,-1.0100958E1,-9.875723E-1,5.277191E-1,-2.7825954E0,-7.125424E-1,2.522777E0,2.1445894E0,-5.820154E-1,-1.4667492E0,-1.7303616E0,4.5360456E0,-4.366171E-1,1.2698623E1,9.770645E-1,7.5420103E0,-1.4627227E-1,-1.1759048E0,-1.523993E-1,-3.9336565E-1,6.039079E-1,-6.9401585E-2,4.6953014E-1,-4.3995085E-1,-3.8345882E-1,-4.1186187E-2,7.714909E-1,-1.8724824E-1,-2.4007201E-1,1.1980697E0,1.0804323E-1,-9.2691354E-2,3.4216747E-1,1.1407658E0],"categories":[],"categories_nodes":[],"categories_segments":[],"categories_sizes":[],"default_left":[0,0,0,0,0,0,0,0,0,0,0,0,0,0,0,0,0,0,0,0,0,0,0,0,0,0,0,0,0,0,0,0,0,0,0,0,0,0,0,0,0,0,0,0,0,0,0,0,0],"id":23,"left_children":[1,3,5,7,9,11,13,15,17,19,21,23,25,27,29,-1,31,-1,-1,33,35,37,-1,-1,-1,39,41,-1,43,45,47,-1,-1,-1,-1,-1,-1,-1,-1,-1,-1,-1,-1,-1,-1,-1,-1,-1,-1],"loss_changes":[6.1199785E3,2.4226274E3,2.4951494E3,6.064507E2,2.113592E3,1.800169E3,2.484516E3,1.5796777E2,7.0809344E2,2.2322139E3,2.6863003E3,7.852466E1,1.3518829E3,1.0290979E3,1.6107087E3,0E0,2.7741254E2,0E0,0E0,1.4798462E3,1.9462473E3,1.5355946E3,0E0,0E0,0E0,1.3750527E3,1.35725E3,0E0,9.3873413E2,1.890364E3,7.7243726E2,0E0,0E0,0E0,0E0,0E0,0E0,0E0,0E0,0E0,0E0,0E0,0E0,0E0,0E0,0E0,0E0,0E0,0E0],"parents":[2147483647,0,0,1,1,2,2,3,3,4,4,5,5,6,6,7,7,8,8,9,9,10,10,11,11,12,12,13,13,14,14,16,16,19,19,20,20,21,21,25,25,26,26,28,28,29,29,30,30],"right_children":[2,4,6,8,10,12,14,16,18,20,22,24,26,28,30,-1,32,-1,-1,34,36,38,-1,-1,-1,40,42,-1,44,46,48,-1,-1,-1,-1,-1,-1,-1,-1,-1,-1,-1,-1,-1,-1,-1,-1,-1,-1],"split_conditions":[6.796E1,6.032E1,1.9954E2,2.234E2,2.391E2,-9.58E0,2.0016E2,6.6E1,2.0794E2,2.068E2,6.96E1,2.067E2,7.26E0,6.55E1,2.5162E2,-1.6320895E0,6.45E1,-9.875723E-1,5.277191E-1,3.38E0,-9.58E0,6.724E1,2.1445894E0,-5.820154E-1,-1.4667492E0,6.82E1,1.959E2,-4.366171E-1,2.056E2,1E0,7.218E1,-1.4627227E-1,-1.1759048E0,-1.523993E-1,-3.9336565E-1,6.039079E-1,-6.9401585E-2,4.6953014E-1,-4.3995085E-1,-3.8345882E-1,-4.1186187E-2,7.714909E-1,-1.8724824E-1,-2.4007201E-1,1.1980697E0,1.0804323E-1,-9.2691354E-2,3.4216747E-1,1.1407658E0],"split_indices":[0,2,3,3,4,10,3,1,4,3,1,4,7,1,3,0,0,0,0,7,10,1,0,0,0,2,3,0,4,12,2,0,0,0,0,0,0,0,0,0,0,0,0,0,0,0,0,0,0],"split_type":[0,0,0,0,0,0,0,0,0,0,0,0,0,0,0,0,0,0,0,0,0,0,0,0,0,0,0,0,0,0,0,0,0,0,0,0,0,0,0,0,0,0,0,0,0,0,0,0,0],"sum_hessian":[5.231E3,2.386E3,2.845E3,1.9E1,2.367E3,4.14E2,2.431E3,1.3E1,6E0,2.308E3,5.9E1,8E0,4.06E2,2.7E1,2.404E3,6E0,7E0,3E0,3E0,7.94E2,1.514E3,5.5E1,4E0,3E0,5E0,3.69E2,3.7E1,3E0,2.4E1,2.367E3,3.7E1,3E0,4E0,5.64E2,2.3E2,2.7E1,1.487E3,3.9E1,1.6E1,1.04E2,2.65E2,2.1E1,1.6E1,3E0,2.1E1,2.015E3,3.52E2,2.6E1,1.1E1],"tree_param":{"num_deleted":"0","num_feature":"13","num_nodes":"49","size_leaf_vector":"1"}},{"base_weights":[-3.8091887E-3,-1.7757341E-1,3.8052418E0,-1.7590679E0,2.2362117E-1,1.830776E0,7.021159E0,-1.2266523E1,-1.4570599E0,1.2886927E-1,8.30357E0,3.3417008E0,-1.3419301E1,8.25843E0,-6.074526E0,-6.6075377E0,-1.745354E1,-9.197269E-1,-4.5957174E0,-8.428925E-2,3.6678698E0,1.4883649E1,4.6395426E0,9.697856E0,-1.374151E-1,-6.1496496E0,-1.5017527E0,6.365311E0,1.8297895E1,-9.939257E-2,-8.4768337E-1,-9.584187E-1,-3.2711945E-2,-1.6165112E0,-6.765708E-1,1.4562654E-1,-1.56244E-1,-6.7904687E-1,-1.9811341E-1,-1.02188595E-1,3.996529E-2,2.59337E-1,1.7279975E0,4.3768138E-1,2.0963223E0,1.528428E-1,8.8785344E-1,4.013664E-1,1.2025039E0,1.4690763E-1,-4.6984142E-1,-1.016282E0,1.553311E-1,4.172756E-2,8.997841E-1,2.3678305E0,7.158534E-1],"categories":[],"categories_nodes":[],"categories_segments":[],"categories_sizes":[],"default_left":[0,0,0,0,0,0,0,0,0,0,0,0,0,0,0,0,0,0,0,0,0,0,0,0,0,0,0,0,0,0,0,0,0,0,0,0,0,0,0,0,0,0,0,0,0,0,0,0,0,0,0,0,0,0,0,0,0],"id":24,"left_children":[1,3,5,7,9,11,13,15,17,19,21,23,25,27,29,31,33,35,37,39,41,43,45,47,49,51,-1,53,55,-1,-1,-1,-1,-1,-1,-1,-1,-1,-1,-1,-1,-1,-1,-1,-1,-1,-1,-1,-1,-1,-1,-1,-1,-1,-1,-1,-1],"loss_changes":[3.4437585E3,3.157601E3,1.4285322E3,3.177675E3,3.0383245E3,3.3167673E3,1.4436152E3,7.065664E2,1.6485471E3,2.961204E3,1.0399878E3,2.8761267E3,3.904099E2,1.3849941E3,1.6162344E2,4.946524E2,1.7583252E2,2.3762402E3,1.1586003E3,2.5800713E3,1.6341201E3,1.5615103E3,5.251914E2,1.0729604E3,9.730449E2,3.9587076E2,0E0,1.9341033E3,1.0029746E3,0E0,0E0,0E0,0E0,0E0,0E0,0E0,0E0,0E0,0E0,0E0,0E0,0E0,0E0,0E0,0E0,0E0,0E0,0E0,0E0,0E0,0E0,0E0,0E0,0E0,0E0,0E0,0E0],"parents":[2147483647,0,0,1,1,2,2,3,3,4,4,5,5,6,6,7,7,8,8,9,9,10,10,11,11,12,12,13,13,14,14,15,15,16,16,17,17,18,18,19,19,20,20,21,21,22,22,23,23,24,24,25,25,27,27,28,28],"right_children":[2,4,6,8,10,12,14,16,18,20,22,24,26,28,30,32,34,36,38,40,42,44,46,48,50,52,-1,54,56,-1,-1,-1,-1,-1,-1,-1,-1,-1,-1,-1,-1,-1,-1,-1,-1,-1,-1,-1,-1,-1,-1,-1,-1,-1,-1,-1,-1],"split_conditions":[7.432E1,-4.86E0,7.046E1,6.266E1,2.4264E2,-5.1E0,6.98E0,5.4E0,1E0,7.374E1,2.441E2,7.514E1,-3.18E0,4.12E0,9.84E0,-9E-1,2.2264E2,-9.6E0,-8.82E0,2.068E2,8.22E0,6.928E1,2.158E2,-1.86E0,1.72E0,2.1042E2,-1.5017527E0,2.2054E2,-4.16E0,-9.939257E-2,-8.4768337E-1,-9.584187E-1,-3.2711945E-2,-1.6165112E0,-6.765708E-1,1.4562654E-1,-1.56244E-1,-6.7904687E-1,-1.9811341E-1,-1.02188595E-1,3.996529E-2,2.59337E-1,1.7279975E0,4.3768138E-1,2.0963223E0,1.528428E-1,8.8785344E-1,4.013664E-1,1.2025039E0,1.4690763E-1,-4.6984142E-1,-1.016282E0,1.553311E-1,4.172756E-2,8.997841E-1,2.3678305E0,7.158534E-1],"split_indices":[2,7,1,2,4,11,8,6,12,1,4,2,7,8,8,6,3,7,7,3,10,1,3,6,10,3,0,3,11,0,0,0,0,0,0,0,0,0,0,0,0,0,0,0,0,0,0,0,0,0,0,0,0,0,0,0,0],"split_type":[0,0,0,0,0,0,0,0,0,0,0,0,0,0,0,0,0,0,0,0,0,0,0,0,0,0,0,0,0,0,0,0,0,0,0,0,0,0,0,0,0,0,0,0,0,0,0,0,0,0,0,0,0,0,0,0,0],"sum_hessian":[5.201E3,4.975E3,2.26E2,1.006E3,3.969E3,1.41E2,8.5E1,2.7E1,9.79E2,3.924E3,4.5E1,1.29E2,1.2E1,7.8E1,7E0,1.4E1,1.3E1,8.37E2,1.42E2,3.702E3,2.22E2,1.5E1,3E1,4.5E1,8.4E1,6E0,6E0,6.7E1,1.1E1,4E0,3E0,7E0,7E0,9E0,4E0,2.29E2,6.08E2,4.9E1,9.3E1,1.216E3,2.486E3,2.18E2,4E0,9E0,6E0,2.2E1,8E0,2.5E1,2E1,6.3E1,2.1E1,3E0,3E0,3.1E1,3.6E1,4E0,7E0],"tree_param":{"num_deleted":"0","num_feature":"13","num_nodes":"57","size_leaf_vector":"1"}},{"base_weights":[-4.3817963E-2,-1.3081311E0,5.6425864E-1,-4.50132E0,-9.921098E-1,-8.189063E-1,1.312569E0,-8.2755923E-1,-7.1637416E0,-1.9072668E-1,-2.2541702E0,-2.6569827E0,-6.8507396E-2,-1.0508224E0,1.847786E0,-2.5084705E0,8.6683E0,-1.0388841E1,-2.2166867E0,-1.8036777E1,-3.799256E-2,-6.3817424E-1,-3.7736528E0,8.622379E0,-3.03939E0,7.9454827E0,-3.1269875E-1,1.1849452E1,-1.5883934E0,1.1704782E0,3.838485E0,-9.1866374E-2,-9.492327E-1,9.804459E-1,2.1039282E-1,-1.6462883E0,-6.9201416E-1,-5.386574E-2,-9.3207073E-1,-6.788788E-1,-1.7656045E0,1.3624452E-1,-8.383305E-2,-4.3783477E-1,1.4129452E-2,-3.2596233E-1,5.3398854E-1,1.1301627E0,-4.7349516E-1,-2.1791229E-1,-9.942748E-1,1.1324185E-1,9.5505893E-1,1.6123254E-2,-3.150826E-1,-1.1948141E0,1.492465E0,-2.549795E-1,1.4036621E-1,5.315863E-1,6.966107E-2,2.552255E-1,7.8173697E-1],"categories":[],"categories_nodes":[],"categories_segments":[],"categories_sizes":[],"default_left":[0,0,0,0,0,0,0,0,0,0,0,0,0,0,0,0,0,0,0,0,0,0,0,0,0,0,0,0,0,0,0,0,0,0,0,0,0,0,0,0,0,0,0,0,0,0,0,0,0,0,0,0,0,0,0,0,0,0,0,0,0,0,0],"id":25,"left_children":[1,3,5,7,9,11,13,15,17,19,21,23,25,27,29,31,33,35,37,39,41,43,45,47,49,51,53,55,57,59,61,-1,-1,-1,-1,-1,-1,-1,-1,-1,-1,-1,-1,-1,-1,-1,-1,-1,-1,-1,-1,-1,-1,-1,-1,-1,-1,-1,-1,-1,-1,-1,-1],"loss_changes":[4.003107E3,1.7019487E3,3.6402642E3,1.4807991E3,1.5571167E3,1.7032416E3,2.8885051E3,1.0592545E3,1.3809883E3,2.5696506E3,1.4659678E3,1.5703721E3,1.7206842E3,2.9453132E3,2.5047231E3,6.990729E2,1.8438257E2,7.609697E2,5.1633E2,1.2088208E2,1.6475735E3,1.1473104E3,9.954595E2,1.0441365E3,9.94E2,6.609866E2,1.5912522E3,3.3778271E3,2.1756257E3,2.2748472E3,1.7840039E3,0E0,0E0,0E0,0E0,0E0,0E0,0E0,0E0,0E0,0E0,0E0,0E0,0E0,0E0,0E0,0E0,0E0,0E0,0E0,0E0,0E0,0E0,0E0,0E0,0E0,0E0,0E0,0E0,0E0,0E0,0E0,0E0],"parents":[2147483647,0,0,1,1,2,2,3,3,4,4,5,5,6,6,7,7,8,8,9,9,10,10,11,11,12,12,13,13,14,14,15,15,16,16,17,17,18,18,19,19,20,20,21,21,22,22,23,23,24,24,25,25,26,26,27,27,28,28,29,29,30,30],"right_children":[2,4,6,8,10,12,14,16,18,20,22,24,26,28,30,32,34,36,38,40,42,44,46,48,50,52,54,56,58,60,62,-1,-1,-1,-1,-1,-1,-1,-1,-1,-1,-1,-1,-1,-1,-1,-1,-1,-1,-1,-1,-1,-1,-1,-1,-1,-1,-1,-1,-1,-1,-1,-1],"split_conditions":[2.068E2,6.497E1,6.738E1,-1.328E1,1.3E0,2.0378E2,1.9704E2,-2.34E0,6.48E1,-9.58E0,-1.268E1,-8.66E0,2.0742E2,6.574E1,1.278E1,6.469E1,1.985E2,-4.72E0,-2.06E0,-3.62E0,-1.412E1,2.131E2,7.33E1,6.62E1,2.0356E2,-5.6E-1,4.46E0,6.444E1,2.564E1,2.0768E2,2.142E1,-9.1866374E-2,-9.492327E-1,9.804459E-1,2.1039282E-1,-1.6462883E0,-6.9201416E-1,-5.386574E-2,-9.3207073E-1,-6.788788E-1,-1.7656045E0,1.3624452E-1,-8.383305E-2,-4.3783477E-1,1.4129452E-2,-3.2596233E-1,5.3398854E-1,1.1301627E0,-4.7349516E-1,-2.1791229E-1,-9.942748E-1,1.1324185E-1,9.5505893E-1,1.6123254E-2,-3.150826E-1,-1.1948141E0,1.492465E0,-2.549795E-1,1.4036621E-1,5.315863E-1,6.966107E-2,2.552255E-1,7.8173697E-1],"split_indices":[3,0,0,5,9,4,4,6,1,10,6,10,3,1,5,0,3,9,6,9,5,4,0,2,4,9,11,1,5,3,6,0,0,0,0,0,0,0,0,0,0,0,0,0,0,0,0,0,0,0,0,0,0,0,0,0,0,0,0,0,0,0,0],"split_type":[0,0,0,0,0,0,0,0,0,0,0,0,0,0,0,0,0,0,0,0,0,0,0,0,0,0,0,0,0,0,0,0,0,0,0,0,0,0,0,0,0,0,0,0,0,0,0,0,0,0,0,0,0,0,0,0,0,0,0,0,0,0,0],"sum_hessian":[5.205E3,1.69E3,3.515E3,1.51E2,1.539E3,1.234E3,2.281E3,6.4E1,8.7E1,9.42E2,5.97E2,3.57E2,8.77E2,4.21E2,1.86E3,5.5E1,9E0,5.2E1,3.5E1,7E0,9.35E2,2.9E2,3.07E2,1.1E1,3.46E2,2.5E1,8.52E2,1.6E1,4.05E2,1.389E3,4.71E2,4.9E1,6E0,5E0,4E0,6E0,4.6E1,3.1E1,4E0,3E0,4E0,3.43E2,5.92E2,4.1E1,2.49E2,2.99E2,8E0,8E0,3E0,3.36E2,1E1,1E1,1.5E1,7.47E2,1.05E2,3E0,1.3E1,2.74E2,1.31E2,7.1E1,1.318E3,4.26E2,4.5E1],"tree_param":{"num_deleted":"0","num_feature":"13","num_nodes":"63","size_leaf_vector":"1"}},{"base_weights":[-1.0895479E-3,-5.0382155E-1,1.4713337E0,-6.048609E-1,7.0721216E0,8.358141E-1,4.150777E0,-7.421747E-1,5.028635E0,2.0412219E0,4.9596133E0,-6.4611206E0,1.0963666E0,9.917402E0,3.0854318E0,-2.1016366E0,-3.2090098E-1,-2.8618097E0,8.228841E0,2.218161E0,1.1263168E1,7.057558E0,-9.850731E0,-1.9885575E0,1.7940228E0,1.3285192E1,1.232778E0,8.102107E0,1.962631E0,-1.9396554E-1,2.3159187E-1,-4.739352E-1,-1.3543236E-2,-8.209276E-1,3.7939128E-1,-3.8533744E-3,9.1198266E-1,-2.6722323E-2,9.688033E-1,2.7043864E-2,1.3836094E0,-3.9971656E-1,1.628855E0,-4.209769E-2,-9.7279453E-1,-1.0844748E0,-8.540736E-2,1.1651414E-1,6.6897666E-1,1.0248123E-1,1.3780465E0,5.604286E-1,-6.5999246E-1,3.5581786E-2,1.2283468E0,2.0389244E-2,5.2375525E-1],"categories":[],"categories_nodes":[],"categories_segments":[],"categories_sizes":[],"default_left":[0,0,0,0,0,0,0,0,0,0,0,0,0,0,0,0,0,0,0,0,0,0,0,0,0,0,0,0,0,0,0,0,0,0,0,0,0,0,0,0,0,0,0,0,0,0,0,0,0,0,0,0,0,0,0,0,0],"id":26,"left_children":[1,3,5,7,9,11,13,15,17,-1,19,21,23,25,27,29,31,33,35,37,39,41,43,45,47,49,51,53,55,-1,-1,-1,-1,-1,-1,-1,-1,-1,-1,-1,-1,-1,-1,-1,-1,-1,-1,-1,-1,-1,-1,-1,-1,-1,-1,-1,-1],"loss_changes":[3.841817E3,2.9658748E3,2.2459805E3,2.9579456E3,1.8604812E3,2.0395039E3,1.5236924E3,2.1349448E3,2.3213943E3,0E0,7.872185E2,1.7649749E3,2.226807E3,1.124294E3,1.1951348E3,1.4301653E3,2.4184229E3,1.5679398E3,1.7065342E3,8.624079E2,9.1675024E2,1.3845802E3,6.3956665E2,2.0202805E3,1.857084E3,1.3023652E3,7.1466815E2,2.1589478E3,1.3840511E3,0E0,0E0,0E0,0E0,0E0,0E0,0E0,0E0,0E0,0E0,0E0,0E0,0E0,0E0,0E0,0E0,0E0,0E0,0E0,0E0,0E0,0E0,0E0,0E0,0E0,0E0,0E0,0E0],"parents":[2147483647,0,0,1,1,2,2,3,3,4,4,5,5,6,6,7,7,8,8,10,10,11,11,12,12,13,13,14,14,15,15,16,16,17,17,18,18,19,19,20,20,21,21,22,22,23,23,24,24,25,25,26,26,27,27,28,28],"right_children":[2,4,6,8,10,12,14,16,18,-1,20,22,24,26,28,30,32,34,36,38,40,42,44,46,48,50,52,54,56,-1,-1,-1,-1,-1,-1,-1,-1,-1,-1,-1,-1,-1,-1,-1,-1,-1,-1,-1,-1,-1,-1,-1,-1,-1,-1,-1,-1],"split_conditions":[7.044E1,2.4264E2,2.2928E2,7.498E1,6.43E1,-6.78E0,7.04E0,2.04E2,-4.12E0,2.0412219E0,4.64E0,7.078E1,6.592E1,2.8E-1,2.3222E2,1.042E1,-2.486E1,7.624E1,1.8E-1,4.74E0,-1.838E1,-8.32E0,-7.28E0,-1.174E1,7.666E1,6.706E1,6.888E1,6.936E1,1E0,-1.9396554E-1,2.3159187E-1,-4.739352E-1,-1.3543236E-2,-8.209276E-1,3.7939128E-1,-3.8533744E-3,9.1198266E-1,-2.6722323E-2,9.688033E-1,2.7043864E-2,1.3836094E0,-3.9971656E-1,1.628855E0,-4.209769E-2,-9.7279453E-1,-1.0844748E0,-8.540736E-2,1.1651414E-1,6.6897666E-1,1.0248123E-1,1.3780465E0,5.604286E-1,-6.5999246E-1,3.5581786E-2,1.2283468E0,2.0389244E-2,5.2375525E-1],"split_indices":[2,4,3,1,2,9,5,4,8,0,7,2,1,8,3,7,5,1,7,8,5,9,7,11,2,1,1,1,12,0,0,0,0,0,0,0,0,0,0,0,0,0,0,0,0,0,0,0,0,0,0,0,0,0,0,0,0],"split_type":[0,0,0,0,0,0,0,0,0,0,0,0,0,0,0,0,0,0,0,0,0,0,0,0,0,0,0,0,0,0,0,0,0,0,0,0,0,0,0,0,0,0,0,0,0,0,0,0,0,0,0,0,0,0,0,0,0],"sum_hessian":[5.188E3,3.868E3,1.32E3,3.818E3,5E1,1.068E3,2.52E2,3.728E3,9E1,4E0,4.6E1,3.6E1,1.032E3,3.8E1,2.14E2,8.81E2,2.847E3,2.6E1,6.4E1,3.3E1,1.3E1,7E0,2.9E1,1.9E2,8.42E2,2.7E1,1.1E1,3.8E1,1.76E2,8.28E2,5.3E1,7.4E1,2.773E3,1.3E1,1.3E1,1.8E1,4.6E1,2.7E1,6E0,5E0,8E0,4E0,3E0,6E0,2.3E1,1.3E1,1.77E2,8.02E2,4E1,7E0,2E1,7E0,4E0,1.9E1,1.9E1,1.29E2,4.7E1],"tree_param":{"num_deleted":"0","num_feature":"13","num_nodes":"57","size_leaf_vector":"1"}},{"base_weights":[-2.5553992E-1,-7.4071854E-1,8.551925E-1,-2.1237454E0,-3.4820127E-1,-3.679694E-1,1.920909E0,-1.8067901E0,-9.341929E0,-1.2409964E1,-3.0592033E-1,1.5753525E-1,-4.3229876E0,3.447589E0,5.0263965E-1,-6.121394E-1,-4.1174407E0,-1.2220168E1,3.5055869E0,-1.3478831E0,-1.23197325E-1,-3.6748368E-1,6.6925263E0,-3.0007026E-1,5.1230106E0,-1.1310656E1,-3.0708473E0,6.3694844E0,1.2385384E0,1.637721E1,-4.8448592E-2,-3.861464E-1,2.1256812E-2,-4.2189094E-1,2.037528E-1,-1.7727356E-2,-1.0920907E0,-1.02452695E-1,5.9323484E-1,-1.3388095E-2,-2.2757997E-1,7.669366E-1,3.856988E-2,4.2382845E-1,-5.7136178E-2,1.017237E0,1.4145145E-1,-1.1210194E0,-3.347815E-1,2.462059E-1,-3.8093752E-1,2.5181594E-1,7.644721E-1,-1.6430905E-1,3.4043482E-1,2.2214441E0,6.323988E-1,1.5078393E0,-2.50591E-2],"categories":[],"categories_nodes":[],"categories_segments":[],"categories_sizes":[],"default_left":[0,0,0,0,0,0,0,0,0,0,0,0,0,0,0,0,0,0,0,0,0,0,0,0,0,0,0,0,0,0,0,0,0,0,0,0,0,0,0,0,0,0,0,0,0,0,0,0,0,0,0,0,0,0,0,0,0,0,0],"id":27,"left_children":[1,3,5,7,9,11,13,15,17,19,21,23,25,27,29,31,33,35,37,-1,-1,39,41,43,45,47,49,51,53,55,57,-1,-1,-1,-1,-1,-1,-1,-1,-1,-1,-1,-1,-1,-1,-1,-1,-1,-1,-1,-1,-1,-1,-1,-1,-1,-1,-1,-1],"loss_changes":[2.8519727E3,1.9986208E3,2.098109E3,1.8454241E3,1.4598545E3,1.5594663E3,1.8603765E3,2.1533674E3,1.3000981E3,4.5652686E2,1.235115E3,1.508025E3,7.3522644E2,2.6643218E3,3.911279E3,1.9104124E3,2.0630415E3,4.7772217E2,1.4049112E2,0E0,0E0,1.4060559E3,4.44729E2,1.4132981E3,1.403931E3,1.9167188E2,8.0476514E2,1.7972603E3,2.3628225E3,1.2280806E3,2.172459E3,0E0,0E0,0E0,0E0,0E0,0E0,0E0,0E0,0E0,0E0,0E0,0E0,0E0,0E0,0E0,0E0,0E0,0E0,0E0,0E0,0E0,0E0,0E0,0E0,0E0,0E0,0E0,0E0],"parents":[2147483647,0,0,1,1,2,2,3,3,4,4,5,5,6,6,7,7,8,8,9,9,10,10,11,11,12,12,13,13,14,14,15,15,16,16,17,17,18,18,21,21,22,22,23,23,24,24,25,25,26,26,27,27,28,28,29,29,30,30],"right_children":[2,4,6,8,10,12,14,16,18,20,22,24,26,28,30,32,34,36,38,-1,-1,40,42,44,46,48,50,52,54,56,58,-1,-1,-1,-1,-1,-1,-1,-1,-1,-1,-1,-1,-1,-1,-1,-1,-1,-1,-1,-1,-1,-1,-1,-1,-1,-1,-1,-1],"split_conditions":[2.2218E2,6.566E1,6.833E1,2.2068E2,6.022E1,6.95E1,-2.8E-1,2.62E0,3.82E0,1.38E0,7.484E1,6.876E1,-4.12E0,6.972E1,6.608E1,-6.78E0,7.104E1,-5.94E0,6.452E1,-1.3478831E0,-1.23197325E-1,6.04E0,3.82E0,-9.38E0,-4.44E0,1E0,6.71E1,6.838E1,7.132E1,2.2846E2,-1.328E1,-3.861464E-1,2.1256812E-2,-4.2189094E-1,2.037528E-1,-1.7727356E-2,-1.0920907E0,-1.02452695E-1,5.9323484E-1,-1.3388095E-2,-2.2757997E-1,7.669366E-1,3.856988E-2,4.2382845E-1,-5.7136178E-2,1.017237E0,1.4145145E-1,-1.1210194E0,-3.347815E-1,2.462059E-1,-3.8093752E-1,2.5181594E-1,7.644721E-1,-1.6430905E-1,3.4043482E-1,2.2214441E0,6.323988E-1,1.5078393E0,-2.50591E-2],"split_indices":[3,2,0,3,1,1,9,7,10,7,0,1,10,1,1,7,1,9,2,0,0,10,8,7,8,12,0,1,1,3,5,0,0,0,0,0,0,0,0,0,0,0,0,0,0,0,0,0,0,0,0,0,0,0,0,0,0,0,0],"split_type":[0,0,0,0,0,0,0,0,0,0,0,0,0,0,0,0,0,0,0,0,0,0,0,0,0,0,0,0,0,0,0,0,0,0,0,0,0,0,0,0,0,0,0,0,0,0,0,0,0,0,0,0,0,0,0,0,0,0,0],"sum_hessian":[5.29E3,3.682E3,1.608E3,8.13E2,2.869E3,7.49E2,8.59E2,7.8E2,3.3E1,9E0,2.86E3,6.62E2,8.7E1,4.13E2,4.46E2,5.15E2,2.65E2,2.7E1,6E0,6E0,3E0,2.836E3,2.4E1,6.07E2,5.5E1,1.2E1,7.5E1,1.77E2,2.36E2,1.4E1,4.32E2,8.8E1,4.27E2,2.26E2,3.9E1,3E0,2.4E1,3E0,3E0,2.625E3,2.11E2,1.6E1,8E0,4.1E1,5.66E2,1.6E1,3.9E1,8E0,4E0,1.6E1,5.9E1,8.9E1,8.8E1,1.13E2,1.23E2,5E0,9E0,5E0,4.27E2],"tree_param":{"num_deleted":"0","num_feature":"13","num_nodes":"59","size_leaf_vector":"1"}},{"base_weights":[1.819384E-2,-3.6962613E-1,1.3737141E0,1.0813707E-1,-1.7087157E0,3.1991487E0,4.6626994E-1,-6.1604514E0,1.9072133E-1,-4.246962E0,-1.1160492E0,2.0064354E0,5.957995E0,-2.7616078E-1,3.2475421E0,3.226102E0,-1.2830493E1,1.17775295E-2,2.85846E0,-3.388532E0,-1.2833776E1,1.4210723E-1,-2.5218484E0,2.5384178E0,-9.687049E0,6.651331E0,-1.2094598E0,9.568251E-2,-1.2614279E1,1.7089893E0,1.3100519E1,1.090313E0,-8.1851244E-2,-3.2344502E-1,-1.2555289E0,2.8324947E-2,-1.3615137E-1,6.5908337E-1,9.464484E-2,-1.817129E-1,-7.2676873E-1,4.24703E-3,-1.4235476E0,8.4169173E-1,-1.6645389E-2,-5.0812936E-1,-1.1399018E-1,2.2702612E-1,-1.3866565E0,-1.3051733E-1,-1.0808724E0,8.191378E-1,3.2281426E-1,-5.3673882E-2,2.8328124E-1,-1.312247E0,-1.8422505E-1,9.871614E-1,1.414232E-2,1.7310837E-1,1.4448031E0],"categories":[],"categories_nodes":[],"categories_segments":[],"categories_sizes":[],"default_left":[0,0,0,0,0,0,0,0,0,0,0,0,0,0,0,0,0,0,0,0,0,0,0,0,0,0,0,0,0,0,0,0,0,0,0,0,0,0,0,0,0,0,0,0,0,0,0,0,0,0,0,0,0,0,0,0,0,0,0,0,0],"id":28,"left_children":[1,3,5,7,9,11,13,15,17,19,21,23,25,27,29,31,33,35,37,39,41,43,45,47,49,51,-1,53,55,57,59,-1,-1,-1,-1,-1,-1,-1,-1,-1,-1,-1,-1,-1,-1,-1,-1,-1,-1,-1,-1,-1,-1,-1,-1,-1,-1,-1,-1,-1,-1],"loss_changes":[2.7483303E3,2.6008408E3,1.9249946E3,1.552682E3,1.6033928E3,1.2581833E3,1.6073904E3,2.4831316E3,1.4125198E3,1.4454912E3,1.5356034E3,1.7104062E3,1.7956548E3,2.8227327E3,2.4637407E3,7.654133E2,5.153164E2,1.6277262E3,1.6668177E3,1.1565581E3,1.1516165E3,1.6704136E3,1.7134192E3,1.596121E3,3.4759827E2,1.019355E3,0E0,1.5818212E3,6.6545386E2,2.3270317E3,1.1542141E3,0E0,0E0,0E0,0E0,0E0,0E0,0E0,0E0,0E0,0E0,0E0,0E0,0E0,0E0,0E0,0E0,0E0,0E0,0E0,0E0,0E0,0E0,0E0,0E0,0E0,0E0,0E0,0E0,0E0,0E0],"parents":[2147483647,0,0,1,1,2,2,3,3,4,4,5,5,6,6,7,7,8,8,9,9,10,10,11,11,12,12,13,13,14,14,15,15,16,16,17,17,18,18,19,19,20,20,21,21,22,22,23,23,24,24,25,25,27,27,28,28,29,29,30,30],"right_children":[2,4,6,8,10,12,14,16,18,20,22,24,26,28,30,32,34,36,38,40,42,44,46,48,50,