{"learner":{"attributes":{"scikit_learn":"{\"_estimator_type\": \"regressor\"}"},"feature_names":[],"feature_types":[],"gradient_booster":{"model":{"cats":{"enc":[],"feature_segments":[],"sorted_idx":[]},"gbtree_model_param":{"num_parallel_tree":"1","num_trees":"100"},"iteration_indptr":[0,1,2,3,4,5,6,7,8,9,10,11,12,13,14,15,16,17,18,19,20,21,22,23,24,25,26,27,28,29,30,31,32,33,34,35,36,37,38,39,40,41,42,43,44,45,46,47,48,49,50,51,52,53,54,55,56,57,58,59,60,61,62,63,64,65,66,67,68,69,70,71,72,73,74,75,76,77,78,79,80,81,82,83,84,85,86,87,88,89,90,91,92,93,94,95,96,97,98,99,100],"tree_info":[0,0,0,0,0,0,0,0,0,0,0,0,0,0,0,0,0,0,0,0,0,0,0,0,0,0,0,0,0,0,0,0,0,0,0,0,0,0,0,0,0,0,0,0,0,0,0,0,0,0,0,0,0,0,0,0,0,0,0,0,0,0,0,0,0,0,0,0,0,0,0,0,0,0,0,0,0,0,0,0,0,0,0,0,0,0,0,0,0,0,0,0,0,0,0,0,0,0,0,0],"trees":[{"base_weights":[2.8198607E-2,-4.336126E0,4.6543627E0,-8.557027E0,-2.2831028E0,2.5771093E0,1.1403153E1,-1.2750784E1,-6.6012483E0,-5.7781687E0,-1.0386367E0,8.347728E-1,4.9179883E0,9.019698E0,1.6848166E1,-1.806354E1,-1.1197824E1,-8.451317E0,-5.6556773E0,-6.475493E0,-1.8154585E0,-2.3492181E0,5.306402E-1,-2.8265804E-1,3.1320553E0,2.1598413E0,6.6251364E0,5.8685465E0,1.0362687E1,7.7997136E0,1.8904676E1,-1.8264633E1,5.1453096E-1,-1.4888944E1,-1.0076634E1,-9.794911E0,-6.247746E0,-6.448633E0,-4.0849204E0,-8.549963E0,-5.115648E0,-6.3151937E0,1.7403452E-1,-3.0656517E0,-1.0722848E0,-8.997772E-2,2.5412612E0,-2.9219623E0,8.136333E-1,4.164473E0,7.0073736E-1,-3.9575443E0,3.3032987E0,5.793884E0,1.1127893E1,6.5355773E0,-1.90684E-2,6.916961E0,1.1402472E1,3.9664574E0,1.1730339E1,7.625287E0,2.0029795E1,-1.623428E0,-2.1635194E0,-4.6080408E-1,-1.5422378E0,-1.1048026E0,-8.3186E-1,-1.261113E0,-7.995123E-1,-8.1799376E-1,-3.1048974E-1,-6.659026E-1,4.4330674E-1,-3.5127413E-2,-5.1457435E-1,-6.926187E-1,-9.9674475E-1,-7.268936E-1,-4.267318E-1,4.3919593E-1,-7.875077E-1,6.0955906E-1,-1.2286351E-1,-5.633283E-1,-2.2315918E-1,-1.8933697E-1,1.9445984E-1,-1.9509484E-1,5.2266587E-2,-2.8563428E-1,3.2002732E-1,-9.700169E-1,-1.6841231E-1,-1.507909E-1,1.7477892E-1,2.814893E-1,5.556266E-1,2.2000921E-1,-4.2488748E-1,-6.9639224E-1,-1.0723638E-2,2.6980367E-1,9.3398803E-1,3.825844E-1,6.9962174E-1,7.7822965E-1,1.4694217E0,3.2334107E-1,7.860451E-1,-6.638443E-1,3.1339228E-1,5.40736E-1,1.2829632E0,9.144991E-1,1.292965E0,9.326088E-1,-1.08622745E-1,1.3474792E0,3.5042915E-1,1.0800589E0,1.4330673E-1,1.5992823E0,2.1760664E0],"categories":[],"categories_nodes":[],"categories_segments":[],"categories_sizes":[],"default_left":[0,0,0,0,0,0,0,0,0,0,0,0,0,0,0,0,0,0,0,0,0,0,0,0,0,0,0,0,0,0,0,0,0,0,0,0,0,0,0,0,0,0,0,0,0,0,0,0,0,0,0,0,0,0,0,0,0,0,0,0,0,0,0,0,0,0,0,0,0,0,0,0,0,0,0,0,0,0,0,0,0,0,0,0,0,0,0,0,0,0,0,0,0,0,0,0,0,0,0,0,0,0,0,0,0,0,0,0,0,0,0,0,0,0,0,0,0,0,0,0,0,0,0,0,0],"id":0,"left_children":[1,3,5,7,9,11,13,15,17,19,21,23,25,27,29,31,33,35,37,39,41,43,45,47,49,51,53,55,57,59,61,63,-1,65,67,69,71,73,75,77,79,81,83,85,87,89,91,93,95,97,99,101,103,105,107,109,111,113,115,117,119,121,123,-1,-1,-1,-1,-1,-1,-1,-1,-1,-1,-1,-1,-1,-1,-1,-1,-1,-1,-1,-1,-1,-1,-1,-1,-1,-1,-1,-1,-1,-1,-1,-1,-1,-1,-1,-1,-1,-1,-1,-1,-1,-1,-1,-1,-1,-1,-1,-1,-1,-1,-1,-1,-1,-1,-1,-1,-1,-1,-1,-1,-1,-1],"loss_changes":[2.3985814E5,5.295333E4,8.081788E4,1.63199375E4,1.7887803E4,1.7986594E4,1.7459094E4,5.036789E3,2.3418438E3,2.9726016E3,6.2432266E3,6.495533E3,8.847211E3,3.942625E3,7.5191406E3,7.5671484E2,1.8943594E3,1.3007305E3,1.1033672E3,2.5459023E3,1.4603064E3,1.5098545E3,1.7247261E3,4.929917E3,2.0754746E3,5.0564463E3,4.2848086E3,1.1193818E3,2.2929531E3,1.1287056E3,4.098633E3,6.136875E2,0E0,5.4864453E2,5.604531E2,1.3386543E3,1.0494487E3,1.4054668E3,1.2141392E3,7.641719E2,9.864531E2,8.696824E2,9.5437177E2,2.2553389E3,1.4800436E3,1.2061177E3,1.168751E3,4.1788286E3,2.6137292E3,1.0756729E3,1.8498115E3,1.3188578E3,2.1962603E3,2.299246E3,2.0333105E3,1.0945723E3,6.4692926E2,1.3230459E3,1.6296797E3,1.1204316E3,4.980786E2,6.137117E2,1.7761875E3,0E0,0E0,0E0,0E0,0E0,0E0,0E0,0E0,0E0,0E0,0E0,0E0,0E0,0E0,0E0,0E0,0E0,0E0,0E0,0E0,0E0,0E0,0E0,0E0,0E0,0E0,0E0,0E0,0E0,0E0,0E0,0E0,0E0,0E0,0E0,0E0,0E0,0E0,0E0,0E0,0E0,0E0,0E0,0E0,0E0,0E0,0E0,0E0,0E0,0E0,0E0,0E0,0E0,0E0,0E0,0E0,0E0,0E0,0E0,0E0,0E0,0E0],"parents":[2147483647,0,0,1,1,2,2,3,3,4,4,5,5,6,6,7,7,8,8,9,9,10,10,11,11,12,12,13,13,14,14,15,15,16,16,17,17,18,18,19,19,20,20,21,21,22,22,23,23,24,24,25,25,26,26,27,27,28,28,29,29,30,30,31,31,33,33,34,34,35,35,36,36,37,37,38,38,39,39,40,40,41,41,42,42,43,43,44,44,45,45,46,46,47,47,48,48,49,49,50,50,51,51,52,52,53,53,54,54,55,55,56,56,57,57,58,58,59,59,60,60,61,61,62,62],"right_children":[2,4,6,8,10,12,14,16,18,20,22,24,26,28,30,32,34,36,38,40,42,44,46,48,50,52,54,56,58,60,62,64,-1,66,68,70,72,74,76,78,80,82,84,86,88,90,92,94,96,98,100,102,104,106,108,110,112,114,116,118,120,122,124,-1,-1,-1,-1,-1,-1,-1,-1,-1,-1,-1,-1,-1,-1,-1,-1,-1,-1,-1,-1,-1,-1,-1,-1,-1,-1,-1,-1,-1,-1,-1,-1,-1,-1,-1,-1,-1,-1,-1,-1,-1,-1,-1,-1,-1,-1,-1,-1,-1,-1,-1,-1,-1,-1,-1,-1,-1,-1,-1,-1,-1,-1],"split_conditions":[8.237059E1,-2.7E1,4E1,7.2142204E1,7.454487E1,8.830183E1,9.537893E1,-9.4E1,-5.6E1,1.0923E2,7E0,1.2E1,0E0,8.639878E1,1E0,7.64E1,6.63163E1,7.21E1,7.88818E1,3.22E1,9.959E1,1.0913E2,3.6E1,1.0128E2,1.055E1,9.996E1,9.756035E1,1.19426E2,1.0362E2,1.0664E2,1.0046E2,1.97E1,5.1453096E-1,2.23E1,1E0,-7.6E1,7.895669E1,5.64E1,-2.950001E-1,1.05378E2,6.48E1,-2.29E1,2.53E1,1.0138E2,3.52E1,1.0101E2,4.8E1,1.0025E2,1.0084E2,1E0,1.84E1,1.0942E2,1.1432E2,1.0774E2,1.0708E2,1E0,9.838E1,1.0033E2,5.4E1,1.0107E2,5.79E1,5.65E1,6.9E1,-1.623428E0,-2.1635194E0,-4.6080408E-1,-1.5422378E0,-1.1048026E0,-8.3186E-1,-1.261113E0,-7.995123E-1,-8.1799376E-1,-3.1048974E-1,-6.659026E-1,4.4330674E-1,-3.5127413E-2,-5.1457435E-1,-6.926187E-1,-9.9674475E-1,-7.268936E-1,-4.267318E-1,4.3919593E-1,-7.875077E-1,6.0955906E-1,-1.2286351E-1,-5.633283E-1,-2.2315918E-1,-1.8933697E-1,1.9445984E-1,-1.9509484E-1,5.2266587E-2,-2.8563428E-1,3.2002732E-1,-9.700169E-1,-1.6841231E-1,-1.507909E-1,1.7477892E-1,2.814893E-1,5.556266E-1,2.2000921E-1,-4.2488748E-1,-6.9639224E-1,-1.0723638E-2,2.6980367E-1,9.3398803E-1,3.825844E-1,6.9962174E-1,7.7822965E-1,1.4694217E0,3.2334107E-1,7.860451E-1,-6.638443E-1,3.1339228E-1,5.40736E-1,1.2829632E0,9.144991E-1,1.292965E0,9.326088E-1,-1.08622745E-1,1.3474792E0,3.5042915E-1,1.0800589E0,1.4330673E-1,1.5992823E0,2.1760664E0],"split_indices":[0,32,32,0,0,0,0,32,32,20,32,32,32,0,24,2,0,2,0,19,23,23,32,23,1,20,0,14,23,23,23,9,0,10,24,32,0,8,4,14,7,33,10,20,12,20,16,20,20,24,9,23,23,20,23,24,21,21,32,23,16,8,32,0,0,0,0,0,0,0,0,0,0,0,0,0,0,0,0,0,0,0,0,0,0,0,0,0,0,0,0,0,0,0,0,0,0,0,0,0,0,0,0,0,0,0,0,0,0,0,0,0,0,0,0,0,0,0,0,0,0,0,0,0,0],"split_type":[0,0,0,0,0,0,0,0,0,0,0,0,0,0,0,0,0,0,0,0,0,0,0,0,0,0,0,0,0,0,0,0,0,0,0,0,0,0,0,0,0,0,0,0,0,0,0,0,0,0,0,0,0,0,0,0,0,0,0,0,0,0,0,0,0,0,0,0,0,0,0,0,0,0,0,0,0,0,0,0,0,0,0,0,0,0,0,0,0,0,0,0,0,0,0,0,0,0,0,0,0,0,0,0,0,0,0,0,0,0,0,0,0,0,0,0,0,0,0,0,0,0,0,0,0],"sum_hessian":[1.1878E4,6.112E3,5.766E3,1.999E3,4.113E3,4.41E3,1.356E3,6.34E2,1.365E3,1.079E3,3.034E3,2.529E3,1.881E3,9.45E2,4.11E2,1.41E2,4.93E2,4.59E2,9.06E2,9.17E2,1.62E2,1.653E3,1.381E3,1.702E3,8.27E2,7.2E2,1.161E3,2.84E2,6.61E2,7.7E1,3.34E2,1.4E2,1E0,1.12E2,3.81E2,2.83E2,1.76E2,6E2,3.06E2,3.61E2,5.56E2,4.9E1,1.13E2,1.058E3,5.95E2,1.056E3,3.25E2,4.99E2,1.203E3,5.8E2,2.47E2,1.13E2,6.07E2,9.82E2,1.79E2,2.55E2,2.9E1,1.55E2,5.06E2,4E1,3.7E1,3.1E1,3.03E2,9.1E1,4.9E1,6E0,1.06E2,2.42E2,1.39E2,1.08E2,1.75E2,1.08E2,6.8E1,5.89E2,1.1E1,6.8E1,2.38E2,1.71E2,1.9E2,1.55E2,4.01E2,6E0,4.3E1,2.1E1,9.2E1,2.58E2,8E2,4.68E2,1.27E2,2.61E2,7.95E2,3.5E1,2.9E2,7.6E1,4.23E2,3.45E2,8.58E2,2.96E2,2.84E2,1.9E2,5.7E1,6.3E1,5E1,5.53E2,5.4E1,3.74E2,6.08E2,9.4E1,8.5E1,7.4E1,1.81E2,9E0,2E1,1.25E2,3E1,2.07E2,2.99E2,1.9E1,2.1E1,3E1,7E0,2E1,1.1E1,9.4E1,2.09E2],"tree_param":{"num_deleted":"0","num_feature":"35","num_nodes":"125","size_leaf_vector":"1"}},{"base_weights":[-5.4474087E-3,-3.7995222E0,4.3817315E0,-7.695284E0,-2.1876528E0,2.8593924E0,1.0362612E1,-1.3765398E1,-6.697687E0,-4.5837533E-1,-4.0750885E0,4.530667E0,5.318405E-1,1.574082E1,7.20309E0,-2.0378366E1,-1.2306857E1,-7.2441545E0,-3.1986594E0,-2.5336466E0,1.5694013E-1,-3.2185733E0,-6.299519E0,2.6759286E0,5.955051E0,-2.6904137E0,1.4995052E0,8.690256E0,1.7456049E1,2.974434E0,8.804676E0,-1.2180059E1,-2.323891E1,-1.3534323E1,-5.502269E0,-9.505019E0,-6.2284E0,-6.258961E0,-1.2107143E0,-1.9304403E0,-6.0817337E0,-1.7715205E0,9.161147E-1,-4.7626705E0,-2.051699E0,-7.8484507E0,-4.6606708E0,1.2363397E0,3.8509078E0,4.4085045E0,8.341868E0,-4.5139804E0,5.5337694E-2,-3.3641535E-1,2.9888358E0,7.2768183E0,1.950332E1,1.4871673E1,2.2606915E1,9.9532163E-1,9.227464E0,6.6480966E0,1.2146483E1,-1.6591136E-1,-1.3795291E0,-2.4521646E0,-2.2376683E-1,-1.7359785E0,-1.1496006E0,-3.1572184E-1,-1.6310476E0,-1.3871948E-1,-9.919449E-1,-8.07121E-1,-5.12765E-1,-7.2490656E-1,8.150603E-1,3.063508E-2,-5.8631366E-1,-3.0241373E-1,1.8739957E-1,-9.479952E-1,-3.989133E-1,-7.359054E-2,-4.2630967E-1,2.4733149E-1,1.793991E-2,-1.0544039E0,-4.513662E-1,-6.3935256E-1,-1.6799134E-1,-1.1474957E0,-6.7488545E-1,-2.7600387E-1,-6.8186206E-1,-1.4647828E-1,2.0497635E-1,1.3830073E-1,4.9037233E-1,4.99364E-1,6.147926E-2,9.27937E-1,5.7552284E-1,-3.7264657E-1,-9.2230576E-1,6.259598E-1,-9.027384E-2,-2.1500187E-1,1.5302418E-1,1.9251864E-1,4.649489E-1,-1.3738497E-1,8.3302397E-1,9.950886E-1,2.2621057E0,7.323711E-1,1.6091522E0,7.763193E-1,2.4027865E0,7.460272E-1,-1.1494369E-2,8.821916E-2,1.2063494E0,1.9992904E-1,8.907944E-1,1.2456337E0,-6.1504364E-1],"categories":[],"categories_nodes":[],"categories_segments":[],"categories_sizes":[],"default_left":[0,0,0,0,0,0,0,0,0,0,0,0,0,0,0,0,0,0,0,0,0,0,0,0,0,0,0,0,0,0,0,0,0,0,0,0,0,0,0,0,0,0,0,0,0,0,0,0,0,0,0,0,0,0,0,0,0,0,0,0,0,0,0,0,0,0,0,0,0,0,0,0,0,0,0,0,0,0,0,0,0,0,0,0,0,0,0,0,0,0,0,0,0,0,0,0,0,0,0,0,0,0,0,0,0,0,0,0,0,0,0,0,0,0,0,0,0,0,0,0,0,0,0,0,0,0,0],"id":1,"left_children":[1,3,5,7,9,11,13,15,17,19,21,23,25,27,29,31,33,35,37,39,41,43,45,47,49,51,53,55,57,59,61,63,65,67,69,71,73,75,77,79,81,83,85,87,89,91,93,95,97,99,101,103,105,107,109,111,113,115,117,119,121,123,125,-1,-1,-1,-1,-1,-1,-1,-1,-1,-1,-1,-1,-1,-1,-1,-1,-1,-1,-1,-1,-1,-1,-1,-1,-1,-1,-1,-1,-1,-1,-1,-1,-1,-1,-1,-1,-1,-1,-1,-1,-1,-1,-1,-1,-1,-1,-1,-1,-1,-1,-1,-1,-1,-1,-1,-1,-1,-1,-1,-1,-1,-1,-1,-1],"loss_changes":[1.9837852E5,4.0115195E4,5.0293297E4,1.1231641E4,1.4757488E4,1.7140723E4,1.893529E4,2.285918E3,3.0514844E3,3.0152683E3,4.0988984E3,6.7604375E3,5.750622E3,4.8549453E3,4.7687812E3,7.9572266E2,1.7463516E3,3.132914E3,1.3247554E3,1.1439824E3,2.6691006E3,2.8063896E3,1.486498E3,1.882938E3,5.3156445E3,2.1332576E3,3.8782322E3,1.1266157E3,4.0832969E3,2.4164028E3,3.616375E3,2.1502466E2,8.341172E2,1.2351719E3,8.3560706E2,1.4295078E3,1.9100039E3,1.286043E3,9.475718E2,1.9321638E3,5.168501E2,1.3257244E3,1.5001116E3,9.198252E2,1.4291516E3,1.1467773E3,1.1870122E3,1.1081724E3,1.58854E3,1.9548242E3,1.3264102E3,9.1499854E2,1.0221011E3,2.156389E3,1.374104E3,6.949043E2,4.2938477E1,1.9446055E3,2.1125117E3,1.077529E3,1.1017275E3,3.2809463E3,1.2104863E3,0E0,0E0,0E0,0E0,0E0,0E0,0E0,0E0,0E0,0E0,0E0,0E0,0E0,0E0,0E0,0E0,0E0,0E0,0E0,0E0,0E0,0E0,0E0,0E0,0E0,0E0,0E0,0E0,0E0,0E0,0E0,0E0,0E0,0E0,0E0,0E0,0E0,0E0,0E0,0E0,0E0,0E0,0E0,0E0,0E0,0E0,0E0,0E0,0E0,0E0,0E0,0E0,0E0,0E0,0E0,0E0,0E0,0E0,0E0,0E0,0E0,0E0,0E0,0E0],"parents":[2147483647,0,0,1,1,2,2,3,3,4,4,5,5,6,6,7,7,8,8,9,9,10,10,11,11,12,12,13,13,14,14,15,15,16,16,17,17,18,18,19,19,20,20,21,21,22,22,23,23,24,24,25,25,26,26,27,27,28,28,29,29,30,30,31,31,32,32,33,33,34,34,35,35,36,36,37,37,38,38,39,39,40,40,41,41,42,42,43,43,44,44,45,45,46,46,47,47,48,48,49,49,50,50,51,51,52,52,53,53,54,54,55,55,56,56,57,57,58,58,59,59,60,60,61,61,62,62],"right_children":[2,4,6,8,10,12,14,16,18,20,22,24,26,28,30,32,34,36,38,40,42,44,46,48,50,52,54,56,58,60,62,64,66,68,70,72,74,76,78,80,82,84,86,88,90,92,94,96,98,100,102,104,106,108,110,112,114,116,118,120,122,124,126,-1,-1,-1,-1,-1,-1,-1,-1,-1,-1,-1,-1,-1,-1,-1,-1,-1,-1,-1,-1,-1,-1,-1,-1,-1,-1,-1,-1,-1,-1,-1,-1,-1,-1,-1,-1,-1,-1,-1,-1,-1,-1,-1,-1,-1,-1,-1,-1,-1,-1,-1,-1,-1,-1,-1,-1,-1,-1,-1,-1,-1,-1,-1,-1],"split_conditions":[8.27542E1,7.416417E1,9.390841E1,-2.6981E1,2E0,0E0,-1.1E1,9.258E1,1.0904E2,1.017E2,1.2E1,1E0,1.0075E2,1.0807E2,1.0757E2,4.62E1,1.0612E2,1.0337E2,9.769E1,1.2215E2,1.0121E2,1.0461E2,1.0056E2,8.6907974E1,8.200389E-1,1.0928E2,1.0302E2,8E0,1.0043627E2,1.1494E2,1.0634E2,2.57E1,1E0,6.63163E1,3.637586E0,-4E0,7.005968E1,1.94E1,5.07E1,1.1785E2,7.895669E1,1.13912E2,-7E0,9.462E1,9.353E1,6.81E1,1.0516E2,1.0248E2,1.0411E2,3.68E1,-5E0,4.33E1,9.786E1,1.1429E2,8.7558975E1,9.615E1,1.1248E2,1.3408E1,9.182E1,-7E0,9.863E1,1.1514E2,8E0,-1.6591136E-1,-1.3795291E0,-2.4521646E0,-2.2376683E-1,-1.7359785E0,-1.1496006E0,-3.1572184E-1,-1.6310476E0,-1.3871948E-1,-9.919449E-1,-8.07121E-1,-5.12765E-1,-7.2490656E-1,8.150603E-1,3.063508E-2,-5.8631366E-1,-3.0241373E-1,1.8739957E-1,-9.479952E-1,-3.989133E-1,-7.359054E-2,-4.2630967E-1,2.4733149E-1,1.793991E-2,-1.0544039E0,-4.513662E-1,-6.3935256E-1,-1.6799134E-1,-1.1474957E0,-6.7488545E-1,-2.7600387E-1,-6.8186206E-1,-1.4647828E-1,2.0497635E-1,1.3830073E-1,4.9037233E-1,4.99364E-1,6.147926E-2,9.27937E-1,5.7552284E-1,-3.7264657E-1,-9.2230576E-1,6.259598E-1,-9.027384E-2,-2.1500187E-1,1.5302418E-1,1.9251864E-1,4.649489E-1,-1.3738497E-1,8.3302397E-1,9.950886E-1,2.2621057E0,7.323711E-1,1.6091522E0,7.763193E-1,2.4027865E0,7.460272E-1,-1.1494369E-2,8.821916E-2,1.2063494E0,1.9992904E-1,8.907944E-1,1.2456337E0,-6.1504364E-1],"split_indices":[0,0,0,1,34,34,34,23,20,23,34,24,20,20,20,16,20,23,23,22,20,23,20,0,30,23,23,25,0,23,23,18,24,0,30,34,0,9,16,20,0,6,34,20,20,15,20,20,23,12,34,11,22,20,0,20,23,27,22,34,20,20,34,0,0,0,0,0,0,0,0,0,0,0,0,0,0,0,0,0,0,0,0,0,0,0,0,0,0,0,0,0,0,0,0,0,0,0,0,0,0,0,0,0,0,0,0,0,0,0,0,0,0,0,0,0,0,0,0,0,0,0,0,0,0,0,0],"split_type":[0,0,0,0,0,0,0,0,0,0,0,0,0,0,0,0,0,0,0,0,0,0,0,0,0,0,0,0,0,0,0,0,0,0,0,0,0,0,0,0,0,0,0,0,0,0,0,0,0,0,0,0,0,0,0,0,0,0,0,0,0,0,0,0,0,0,0,0,0,0,0,0,0,0,0,0,0,0,0,0,0,0,0,0,0,0,0,0,0,0,0,0,0,0,0,0,0,0,0,0,0,0,0,0,0,0,0,0,0,0,0,0,0,0,0,0,0,0,0,0,0,0,0,0,0,0,0],"sum_hessian":[1.1916E4,6.39E3,5.526E3,1.869E3,4.521E3,4.406E3,1.12E3,2.62E2,1.607E3,2.36E3,2.161E3,2.564E3,1.842E3,4.13E2,7.07E2,4.5E1,2.17E2,1.389E3,2.18E2,5.39E2,1.821E3,1.562E3,5.99E2,1.115E3,1.449E3,4.25E2,1.417E3,8.2E1,3.31E2,1.95E2,5.12E2,1.3E1,3.2E1,1.83E2,3.4E1,4.28E2,9.61E2,8.5E1,1.33E2,4.62E2,7.7E1,5.14E2,1.307E3,6.71E2,8.91E2,3.06E2,2.93E2,5.02E2,6.13E2,8.81E2,5.68E2,2.55E2,1.7E2,6.35E2,7.82E2,7.4E1,8E0,2.23E2,1.08E2,1.49E2,4.6E1,3.13E2,1.99E2,2E0,1.1E1,3E1,2E0,6.1E1,1.22E2,2.9E1,5E0,2.1E1,4.07E2,3.57E2,6.04E2,8E1,5E0,1.01E2,3.2E1,3.59E2,1.03E2,2.8E1,4.9E1,3.64E2,1.5E2,4.19E2,8.88E2,2.6E1,6.45E2,6.9E1,8.22E2,6.9E1,2.37E2,1.57E2,1.36E2,1.16E2,3.86E2,1.84E2,4.29E2,7.63E2,1.18E2,4.15E2,1.53E2,2.2E2,3.5E1,2.2E1,1.48E2,3.22E2,3.13E2,4.78E2,3.04E2,8E0,6.6E1,3E0,5E0,3.2E1,1.91E2,1E1,9.8E1,2.1E1,1.28E2,1.2E1,3.4E1,1.03E2,2.1E2,1.96E2,3E0],"tree_param":{"num_deleted":"0","num_feature":"35","num_nodes":"127","size_leaf_vector":"1"}},{"base_weights":[7.1405634E-2,-2.5187297E0,5.125436E0,-6.7770457E0,-1.1010325E0,3.2671902E0,1.0499133E1,-1.1529759E1,-5.5433354E0,-2.9542015E0,5.888904E-1,6.467289E-1,4.5620375E0,8.4924135E0,1.4844564E1,-1.2552444E1,-5.474203E0,-6.6411886E0,-3.4613805E0,-5.303534E0,-2.192569E0,-4.0133965E-1,2.327909E0,-2.6334324E0,1.9247627E0,3.7132823E0,7.777182E0,5.640767E0,9.5255E0,1.07871275E1,1.7707127E1,-1.7040024E1,-1.1544364E1,-7.54173E0,6.8285275E-1,-1.0466623E1,-6.227378E0,-4.252438E0,-5.009295E-1,-6.256165E0,-2.9853048E0,-4.3301754E0,-1.8219099E0,-1.1452092E0,1.0081118E0,1.5592452E0,3.9756026E0,-4.6474886E0,8.336292E-1,1.3337227E0,7.5113373E0,5.347238E-1,4.1432343E0,-1.2849499E0,8.213025E0,8.589518E0,3.7437472E0,7.516301E0,1.0534547E1,1.4011739E1,7.5005455E0,1.2520794E1,1.9482635E1,-1.2549657E0,-1.8924359E0,7.3633474E-1,-1.1704572E0,-9.218564E-1,-2.1622208E-1,-2.3781076E-1,1.0460261E0,3.933327E-1,-1.0807594E0,1.7325214E0,-6.271762E-1,-5.414909E-1,-1.8132727E-1,-5.423654E-1,1.3003103E-1,-4.8693696E-1,-8.070869E-1,-4.0075245E-1,2.7826658E-1,-7.522759E-1,-3.201723E-1,-2.7506515E-1,-8.53465E-2,-1.9705397E-1,3.613584E-2,1.5488121E-1,-2.3733611E-1,1.0611237E-2,2.6757595E-1,-2.2653805E-1,4.354961E-1,-1.7498177E-1,-7.0439875E-1,2.3410311E-1,-5.53914E-1,1.6013531E-1,-9.304309E-1,5.839599E-1,1.6623459E0,2.3241782E-1,-2.4302736E-1,2.8128943E-1,5.175113E-1,1.1000048E0,-4.0999523E-1,1.6292422E0,7.6969635E-1,1.2111775E0,6.182236E-1,-1.9149716E-1,4.849107E-1,5.68878E-1,1.0654132E0,8.541784E-1,1.2420955E0,-8.1341095E-2,1.495102E0,-4.038947E-2,9.310399E-1,1.5614618E0,7.357492E-1,1.6991304E0,2.4309165E0],"categories":[],"categories_nodes":[],"categories_segments":[],"categories_sizes":[],"default_left":[0,0,0,0,0,0,0,0,0,0,0,0,0,0,0,0,0,0,0,0,0,0,0,0,0,0,0,0,0,0,0,0,0,0,0,0,0,0,0,0,0,0,0,0,0,0,0,0,0,0,0,0,0,0,0,0,0,0,0,0,0,0,0,0,0,0,0,0,0,0,0,0,0,0,0,0,0,0,0,0,0,0,0,0,0,0,0,0,0,0,0,0,0,0,0,0,0,0,0,0,0,0,0,0,0,0,0,0,0,0,0,0,0,0,0,0,0,0,0,0,0,0,0,0,0,0,0],"id":2,"left_children":[1,3,5,7,9,11,13,15,17,19,21,23,25,27,29,31,33,35,37,39,41,43,45,47,49,51,53,55,57,59,61,63,65,67,69,71,73,75,77,79,81,83,85,87,89,91,93,95,97,99,101,103,105,107,109,111,113,115,117,119,121,123,125,-1,-1,-1,-1,-1,-1,-1,-1,-1,-1,-1,-1,-1,-1,-1,-1,-1,-1,-1,-1,-1,-1,-1,-1,-1,-1,-1,-1,-1,-1,-1,-1,-1,-1,-1,-1,-1,-1,-1,-1,-1,-1,-1,-1,-1,-1,-1,-1,-1,-1,-1,-1,-1,-1,-1,-1,-1,-1,-1,-1,-1,-1,-1,-1],"loss_changes":[1.5538552E5,4.7370938E4,4.0127992E4,1.1428484E4,1.8444395E4,1.014241E4,8.88175E3,2.427039E3,3.5381016E3,5.0145938E3,5.306504E3,4.155304E3,5.4315938E3,2.0349844E3,3.5837578E3,1.3594844E3,7.6894275E2,1.5479062E3,1.2624888E3,1.4985059E3,1.6742129E3,2.0603064E3,1.409773E3,1.9451086E3,2.3442288E3,2.1638887E3,1.6575625E3,1.0362661E3,9.7302344E2,1.3468242E3,1.4964453E3,2.7864648E2,9.4647266E2,3.859917E2,5.0372772E2,5.2368555E2,1.0724805E3,1.1980874E3,1.026758E3,1.1837773E3,1.2021704E3,1.1035527E3,1.6265288E3,1.5997454E3,1.2451345E3,1.2392626E3,8.5035254E2,1.2098647E3,1.00241864E3,1.8541007E3,9.3877563E2,1.01373663E3,1.9018008E3,7.3674567E2,1.5340449E3,5.5257275E2,7.4736633E2,9.543887E2,1.1832969E3,9.5906055E2,1.0051714E3,6.998076E2,1.2583594E3,0E0,0E0,0E0,0E0,0E0,0E0,0E0,0E0,0E0,0E0,0E0,0E0,0E0,0E0,0E0,0E0,0E0,0E0,0E0,0E0,0E0,0E0,0E0,0E0,0E0,0E0,0E0,0E0,0E0,0E0,0E0,0E0,0E0,0E0,0E0,0E0,0E0,0E0,0E0,0E0,0E0,0E0,0E0,0E0,0E0,0E0,0E0,0E0,0E0,0E0,0E0,0E0,0E0,0E0,0E0,0E0,0E0,0E0,0E0,0E0,0E0,0E0,0E0,0E0],"parents":[2147483647,0,0,1,1,2,2,3,3,4,4,5,5,6,6,7,7,8,8,9,9,10,10,11,11,12,12,13,13,14,14,15,15,16,16,17,17,18,18,19,19,20,20,21,21,22,22,23,23,24,24,25,25,26,26,27,27,28,28,29,29,30,30,31,31,32,32,33,33,34,34,35,35,36,36,37,37,38,38,39,39,40,40,41,41,42,42,43,43,44,44,45,45,46,46,47,47,48,48,49,49,50,50,51,51,52,52,53,53,54,54,55,55,56,56,57,57,58,58,59,59,60,60,61,61,62,62],"right_children":[2,4,6,8,10,12,14,16,18,20,22,24,26,28,30,32,34,36,38,40,42,44,46,48,50,52,54,56,58,60,62,64,66,68,70,72,74,76,78,80,82,84,86,88,90,92,94,96,98,100,102,104,106,108,110,112,114,116,118,120,122,124,126,-1,-1,-1,-1,-1,-1,-1,-1,-1,-1,-1,-1,-1,-1,-1,-1,-1,-1,-1,-1,-1,-1,-1,-1,-1,-1,-1,-1,-1,-1,-1,-1,-1,-1,-1,-1,-1,-1,-1,-1,-1,-1,-1,-1,-1,-1,-1,-1,-1,-1,-1,-1,-1,-1,-1,-1,-1,-1,-1,-1,-1,-1,-1,-1],"split_conditions":[8.561943E1,7.443812E1,4.2E1,-6.1E1,-5E0,-5E0,9.644206E1,-1.9563E1,-5E0,-4.3E1,2.3E1,1.0229E2,9.462532E1,1E0,1.0886E2,6.51E1,1.0354E2,6.63163E1,1.0904E2,8.047172E1,6.66E1,8.20938E1,4.5E1,1.1061E2,9.537893E1,1.0016E2,-2E0,8.27138E-1,4E0,-1.62E2,6.9E1,9.725E1,4.33E1,6.88E1,1E0,9.838E1,2.11E1,1.1229E2,1.0046E2,3.58E1,-1.22E1,3E0,1E0,1.1044E2,5.51E1,6.73E1,7.628745E1,5.23E1,1E0,1.5272E1,1.1396E2,-2E0,8.853433E1,3E0,4.6248955E-1,3.17E1,1.0531499E0,8E1,1.0056E2,-2.5E1,1.1388E2,3.09E1,1.1632E2,-1.2549657E0,-1.8924359E0,7.3633474E-1,-1.1704572E0,-9.218564E-1,-2.1622208E-1,-2.3781076E-1,1.0460261E0,3.933327E-1,-1.0807594E0,1.7325214E0,-6.271762E-1,-5.414909E-1,-1.8132727E-1,-5.423654E-1,1.3003103E-1,-4.8693696E-1,-8.070869E-1,-4.0075245E-1,2.7826658E-1,-7.522759E-1,-3.201723E-1,-2.7506515E-1,-8.53465E-2,-1.9705397E-1,3.613584E-2,1.5488121E-1,-2.3733611E-1,1.0611237E-2,2.6757595E-1,-2.2653805E-1,4.354961E-1,-1.7498177E-1,-7.0439875E-1,2.3410311E-1,-5.53914E-1,1.6013531E-1,-9.304309E-1,5.839599E-1,1.6623459E0,2.3241782E-1,-2.4302736E-1,2.8128943E-1,5.175113E-1,1.1000048E0,-4.0999523E-1,1.6292422E0,7.6969635E-1,1.2111775E0,6.182236E-1,-1.9149716E-1,4.849107E-1,5.68878E-1,1.0654132E0,8.541784E-1,1.2420955E0,-8.1341095E-2,1.495102E0,-4.038947E-2,9.310399E-1,1.5614618E0,7.357492E-1,1.6991304E0,2.4309165E0],"split_indices":[0,0,32,32,32,32,0,1,32,32,32,20,0,24,23,2,23,0,20,0,15,0,32,23,0,20,32,30,25,28,32,20,16,2,24,21,10,23,23,11,33,25,24,23,16,15,0,16,31,1,23,34,0,26,3,18,30,32,21,34,20,33,23,0,0,0,0,0,0,0,0,0,0,0,0,0,0,0,0,0,0,0,0,0,0,0,0,0,0,0,0,0,0,0,0,0,0,0,0,0,0,0,0,0,0,0,0,0,0,0,0,0,0,0,0,0,0,0,0,0,0,0,0,0,0,0,0],"split_type":[0,0,0,0,0,0,0,0,0,0,0,0,0,0,0,0,0,0,0,0,0,0,0,0,0,0,0,0,0,0,0,0,0,0,0,0,0,0,0,0,0,0,0,0,0,0,0,0,0,0,0,0,0,0,0,0,0,0,0,0,0,0,0,0,0,0,0,0,0,0,0,0,0,0,0,0,0,0,0,0,0,0,0,0,0,0,0,0,0,0,0,0,0,0,0,0,0,0,0,0,0,0,0,0,0,0,0,0,0,0,0,0,0,0,0,0,0,0,0,0,0,0,0,0,0,0,0],"sum_hessian":[1.1868E4,7.847E3,4.021E3,1.959E3,5.888E3,2.989E3,1.032E3,4.02E2,1.557E3,2.808E3,3.08E3,9.89E2,2E3,7.08E2,3.24E2,3.43E2,5.9E1,1.018E3,5.39E2,6.86E2,2.122E3,1.963E3,1.117E3,2.77E2,7.12E2,1.584E3,4.16E2,1.9E2,5.18E2,1.36E2,1.88E2,6E1,2.83E2,4.4E1,1.5E1,9.7E1,9.21E2,4.25E2,1.14E2,4.85E2,2.01E2,3.12E2,1.81E3,1.285E3,6.78E2,7.63E2,3.54E2,1.75E2,1.02E2,6.45E2,6.7E1,1.89E2,1.395E3,1.9E1,3.97E2,7.3E1,1.17E2,1.76E2,3.42E2,6.7E1,6.9E1,5E1,1.38E2,2E1,4E1,2E0,2.81E2,3.3E1,1.1E1,1.2E1,3E0,2E0,9.5E1,1E0,9.2E2,2.87E2,1.38E2,3E1,8.4E1,2.77E2,2.08E2,1.71E2,3E1,8E1,2.32E2,9.23E2,8.87E2,8.3E2,4.55E2,5.85E2,9.3E1,3.32E2,4.31E2,2E1,3.34E2,8E1,9.5E1,8.3E1,1.9E1,6.3E2,1.5E1,5.8E1,9E0,1.18E2,7.1E1,6.11E2,7.84E2,3E0,1.6E1,2.2E1,3.75E2,2.8E1,4.5E1,1.9E1,9.8E1,1.13E2,6.3E1,1.69E2,1.73E2,4E0,6.3E1,1.3E1,5.6E1,3E1,2E1,9.4E1,4.4E1],"tree_param":{"num_deleted":"0","num_feature":"35","num_nodes":"127","size_leaf_vector":"1"}},{"base_weights":[-4.6613842E-2,-3.303411E0,3.444844E0,-6.6254478E0,-1.8924137E0,1.9100983E0,8.308312E0,-1.0664409E1,-5.525172E0,-4.340281E0,-9.499588E-1,1.4712043E-1,3.3089855E0,6.705908E0,1.285509E1,-1.1484598E1,-5.08077E0,-6.457059E0,-3.7013907E0,-3.4786994E0,-5.5894203E0,-1.5072765E0,9.264777E-1,-1.4721831E0,1.2218884E0,2.0561826E0,5.9069047E0,4.105095E0,7.936489E0,1.074275E1,1.745874E1,-1.240265E1,-6.978344E0,-1.391225E1,-1.7802188E0,-1.0017965E1,-5.991184E0,-5.028377E0,-1.9458482E0,-4.116214E0,5.231936E-1,-6.519966E0,-3.2465138E0,-2.164102E0,2.1355264E-2,1.1781818E0,-4.3187366E0,-3.0840263E0,8.386999E-1,-2.4416365E-1,2.6218243E0,1.0578129E0,3.074103E0,5.3350782E0,1.2671986E1,2.4470766E0,6.078403E0,6.513599E0,1.0290149E1,2.147076E0,1.1326301E1,1.2054589E0,1.9056042E1,-1.6077517E0,-1.1272084E0,2.9803938E-1,-7.9378724E-1,-1.5143965E0,1.0500298E-1,-6.769193E-1,2.3825876E-1,-1.2228165E0,-6.7251235E-1,1.6458954E0,-6.037176E-1,2.7874517E-1,-5.2693886E-1,-2.7550533E-1,3.082137E-1,-3.901699E-1,-1.4588315E0,3.6222595E-1,-3.1262138E-1,-7.877297E-1,-4.1727915E-1,-1.0851254E0,-2.389382E-1,1.3536455E-1,-2.3939894E-1,4.1295633E-2,-4.1001186E-1,-1.4722918E-1,1.808714E-1,4.5319992E-1,-8.363926E-1,-4.5536628E-1,-7.284451E-2,4.452765E-1,-1.074147E-2,-7.1418695E-2,4.6489626E-1,7.7073716E-2,3.8537234E-1,4.9844614E-1,5.0232995E-2,7.812045E-1,2.753803E-1,3.6162558E-1,6.7216074E-1,1.4195365E0,3.4832147E-1,-1.0419764E-1,3.541796E-1,-7.790438E-1,6.4144367E-1,6.8479747E-1,5.1602077E-2,-8.271297E-2,1.0833609E0,-2.6558515E-1,6.7114395E-1,1.19286E0,5.862118E-1,8.477794E-1,-6.2677854E-1,1.7034594E0,2.3717868E0],"categories":[],"categories_nodes":[],"categories_segments":[],"categories_sizes":[],"default_left":[0,0,0,0,0,0,0,0,0,0,0,0,0,0,0,0,0,0,0,0,0,0,0,0,0,0,0,0,0,0,0,0,0,0,0,0,0,0,0,0,0,0,0,0,0,0,0,0,0,0,0,0,0,0,0,0,0,0,0,0,0,0,0,0,0,0,0,0,0,0,0,0,0,0,0,0,0,0,0,0,0,0,0,0,0,0,0,0,0,0,0,0,0,0,0,0,0,0,0,0,0,0,0,0,0,0,0,0,0,0,0,0,0,0,0,0,0,0,0,0,0,0,0,0,0,0,0],"id":3,"left_children":[1,3,5,7,9,11,13,15,17,19,21,23,25,27,29,31,33,35,37,39,41,43,45,47,49,51,53,55,57,59,61,63,65,67,69,71,73,75,77,79,81,83,85,87,89,91,93,95,97,99,101,103,105,107,109,111,113,115,117,119,121,123,125,-1,-1,-1,-1,-1,-1,-1,-1,-1,-1,-1,-1,-1,-1,-1,-1,-1,-1,-1,-1,-1,-1,-1,-1,-1,-1,-1,-1,-1,-1,-1,-1,-1,-1,-1,-1,-1,-1,-1,-1,-1,-1,-1,-1,-1,-1,-1,-1,-1,-1,-1,-1,-1,-1,-1,-1,-1,-1,-1,-1,-1,-1,-1,-1],"loss_changes":[1.3538277E5,2.8861758E4,4.2873344E4,8.1001953E3,9.973674E3,1.0774373E4,9.953602E3,1.7368711E3,2.431961E3,1.2741895E3,3.2683862E3,3.3676855E3,7.916258E3,3.2351406E3,3.2938008E3,1.3241602E3,1.490968E3,1.5242617E3,1.1340396E3,1.8237559E3,1.0449424E3,2.4187886E3,9.503814E2,2.8781177E3,2.387557E3,1.6684966E3,2.996207E3,1.064813E3,2.2504805E3,1.2196523E3,2.8587422E3,9.903906E2,5.969995E2,2.7391162E2,8.260853E2,7.110488E2,9.7391406E2,5.402417E2,8.751183E2,1.326875E3,1.1309896E3,1.0790059E3,8.931478E2,1.3658755E3,1.1718241E3,1.14577E3,1.2194011E3,1.5718237E3,1.0878219E3,1.311954E3,1.3538396E3,1.8122432E3,1.2137832E3,1.7201934E3,8.0443164E2,6.95026E2,7.4903125E2,8.668301E2,1.5737871E3,3.9050378E2,6.936035E2,6.5096423E2,5.477656E2,0E0,0E0,0E0,0E0,0E0,0E0,0E0,0E0,0E0,0E0,0E0,0E0,0E0,0E0,0E0,0E0,0E0,0E0,0E0,0E0,0E0,0E0,0E0,0E0,0E0,0E0,0E0,0E0,0E0,0E0,0E0,0E0,0E0,0E0,0E0,0E0,0E0,0E0,0E0,0E0,0E0,0E0,0E0,0E0,0E0,0E0,0E0,0E0,0E0,0E0,0E0,0E0,0E0,0E0,0E0,0E0,0E0,0E0,0E0,0E0,0E0,0E0,0E0,0E0],"parents":[2147483647,0,0,1,1,2,2,3,3,4,4,5,5,6,6,7,7,8,8,9,9,10,10,11,11,12,12,13,13,14,14,15,15,16,16,17,17,18,18,19,19,20,20,21,21,22,22,23,23,24,24,25,25,26,26,27,27,28,28,29,29,30,30,31,31,32,32,33,33,34,34,35,35,36,36,37,37,38,38,39,39,40,40,41,41,42,42,43,43,44,44,45,45,46,46,47,47,48,48,49,49,50,50,51,51,52,52,53,53,54,54,55,55,56,56,57,57,58,58,59,59,60,60,61,61,62,62],"right_children":[2,4,6,8,10,12,14,16,18,20,22,24,26,28,30,32,34,36,38,40,42,44,46,48,50,52,54,56,58,60,62,64,66,68,70,72,74,76,78,80,82,84,86,88,90,92,94,96,98,100,102,104,106,108,110,112,114,116,118,120,122,124,126,-1,-1,-1,-1,-1,-1,-1,-1,-1,-1,-1,-1,-1,-1,-1,-1,-1,-1,-1,-1,-1,-1,-1,-1,-1,-1,-1,-1,-1,-1,-1,-1,-1,-1,-1,-1,-1,-1,-1,-1,-1,-1,-1,-1,-1,-1,-1,-1,-1,-1,-1,-1,-1,-1,-1,-1,-1,-1,-1,-1,-1,-1,-1,-1],"split_conditions":[8.237059E1,7.400106E1,3.9E1,-6.1E1,-2.7E1,0E0,8.4E1,1.0516E2,-5E0,3.62E1,2.3E1,1.0283E2,9.049343E1,1E0,9.925179E1,-4.358524E-1,3.03E1,6.63163E1,7.186521E1,8.077255E1,-1.94E1,8.018685E1,3.73E1,2.7205E1,1.0846E2,1E0,1.0043627E2,1.0095E2,9.265041E1,8.477951E1,8.859E1,9.258E1,3.08E1,3.41E1,1.12334E2,1E0,2.11E1,9.1519E1,1.09553E2,1.2298E2,1.7709E1,7.2E1,3.67E1,2.5E1,7.28E1,1.00653E2,3.11E1,7.43E1,-1.2962E1,1.203E2,-2.1E1,1.45E1,3.03E1,1E0,2.67E1,6.89E1,6.44E1,1.13131E2,8.859E1,3.7E1,1.0938E2,3.56E1,3.68E1,-1.6077517E0,-1.1272084E0,2.9803938E-1,-7.9378724E-1,-1.5143965E0,1.0500298E-1,-6.769193E-1,2.3825876E-1,-1.2228165E0,-6.7251235E-1,1.6458954E0,-6.037176E-1,2.7874517E-1,-5.2693886E-1,-2.7550533E-1,3.082137E-1,-3.901699E-1,-1.4588315E0,3.6222595E-1,-3.1262138E-1,-7.877297E-1,-4.1727915E-1,-1.0851254E0,-2.389382E-1,1.3536455E-1,-2.3939894E-1,4.1295633E-2,-4.1001186E-1,-1.4722918E-1,1.808714E-1,4.5319992E-1,-8.363926E-1,-4.5536628E-1,-7.284451E-2,4.452765E-1,-1.074147E-2,-7.1418695E-2,4.6489626E-1,7.7073716E-2,3.8537234E-1,4.9844614E-1,5.0232995E-2,7.812045E-1,2.753803E-1,3.6162558E-1,6.7216074E-1,1.4195365E0,3.4832147E-1,-1.0419764E-1,3.541796E-1,-7.790438E-1,6.4144367E-1,6.8479747E-1,5.1602077E-2,-8.271297E-2,1.0833609E0,-2.6558515E-1,6.7114395E-1,1.19286E0,5.862118E-1,8.477794E-1,-6.2677854E-1,1.7034594E0,2.3717868E0],"split_indices":[0,0,32,32,32,32,32,23,32,11,32,23,0,24,0,4,12,0,0,0,33,0,19,27,22,24,0,21,0,0,22,23,11,18,6,24,10,5,5,21,27,2,11,10,2,6,12,2,1,21,32,9,12,24,33,2,15,6,22,11,22,12,18,0,0,0,0,0,0,0,0,0,0,0,0,0,0,0,0,0,0,0,0,0,0,0,0,0,0,0,0,0,0,0,0,0,0,0,0,0,0,0,0,0,0,0,0,0,0,0,0,0,0,0,0,0,0,0,0,0,0,0,0,0,0,0,0],"split_type":[0,0,0,0,0,0,0,0,0,0,0,0,0,0,0,0,0,0,0,0,0,0,0,0,0,0,0,0,0,0,0,0,0,0,0,0,0,0,0,0,0,0,0,0,0,0,0,0,0,0,0,0,0,0,0,0,0,0,0,0,0,0,0,0,0,0,0,0,0,0,0,0,0,0,0,0,0,0,0,0,0,0,0,0,0,0,0,0,0,0,0,0,0,0,0,0,0,0,0,0,0,0,0,0,0,0,0,0,0,0,0,0,0,0,0,0,0,0,0,0,0,0,0,0,0,0,0],"sum_hessian":[1.1904E4,6.159E3,5.745E3,1.835E3,4.324E3,4.368E3,1.377E3,3.91E2,1.444E3,1.201E3,3.123E3,1.933E3,2.435E3,1.02E3,3.57E2,3.4E2,5.1E1,9.54E2,4.9E2,7.13E2,4.88E2,2.408E3,7.15E2,7.71E2,1.162E3,1.644E3,7.91E2,3.29E2,6.91E2,2.47E2,1.1E2,2.81E2,5.9E1,1.3E1,3.8E1,1.08E2,8.46E2,2.78E2,2.12E2,6.15E2,9.8E1,3.48E2,1.4E2,1.684E3,7.24E2,6.83E2,3.2E1,4.54E2,3.17E2,5.68E2,5.94E2,8.31E2,8.13E2,7.31E2,6E1,1.8E2,1.49E2,4.33E2,2.58E2,1.6E1,2.31E2,1E1,1E2,6.3E1,2.18E2,5E0,5.4E1,1.2E1,1E0,1.7E1,2.1E1,6.3E1,4.5E1,1E0,8.45E2,8E0,2.7E2,1.83E2,2.9E1,6.04E2,1.1E1,5.3E1,4.5E1,2.19E2,1.29E2,1.3E1,1.27E2,1.03E2,1.581E3,6.62E2,6.2E1,1.31E2,5.52E2,1E1,2.2E1,2.79E2,1.75E2,6.5E1,2.52E2,5.19E2,4.9E1,2.38E2,3.56E2,1.02E2,7.29E2,5E1,7.63E2,3.28E2,4.03E2,5.1E1,9E0,4.3E1,1.37E2,3E0,1.46E2,4.1E2,2.3E1,1.2E1,2.46E2,8E0,8E0,2.07E2,2.4E1,5E0,5E0,7.3E1,2.7E1],"tree_param":{"num_deleted":"0","num_feature":"35","num_nodes":"127","size_leaf_vector":"1"}},{"base_weights":[-4.731335E-2,-2.1624846E0,3.510031E0,-4.7011237E0,-8.4713215E-1,2.0961354E0,7.112308E0,-7.368647E0,-3.535195E0,-2.7374032E0,4.8522827E-1,1.8438777E-1,3.8233557E0,5.147796E0,1.0023313E1,-8.99664E0,-3.9800546E0,-5.5283465E0,-2.2814097E0,-4.87096E0,-2.181428E0,-1.3241463E0,1.4479773E0,-1.6140859E0,1.7845509E0,2.1798086E0,5.3051224E0,4.09232E-1,6.0918036E0,8.309893E0,1.5003699E1,-1.14419985E1,-6.98704E0,-1.45329275E1,-3.2030256E0,-3.6592288E0,-6.8853183E0,-4.8263607E0,-1.6115253E0,-8.820331E0,-3.8512974E0,-3.310069E0,-1.0612509E0,-2.6532269E0,4.479496E-1,-3.125268E-1,2.5991726E0,-3.141356E0,-2.6032317E-1,2.3436537E0,-1.8143716E0,7.820397E-1,3.910991E0,7.0899873E0,4.111926E0,-6.430439E-1,7.6180515E0,4.6849947E0,7.6862025E0,5.5972524E0,9.957782E0,1.1430217E0,1.568156E1,-4.7451663E-1,-1.2562336E0,-7.913403E-1,-3.4826633E-1,-1.6237E0,-4.935442E-1,-4.5721084E-1,-3.1658106E-2,-4.5726997E-1,3.1031383E-2,-8.599976E-1,-5.4758894E-1,-7.3046094E-1,-3.1017298E-1,-4.073915E-2,-2.9196334E-1,3.0634034E-1,-9.4450015E-1,-5.842236E-1,-2.0736085E-1,-4.970462E-1,-2.0235632E-1,-1.9822203E-1,1.3528085E-1,-3.3925137E-1,9.943454E-2,-8.3141856E-2,2.4999774E-1,-1.778236E-1,1.5884313E-1,5.2778774E-1,2.0274954E-1,-7.7042407E-1,-2.42249E-1,-5.78071E-2,6.964851E-1,1.4517753E-1,4.6256313E-1,-8.0284005E-1,-2.2215314E-2,6.1849028E-2,1.4887139E0,-2.90639E-2,4.619155E-1,4.7366825E-1,9.854932E-1,-5.838889E-1,4.3349394E-1,-3.4781513E-1,1.0919932E-1,1.1623155E0,-9.943136E-2,4.2622668E-1,1.184594E0,2.6063627E-1,8.4885514E-1,4.1509435E-1,1.0336324E0,1.4321021E0,8.386961E-1,-2.7363524E-1,7.2276384E-1,1.030322E0,1.7750615E0],"categories":[],"categories_nodes":[],"categories_segments":[],"categories_sizes":[],"default_left":[0,0,0,0,0,0,0,0,0,0,0,0,0,0,0,0,0,0,0,0,0,0,0,0,0,0,0,0,0,0,0,0,0,0,0,0,0,0,0,0,0,0,0,0,0,0,0,0,0,0,0,0,0,0,0,0,0,0,0,0,0,0,0,0,0,0,0,0,0,0,0,0,0,0,0,0,0,0,0,0,0,0,0,0,0,0,0,0,0,0,0,0,0,0,0,0,0,0,0,0,0,0,0,0,0,0,0,0,0,0,0,0,0,0,0,0,0,0,0,0,0,0,0,0,0,0,0],"id":4,"left_children":[1,3,5,7,9,11,13,15,17,19,21,23,25,27,29,31,33,35,37,39,41,43,45,47,49,51,53,55,57,59,61,63,65,67,69,71,73,75,77,79,81,83,85,87,89,91,93,95,97,99,101,103,105,107,109,111,113,115,117,119,121,123,125,-1,-1,-1,-1,-1,-1,-1,-1,-1,-1,-1,-1,-1,-1,-1,-1,-1,-1,-1,-1,-1,-1,-1,-1,-1,-1,-1,-1,-1,-1,-1,-1,-1,-1,-1,-1,-1,-1,-1,-1,-1,-1,-1,-1,-1,-1,-1,-1,-1,-1,-1,-1,-1,-1,-1,-1,-1,-1,-1,-1,-1,-1,-1,-1],"loss_changes":[8.923184E4,2.4829684E4,2.2507418E4,7.867492E3,1.2342087E4,1.0489778E4,7.0739023E3,4.2175E3,4.40559E3,2.392627E3,5.0100913E3,4.345558E3,4.053041E3,3.334545E3,4.1506016E3,2.4754297E3,2.0198232E3,1.7045898E3,1.8453643E3,1.6493262E3,2.0307104E3,2.3540913E3,3.8048982E3,1.4692183E3,1.6119739E3,1.9158372E3,1.8385898E3,9.531071E2,1.3591484E3,1.6205645E3,1.1753164E3,1.6885215E3,9.0738086E2,1.9789478E2,9.3117285E2,1.0493506E3,9.0508203E2,9.432822E2,1.3565789E3,6.599253E2,1.1700015E3,1.7009619E3,1.8013108E3,1.5431333E3,1.1283317E3,2.0730095E3,1.7273862E3,1.0768909E3,8.718323E2,1.4016748E3,1.0667782E3,1.0058198E3,1.0546494E3,2.2306855E3,1.1970293E3,5.4489E2,5.634517E2,9.5754395E2,1.1598574E3,9.4409424E2,1.4699883E3,1.850089E2,1.1636074E3,0E0,0E0,0E0,0E0,0E0,0E0,0E0,0E0,0E0,0E0,0E0,0E0,0E0,0E0,0E0,0E0,0E0,0E0,0E0,0E0,0E0,0E0,0E0,0E0,0E0,0E0,0E0,0E0,0E0,0E0,0E0,0E0,0E0,0E0,0E0,0E0,0E0,0E0,0E0,0E0,0E0,0E0,0E0,0E0,0E0,0E0,0E0,0E0,0E0,0E0,0E0,0E0,0E0,0E0,0E0,0E0,0E0,0E0,0E0,0E0,0E0,0E0,0E0,0E0],"parents":[2147483647,0,0,1,1,2,2,3,3,4,4,5,5,6,6,7,7,8,8,9,9,10,10,11,11,12,12,13,13,14,14,15,15,16,16,17,17,18,18,19,19,20,20,21,21,22,22,23,23,24,24,25,25,26,26,27,27,28,28,29,29,30,30,31,31,32,32,33,33,34,34,35,35,36,36,37,37,38,38,39,39,40,40,41,41,42,42,43,43,44,44,45,45,46,46,47,47,48,48,49,49,50,50,51,51,52,52,53,53,54,54,55,55,56,56,57,57,58,58,59,59,60,60,61,61,62,62],"right_children":[2,4,6,8,10,12,14,16,18,20,22,24,26,28,30,32,34,36,38,40,42,44,46,48,50,52,54,56,58,60,62,64,66,68,70,72,74,76,78,80,82,84,86,88,90,92,94,96,98,100,102,104,106,108,110,112,114,116,118,120,122,124,126,-1,-1,-1,-1,-1,-1,-1,-1,-1,-1,-1,-1,-1,-1,-1,-1,-1,-1,-1,-1,-1,-1,-1,-1,-1,-1,-1,-1,-1,-1,-1,-1,-1,-1,-1,-1,-1,-1,-1,-1,-1,-1,-1,-1,-1,-1,-1,-1,-1,-1,-1,-1,-1,-1,-1,-1,-1,-1,-1,-1,-1,-1,-1,-1],"split_conditions":[1.2E1,-2.7E1,4.7E1,-6.1E1,6.85E1,6.95E1,4.689844E-1,7.23E1,6.88E1,9.863E1,1.0314E2,1.0638E2,1E0,6.65E1,7.31E1,6.2073633E-2,8.852E1,1.64E1,9.804E1,9.9789E1,6.61E1,1.1061E2,1.029E2,6.67E1,1.89E1,1.1107E2,1.62E1,5.42E1,7.13E1,1.1269E2,4.94E1,1.64E1,1.0354E2,1.74E1,1.0077E2,5.32E1,1.0175E2,4E0,1.78E1,9.07E1,1.092E2,5.04E1,1.1029E2,1.12466E2,5.2783877E-1,1.1446E2,-5.5E1,-8.4E0,5.79E1,1.1175E2,1.2799E1,7.99E1,1.0043E2,5.2E1,9.217E1,6.55E1,1.0913E2,1.1951E2,1.0423E2,9.7165275E-1,9.693E1,1.2384E2,1.1087E2,-4.7451663E-1,-1.2562336E0,-7.913403E-1,-3.4826633E-1,-1.6237E0,-4.935442E-1,-4.5721084E-1,-3.1658106E-2,-4.5726997E-1,3.1031383E-2,-8.599976E-1,-5.4758894E-1,-7.3046094E-1,-3.1017298E-1,-4.073915E-2,-2.9196334E-1,3.0634034E-1,-9.4450015E-1,-5.842236E-1,-2.0736085E-1,-4.970462E-1,-2.0235632E-1,-1.9822203E-1,1.3528085E-1,-3.3925137E-1,9.943454E-2,-8.3141856E-2,2.4999774E-1,-1.778236E-1,1.5884313E-1,5.2778774E-1,2.0274954E-1,-7.7042407E-1,-2.42249E-1,-5.78071E-2,6.964851E-1,1.4517753E-1,4.6256313E-1,-8.0284005E-1,-2.2215314E-2,6.1849028E-2,1.4887139E0,-2.90639E-2,4.619155E-1,4.7366825E-1,9.854932E-1,-5.838889E-1,4.3349394E-1,-3.4781513E-1,1.0919932E-1,1.1623155E0,-9.943136E-2,4.2622668E-1,1.184594E0,2.6063627E-1,8.4885514E-1,4.1509435E-1,1.0336324E0,1.4321021E0,8.386961E-1,-2.7363524E-1,7.2276384E-1,1.030322E0,1.7750615E0],"split_indices":[32,32,32,32,2,2,4,2,2,20,20,20,24,7,2,3,20,17,20,13,2,23,23,15,17,20,9,8,2,20,16,9,23,17,23,8,20,26,17,22,23,8,23,13,3,20,28,33,16,23,27,2,14,16,20,7,23,23,20,3,22,20,20,0,0,0,0,0,0,0,0,0,0,0,0,0,0,0,0,0,0,0,0,0,0,0,0,0,0,0,0,0,0,0,0,0,0,0,0,0,0,0,0,0,0,0,0,0,0,0,0,0,0,0,0,0,0,0,0,0,0,0,0,0,0,0,0],"split_type":[0,0,0,0,0,0,0,0,0,0,0,0,0,0,0,0,0,0,0,0,0,0,0,0,0,0,0,0,0,0,0,0,0,0,0,0,0,0,0,0,0,0,0,0,0,0,0,0,0,0,0,0,0,0,0,0,0,0,0,0,0,0,0,0,0,0,0,0,0,0,0,0,0,0,0,0,0,0,0,0,0,0,0,0,0,0,0,0,0,0,0,0,0,0,0,0,0,0,0,0,0,0,0,0,0,0,0,0,0,0,0,0,0,0,0,0,0,0,0,0,0,0,0,0,0,0,0],"sum_hessian":[1.1857E4,7.436E3,4.421E3,2.537E3,4.899E3,3.176E3,1.245E3,7.7E2,1.767E3,2.025E3,2.874E3,1.508E3,1.668E3,7.45E2,5E2,5.19E2,2.51E2,6.81E2,1.086E3,4.17E2,1.608E3,9.98E2,1.876E3,7.1E2,7.98E2,7.92E2,8.76E2,1.24E2,6.21E2,3.74E2,1.26E2,2.32E2,2.87E2,1.6E1,2.35E2,2.88E2,3.93E2,2.25E2,8.61E2,8.4E1,3.33E2,8E2,8.08E2,5.7E2,4.28E2,7.42E2,1.134E3,3.33E2,3.77E2,6.91E2,1.07E2,4.39E2,3.53E2,3.49E2,5.27E2,1.09E2,1.5E1,3.32E2,2.89E2,1.43E2,2.31E2,6E0,1.2E2,3.4E1,1.98E2,2.26E2,6.1E1,1.3E1,3E0,1.59E2,7.6E1,2.34E2,5.4E1,1.75E2,2.18E2,9.1E1,1.34E2,4.49E2,4.12E2,4E0,8E1,1.56E2,1.77E2,3.48E2,4.52E2,5.85E2,2.23E2,4.74E2,9.6E1,2.64E2,1.64E2,4.19E2,3.23E2,1.98E2,9.36E2,4.4E1,2.89E2,3.62E2,1.5E1,4.98E2,1.93E2,2.1E1,8.6E1,4.35E2,4E0,5.1E1,3.02E2,1.9E2,1.59E2,1.1E1,5.16E2,4.1E1,6.8E1,1E1,5E0,3.15E2,1.7E1,4E1,2.49E2,1.11E2,3.2E1,5.9E1,1.72E2,4E0,2E0,3.5E1,8.5E1],"tree_param":{"num_deleted":"0","num_feature":"35","num_nodes":"127","size_leaf_vector":"1"}},{"base_weights":[1.48293115E-2,-1.94598E0,3.3398879E0,-6.402585E0,-1.3275372E0,1.9929938E0,6.7087407E0,-7.1450357E0,-1.1167009E0,-2.884127E0,-1.8102421E-1,-3.6243236E-1,3.2506886E0,4.7207465E0,9.598571E0,-1.1361671E1,-6.3656125E0,1.1649652E1,-1.809191E0,-5.0133567E0,-2.1857934E0,-2.4129179E0,5.115093E-1,-4.8294568E-1,1.06445265E1,1.3687242E0,4.3244424E0,3.130028E0,7.2727027E0,1.1754178E1,6.116531E0,-1.2654543E1,-6.690038E0,-8.883165E0,-5.5221906E0,1.5345461E0,-3.414696E-1,-9.785819E0,-9.0462434E-1,-3.9193463E0,-6.7150407E0,-5.490881E0,-1.748903E0,-3.8111892E0,-2.2126417E-1,-2.410781E0,1.0568422E0,-1.5149307E0,5.312189E-1,1.5660144E1,3.018884E0,7.142332E0,8.578011E-1,3.8554885E0,8.46315E0,-5.8011264E-3,4.148519E0,4.268637E0,8.9730215E0,1.0208784E1,1.4821105E1,-7.868797E-1,6.370739E0,-1.4571986E0,-8.364281E-1,-1.3437723E0,-4.7243658E-1,-9.3461573E-1,8.1722015E-1,-4.2244205E-1,-7.158793E-1,-1.4720725E0,8.280841E-1,-2.0136766E-2,-8.878998E-1,-9.00272E-1,-3.2599816E-1,-9.395189E-1,-5.047837E-1,-9.253153E-1,-4.4347402E-1,-3.8416186E-1,-1.3439517E-1,-4.6971345E-1,-1.8367508E-2,1.4907584E-1,-3.0859286E-1,-5.148122E-1,-9.187856E-2,5.6994516E-2,4.5148268E-1,-5.908684E-1,-9.964969E-2,-4.1427407E-2,3.264081E-1,1.7962077E0,9.242745E-2,7.23094E-1,-3.6034852E-1,1.0705589E0,1.5830182E-1,-4.6510737E-2,3.1985638E-1,2.5918967E-1,5.7268494E-1,9.6240073E-1,1.4231053E-1,3.7302646E-1,-1.368298E-1,3.4383035E-1,9.291813E-1,-3.372574E-1,5.279989E-1,-3.7939844E-1,9.5023566E-1,9.105658E-1,1.4641347E0,7.3635584E-1,1.6193688E0,4.2746153E-2,7.043683E-1],"categories":[],"categories_nodes":[],"categories_segments":[],"categories_sizes":[],"default_left":[0,0,0,0,0,0,0,0,0,0,0,0,0,0,0,0,0,0,0,0,0,0,0,0,0,0,0,0,0,0,0,0,0,0,0,0,0,0,0,0,0,0,0,0,0,0,0,0,0,0,0,0,0,0,0,0,0,0,0,0,0,0,0,0,0,0,0,0,0,0,0,0,0,0,0,0,0,0,0,0,0,0,0,0,0,0,0,0,0,0,0,0,0,0,0,0,0,0,0,0,0,0,0,0,0,0,0,0,0,0,0,0,0,0,0,0,0,0,0,0,0],"id":5,"left_children":[1,3,5,7,9,11,13,15,17,19,21,23,25,27,29,31,33,35,37,39,41,43,45,47,49,51,53,55,57,59,61,63,65,67,69,-1,-1,71,73,75,77,79,81,83,85,87,89,91,93,95,97,99,101,103,105,107,109,111,113,115,117,-1,119,-1,-1,-1,-1,-1,-1,-1,-1,-1,-1,-1,-1,-1,-1,-1,-1,-1,-1,-1,-1,-1,-1,-1,-1,-1,-1,-1,-1,-1,-1,-1,-1,-1,-1,-1,-1,-1,-1,-1,-1,-1,-1,-1,-1,-1,-1,-1,-1,-1,-1,-1,-1,-1,-1,-1,-1,-1,-1],"loss_changes":[7.793122E4,2.071503E4,2.0105848E4,3.586871E3,1.1785308E4,9.389046E3,7.2278125E3,2.5667734E3,1.0289016E3,4.153885E3,5.880929E3,1.4695804E3,4.1689844E3,3.0299395E3,3.7936484E3,6.642783E2,1.3948281E3,3.8644977E2,7.776251E2,1.2600879E3,3.0385977E3,2.7602954E3,4.630424E3,1.1447415E3,4.1169153E2,2.2121753E3,2.5196074E3,1.485148E3,1.4327637E3,1.3511562E3,7.576113E2,6.6784375E2,3.2116382E2,1.4108877E3,1.0572119E3,0E0,0E0,1.10263E3,5.5340717E2,1.3884624E3,1.1545625E3,9.364429E2,1.5761753E3,1.7667158E3,1.7309385E3,1.8617029E3,4.119082E3,1.228718E3,1.427666E3,2.208451E2,1.9341933E2,1.191418E3,2.1443452E3,2.7825195E3,1.0732461E3,5.904976E2,1.2502017E3,8.3697034E2,1.2727705E3,9.1306836E2,9.4531055E2,0E0,7.8088965E2,0E0,0E0,0E0,0E0,0E0,0E0,0E0,0E0,0E0,0E0,0E0,0E0,0E0,0E0,0E0,0E0,0E0,0E0,0E0,0E0,0E0,0E0,0E0,0E0,0E0,0E0,0E0,0E0,0E0,0E0,0E0,0E0,0E0,0E0,0E0,0E0,0E0,0E0,0E0,0E0,0E0,0E0,0E0,0E0,0E0,0E0,0E0,0E0,0E0,0E0,0E0,0E0,0E0,0E0,0E0,0E0,0E0,0E0],"parents":[2147483647,0,0,1,1,2,2,3,3,4,4,5,5,6,6,7,7,8,8,9,9,10,10,11,11,12,12,13,13,14,14,15,15,16,16,17,17,18,18,19,19,20,20,21,21,22,22,23,23,24,24,25,25,26,26,27,27,28,28,29,29,30,30,31,31,32,32,33,33,34,34,37,37,38,38,39,39,40,40,41,41,42,42,43,43,44,44,45,45,46,46,47,47,48,48,49,49,50,50,51,51,52,52,53,53,54,54,55,55,56,56,57,57,58,58,59,59,60,60,62,62],"right_children":[2,4,6,8,10,12,14,16,18,20,22,24,26,28,30,32,34,36,38,40,42,44,46,48,50,52,54,56,58,60,62,64,66,68,70,-1,-1,72,74,76,78,80,82,84,86,88,90,92,94,96,98,100,102,104,106,108,110,112,114,116,118,-1,120,-1,-1,-1,-1,-1,-1,-1,-1,-1,-1,-1,-1,-1,-1,-1,-1,-1,-1,-1,-1,-1,-1,-1,-1,-1,-1,-1,-1,-1,-1,-1,-1,-1,-1,-1,-1,-1,-1,-1,-1,-1,-1,-1,-1,-1,-1,-1,-1,-1,-1,-1,-1,-1,-1,-1,-1,-1,-1],"split_conditions":[1.2E1,-5.6E1,4.7E1,7.48E1,6.88E1,6.8E1,7.13E1,-1.11E2,6.92E1,-2.6E1,1.0016E2,1.31859E2,1.0696E2,5.37E1,-1.32E2,7.23E1,6.71E1,1.2388E2,9.067E1,1.05E2,3.01E1,1.107E2,9.9105E1,1.0638E2,3.4E1,1.49E1,7.58E1,1.08747E2,6.2E1,1.1418E2,2.67E1,6E0,9.585E1,1.15195E2,3.58E1,1.5345461E0,-3.414696E-1,3.15E2,3.49E1,9.824E1,9.958E1,6.35E1,9.778E1,1.12466E2,5.3E1,1.1097E2,1.1575E2,-5.5E0,1.1167E2,5E0,4E0,3.22E1,1.133E2,1.0796E2,3.72E1,9.409E1,1.0532E2,4.89E1,2.61E1,7E0,1.0757E2,-7.868797E-1,9.734E1,-1.4571986E0,-8.364281E-1,-1.3437723E0,-4.7243658E-1,-9.3461573E-1,8.1722015E-1,-4.2244205E-1,-7.158793E-1,-1.4720725E0,8.280841E-1,-2.0136766E-2,-8.878998E-1,-9.00272E-1,-3.2599816E-1,-9.395189E-1,-5.047837E-1,-9.253153E-1,-4.4347402E-1,-3.8416186E-1,-1.3439517E-1,-4.6971345E-1,-1.8367508E-2,1.4907584E-1,-3.0859286E-1,-5.148122E-1,-9.187856E-2,5.6994516E-2,4.5148268E-1,-5.908684E-1,-9.964969E-2,-4.1427407E-2,3.264081E-1,1.7962077E0,9.242745E-2,7.23094E-1,-3.6034852E-1,1.0705589E0,1.5830182E-1,-4.6510737E-2,3.1985638E-1,2.5918967E-1,5.7268494E-1,9.6240073E-1,1.4231053E-1,3.7302646E-1,-1.368298E-1,3.4383035E-1,9.291813E-1,-3.372574E-1,5.279989E-1,-3.7939844E-1,9.5023566E-1,9.105658E-1,1.4641347E0,7.3635584E-1,1.6193688E0,4.2746153E-2,7.043683E-1],"split_indices":[32,32,32,2,2,2,2,32,15,32,20,5,20,8,28,2,2,22,20,28,19,23,14,20,32,9,2,5,32,23,11,26,20,5,11,0,0,28,19,22,20,2,20,13,28,20,20,33,23,26,25,18,23,23,12,22,21,16,10,25,20,0,23,0,0,0,0,0,0,0,0,0,0,0,0,0,0,0,0,0,0,0,0,0,0,0,0,0,0,0,0,0,0,0,0,0,0,0,0,0,0,0,0,0,0,0,0,0,0,0,0,0,0,0,0,0,0,0,0,0,0],"split_type":[0,0,0,0,0,0,0,0,0,0,0,0,0,0,0,0,0,0,0,0,0,0,0,0,0,0,0,0,0,0,0,0,0,0,0,0,0,0,0,0,0,0,0,0,0,0,0,0,0,0,0,0,0,0,0,0,0,0,0,0,0,0,0,0,0,0,0,0,0,0,0,0,0,0,0,0,0,0,0,0,0,0,0,0,0,0,0,0,0,0,0,0,0,0,0,0,0,0,0,0,0,0,0,0,0,0,0,0,0,0,0,0,0,0,0,0,0,0,0,0,0],"sum_hessian":[1.1951E4,7.518E3,4.433E3,9.15E2,6.603E3,3.168E3,1.265E3,8.02E2,1.13E2,2.8E3,3.803E3,1.103E3,2.065E3,7.51E2,5.14E2,1.23E2,6.79E2,5E0,1.08E2,6.9E2,2.11E3,9E2,2.903E3,1.092E3,1.1E1,7.51E2,1.314E3,4.64E2,2.87E2,3.16E2,1.98E2,9.5E1,2.8E1,1.68E2,5.11E2,4E0,1E0,1E1,9.8E1,4.22E2,2.68E2,2.45E2,1.865E3,5.49E2,3.51E2,4.56E2,2.447E3,5.41E2,5.51E2,6E0,5E0,6E1,6.91E2,1.182E3,1.32E2,1.14E2,3.5E2,1.05E2,1.82E2,2.13E2,1.03E2,3E0,1.95E2,6.4E1,3.1E1,5E0,2.3E1,1.64E2,4E0,2.87E2,2.24E2,8E0,2E0,9.1E1,7E0,4.7E1,3.75E2,1.01E2,1.67E2,5.2E1,1.93E2,3.01E2,1.564E3,4.41E2,1.08E2,2.2E2,1.31E2,1.6E2,2.96E2,2.146E3,3.01E2,5.6E1,4.85E2,4.1E2,1.41E2,5E0,1E0,3E0,2E0,3.6E1,2.4E1,4.42E2,2.49E2,7.07E2,4.75E2,1.13E2,1.9E1,3E1,8.4E1,3.09E2,4.1E1,1.2E1,9.3E1,7E0,1.75E2,1.73E2,4E1,1.7E1,8.6E1,2E1,1.75E2],"tree_param":{"num_deleted":"0","num_feature":"35","num_nodes":"121","size_leaf_vector":"1"}},{"base_weights":[1.1740138E-2,-1.3386506E0,3.875342E0,-3.071471E0,1.2293566E-1,3.0797153E0,9.830707E0,-5.9065843E0,-2.251614E0,-9.9168944E-1,1.9278495E0,1.3462687E0,4.463274E0,8.589747E0,1.6436113E1,-1.1596973E1,-5.4126997E0,-3.749072E0,-1.2518378E0,-2.2126353E0,-2.4938346E-1,-1.1527752E0,2.6813989E0,-7.686909E-1,2.465191E0,2.3834105E0,5.9017587E0,5.3375998E0,9.984639E0,1.7197987E1,2.2322655E0,-1.2077994E1,3.3321712E0,-8.745843E0,-4.4762206E0,-7.579097E0,-3.3902876E0,-3.2826343E0,-6.577227E-1,-1.4145236E0,-4.1688213E0,-2.4086833E0,2.6761556E-1,1.9502434E0,-2.5734594E0,2.2253635E0,7.4955406E0,-6.8045635E0,-4.1528898E-1,7.10417E-1,3.764171E0,1.3386525E0,4.6206784E0,3.8617485E0,7.355392E0,5.876846E0,-8.2646465E-1,4.9512215E0,1.1084364E1,8.709909E0,1.8736233E1,-4.2686846E-2,3.260933E-1,-1.243836E0,6.213455E-1,-3.814621E-2,5.379719E-1,-1.201404E0,-5.5932146E-1,-5.14179E-1,-8.916743E-2,-1.1844548E0,-5.120166E-1,-3.8814574E-1,-6.723828E-2,-3.994086E-1,9.2427246E-2,-2.2193813E-1,4.0344726E-2,-1.5897991E-1,1.1174568E0,-4.5931888E-1,4.234278E-1,-8.406815E-1,-2.0433961E-1,2.031519E-1,-3.6155593E-2,6.735266E-1,5.8422305E-2,-3.58425E-1,1.5634796E-1,8.801063E-2,3.553296E-1,5.2666825E-1,1.1129863E0,-3.8576397E-1,-1.6641963E0,-1.6081119E-1,2.4675189E-1,-4.2829137E-2,2.9613927E-1,5.6695946E-2,4.328867E-1,3.0150336E-1,2.1799479E-2,3.9310294E-1,1.5861953E0,3.1243095E-1,8.3397526E-1,5.348715E-1,9.2806923E-1,4.921437E-1,1.5174035E0,-6.099059E-1,7.0806545E-1,1.2104698E0,5.7832736E-1,-6.6882247E-1,1.1163949E0,6.340642E-1,1.9817275E0],"categories":[],"categories_nodes":[],"categories_segments":[],"categories_sizes":[],"default_left":[0,0,0,0,0,0,0,0,0,0,0,0,0,0,0,0,0,0,0,0,0,0,0,0,0,0,0,0,0,0,0,0,0,0,0,0,0,0,0,0,0,0,0,0,0,0,0,0,0,0,0,0,0,0,0,0,0,0,0,0,0,0,0,0,0,0,0,0,0,0,0,0,0,0,0,0,0,0,0,0,0,0,0,0,0,0,0,0,0,0,0,0,0,0,0,0,0,0,0,0,0,0,0,0,0,0,0,0,0,0,0,0,0,0,0,0,0,0,0,0,0],"id":6,"left_children":[1,3,5,7,9,11,13,15,17,19,21,23,25,27,29,31,33,35,37,39,41,43,45,47,49,51,53,55,57,59,61,63,65,67,69,71,73,75,77,79,81,83,85,87,89,91,93,95,97,99,101,103,105,107,109,111,-1,113,115,117,119,-1,-1,-1,-1,-1,-1,-1,-1,-1,-1,-1,-1,-1,-1,-1,-1,-1,-1,-1,-1,-1,-1,-1,-1,-1,-1,-1,-1,-1,-1,-1,-1,-1,-1,-1,-1,-1,-1,-1,-1,-1,-1,-1,-1,-1,-1,-1,-1,-1,-1,-1,-1,-1,-1,-1,-1,-1,-1,-1,-1],"loss_changes":[6.178409E4,2.2224523E4,1.4501926E4,9.319117E3,9.580103E3,6.48626E3,2.8179492E3,2.466584E3,4.660341E3,2.6676409E3,4.223402E3,2.848765E3,4.48867E3,1.3348438E3,5.6761426E2,5.5011426E2,2.5516309E3,1.687873E3,2.2540461E3,1.7317803E3,2.0458087E3,1.5832294E3,3.1908271E3,8.866723E2,1.7912266E3,1.4359924E3,2.6078594E3,7.3805566E2,1.1241543E3,5.288174E2,1.233345E1,5.321074E2,2.4863682E1,1.7977188E3,1.5461611E3,1.0511299E3,1.5219053E3,1.2697354E3,2.4004995E3,1.7653607E3,1.1677007E3,7.5845044E2,1.6421252E3,7.346827E2,1.0342726E3,2.383518E3,9.6203174E2,6.0257275E2,1.3622462E3,8.6250507E2,8.1361084E2,7.921329E2,1.4571421E3,1.2023833E3,1.9516289E3,7.336406E2,0E0,9.8441876E2,8.711387E2,4.5254333E2,4.6395215E2,0E0,0E0,0E0,0E0,0E0,0E0,0E0,0E0,0E0,0E0,0E0,0E0,0E0,0E0,0E0,0E0,0E0,0E0,0E0,0E0,0E0,0E0,0E0,0E0,0E0,0E0,0E0,0E0,0E0,0E0,0E0,0E0,0E0,0E0,0E0,0E0,0E0,0E0,0E0,0E0,0E0,0E0,0E0,0E0,0E0,0E0,0E0,0E0,0E0,0E0,0E0,0E0,0E0,0E0,0E0,0E0,0E0,0E0,0E0,0E0],"parents":[2147483647,0,0,1,1,2,2,3,3,4,4,5,5,6,6,7,7,8,8,9,9,10,10,11,11,12,12,13,13,14,14,15,15,16,16,17,17,18,18,19,19,20,20,21,21,22,22,23,23,24,24,25,25,26,26,27,27,28,28,29,29,30,30,31,31,32,32,33,33,34,34,35,35,36,36,37,37,38,38,39,39,40,40,41,41,42,42,43,43,44,44,45,45,46,46,47,47,48,48,49,49,50,50,51,51,52,52,53,53,54,54,55,55,57,57,58,58,59,59,60,60],"right_children":[2,4,6,8,10,12,14,16,18,20,22,24,26,28,30,32,34,36,38,40,42,44,46,48,50,52,54,56,58,60,62,64,66,68,70,72,74,76,78,80,82,84,86,88,90,92,94,96,98,100,102,104,106,108,110,112,-1,114,116,118,120,-1,-1,-1,-1,-1,-1,-1,-1,-1,-1,-1,-1,-1,-1,-1,-1,-1,-1,-1,-1,-1,-1,-1,-1,-1,-1,-1,-1,-1,-1,-1,-1,-1,-1,-1,-1,-1,-1,-1,-1,-1,-1,-1,-1,-1,-1,-1,-1,-1,-1,-1,-1,-1,-1,-1,-1,-1,-1,-1,-1],"split_conditions":[2.3E1,-1.4E1,8.4E1,-5.6E1,7.08E1,6.93E1,7.48E1,9.018E1,1.0685E2,6.65E1,1.0084E2,1.0638E2,1E0,3.16E1,1.1362E2,3.149883E0,6.71E1,4.67E1,6.72E1,1.78E1,4.87E1,1.61E1,1.1566E2,9.405E1,1E0,7.13E1,1.11625E2,7.41E1,1.0469E2,9.1E1,9.057058E-1,7.64E1,6.62E1,4.91E1,7.49E1,1.09831E2,1.0654E2,5.37E1,1.07106E2,3.91E1,1.0715836E0,9.475E1,1.56E1,3.19E1,1.08251E2,1E0,5.26E1,3.43E1,1.07989E2,6.77E1,2.78E1,1.62E1,1.2079E2,1.1822E2,1.0627E2,7.31E1,-8.2646465E-1,2.7895E1,3.84E1,9.9105E1,1.0869E2,-4.2686846E-2,3.260933E-1,-1.243836E0,6.213455E-1,-3.814621E-2,5.379719E-1,-1.201404E0,-5.5932146E-1,-5.14179E-1,-8.916743E-2,-1.1844548E0,-5.120166E-1,-3.8814574E-1,-6.723828E-2,-3.994086E-1,9.2427246E-2,-2.2193813E-1,4.0344726E-2,-1.5897991E-1,1.1174568E0,-4.5931888E-1,4.234278E-1,-8.406815E-1,-2.0433961E-1,2.031519E-1,-3.6155593E-2,6.735266E-1,5.8422305E-2,-3.58425E-1,1.5634796E-1,8.801063E-2,3.553296E-1,5.2666825E-1,1.1129863E0,-3.8576397E-1,-1.6641963E0,-1.6081119E-1,2.4675189E-1,-4.2829137E-2,2.9613927E-1,5.6695946E-2,4.328867E-1,3.0150336E-1,2.1799479E-2,3.9310294E-1,1.5861953E0,3.1243095E-1,8.3397526E-1,5.348715E-1,9.2806923E-1,4.921437E-1,1.5174035E0,-6.099059E-1,7.0806545E-1,1.2104698E0,5.7832736E-1,-6.6882247E-1,1.1163949E0,6.340642E-1,1.9817275E0],"split_indices":[32,32,32,32,2,2,2,20,22,2,20,20,24,10,22,30,2,16,2,17,16,17,23,21,24,7,5,2,23,32,3,2,2,16,2,6,20,8,6,10,30,22,17,12,13,24,8,10,5,2,10,9,22,23,23,2,0,27,10,6,20,0,0,0,0,0,0,0,0,0,0,0,0,0,0,0,0,0,0,0,0,0,0,0,0,0,0,0,0,0,0,0,0,0,0,0,0,0,0,0,0,0,0,0,0,0,0,0,0,0,0,0,0,0,0,0,0,0,0,0,0],"split_type":[0,0,0,0,0,0,0,0,0,0,0,0,0,0,0,0,0,0,0,0,0,0,0,0,0,0,0,0,0,0,0,0,0,0,0,0,0,0,0,0,0,0,0,0,0,0,0,0,0,0,0,0,0,0,0,0,0,0,0,0,0,0,0,0,0,0,0,0,0,0,0,0,0,0,0,0,0,0,0,0,0,0,0,0,0,0,0,0,0,0,0,0,0,0,0,0,0,0,0,0,0,0,0,0,0,0,0,0,0,0,0,0,0,0,0,0,0,0,0,0,0],"sum_hessian":[1.184E4,8.774E3,3.066E3,4.014E3,4.76E3,2.706E3,3.6E2,8.99E2,3.115E3,2.943E3,1.817E3,1.202E3,1.504E3,3.05E2,5.5E1,7E1,8.29E2,1.246E3,1.869E3,1.112E3,1.831E3,3.57E2,1.46E3,4.16E2,7.86E2,6.16E2,8.88E2,9.3E1,2.12E2,5.2E1,3E0,6.8E1,2E0,1.8E2,6.49E2,1.05E2,1.141E3,4.22E2,1.447E3,7.91E2,3.21E2,3.53E2,1.478E3,1.12E2,2.45E2,1.335E3,1.25E2,2.2E1,3.94E2,3.35E2,4.51E2,4.21E2,1.95E2,3.71E2,5.17E2,9E1,3E0,3.9E1,1.73E2,9E0,4.3E1,1E0,2E0,6.7E1,1E0,1E0,1E0,8.7E1,9.3E1,5.47E2,1.02E2,3.7E1,6.8E1,9.66E2,1.75E2,3.61E2,6.1E1,5.85E2,8.62E2,7.81E2,1E1,3.06E2,1.5E1,1.9E1,3.34E2,3.88E2,1.09E3,2.4E1,8.8E1,1.97E2,4.8E1,6.64E2,6.71E2,7.9E1,4.6E1,1.8E1,4E0,2.79E2,1.15E2,2.23E2,1.12E2,6.8E1,3.83E2,1.68E2,2.53E2,1.85E2,1E1,3.2E2,5.1E1,2.55E2,2.62E2,8.3E1,7E0,6E0,3.3E1,1.44E2,2.9E1,1E0,8E0,4E0,3.9E1],"tree_param":{"num_deleted":"0","num_feature":"35","num_nodes":"121","size_leaf_vector":"1"}},{"base_weights":[3.3682406E-2,-2.200593E0,2.3946238E0,-4.6653776E0,-1.4126399E0,1.4336847E0,5.778888E0,-6.7526174E0,-3.6085854E0,-2.8231182E0,-4.8738953E-1,8.248619E-1,3.8721077E0,4.514227E0,8.559342E0,-9.478838E0,-5.8331404E0,-4.8781257E0,-2.1818004E0,-2.1600337E0,-4.65712E0,-6.823618E-1,2.187609E0,-9.1644275E-1,1.3671435E0,8.522743E0,3.3276238E0,-6.3457704E0,4.633182E0,-8.418775E-1,9.056358E0,-1.2081095E1,-8.142731E0,-6.6532135E-2,-6.140722E0,-5.6220025E-1,-5.1776733E0,-1.5847597E0,-5.4352217E0,-2.84665E0,-4.4323528E-1,-6.1360416E0,-3.6262155E0,-2.7353792E0,-4.4414145E-1,7.2587957E0,1.1596991E0,-3.1084282E0,-1.805844E-2,7.693031E0,1.2689255E0,9.986069E0,-1.3630564E0,-3.6522138E0,3.7720916E0,-1.18754015E1,1.5589416E0,5.7042685E0,3.1965427E0,-5.9917717E0,8.275672E0,6.3490157E0,1.075609E1,-1.2907522E0,-1.4163685E-1,-8.923287E-1,4.8552133E-2,5.780885E-1,-6.492038E-1,-1.5794839E-1,-6.5102476E-1,-7.1310526E-1,1.9859044E-1,-5.702138E-1,-2.8887936E-1,-3.9186165E-1,-5.679814E-2,-1.0604938E0,-2.7921924E-1,-6.0570407E-1,-2.4776332E-1,3.0246083E-2,-3.026649E-1,-4.0729043E-1,-8.397282E-1,-3.152922E-1,-9.5387393E-1,6.7517865E-1,-3.199217E-1,-4.8083615E-1,-3.137857E-2,1.9805854E-2,1.2079402E0,-9.911496E-1,1.5071112E-1,-3.7377223E-1,3.58324E-1,-2.506213E-1,8.9282416E-2,4.718628E-1,1.1396755E0,5.297376E-2,2.0126323E-1,-6.729899E-1,1.0488092E0,4.6288377E-1,-1.1875855E0,-5.6560224E-1,5.8820504E-1,3.187676E-1,7.7932703E-1,-3.0753517E-1,-1.3020343E0,-1.7596702E-1,7.416695E-1,4.234116E-1,7.4968046E-1,-3.128885E-2,3.735759E-1,3.3446518E-1,-1.0060806E0,1.4150925E-1,1.2109002E0,-7.0063785E-2,6.807212E-1,9.849542E-1,1.7868327E0],"categories":[],"categories_nodes":[],"categories_segments":[],"categories_sizes":[],"default_left":[0,0,0,0,0,0,0,0,0,0,0,0,0,0,0,0,0,0,0,0,0,0,0,0,0,0,0,0,0,0,0,0,0,0,0,0,0,0,0,0,0,0,0,0,0,0,0,0,0,0,0,0,0,0,0,0,0,0,0,0,0,0,0,0,0,0,0,0,0,0,0,0,0,0,0,0,0,0,0,0,0,0,0,0,0,0,0,0,0,0,0,0,0,0,0,0,0,0,0,0,0,0,0,0,0,0,0,0,0,0,0,0,0,0,0,0,0,0,0,0,0,0,0,0,0,0,0],"id":7,"left_children":[1,3,5,7,9,11,13,15,17,19,21,23,25,27,29,31,33,35,37,39,41,43,45,47,49,51,53,55,57,59,61,63,65,67,69,71,73,75,77,79,81,83,85,87,89,91,93,95,97,99,101,103,105,107,109,111,113,115,117,119,121,123,125,-1,-1,-1,-1,-1,-1,-1,-1,-1,-1,-1,-1,-1,-1,-1,-1,-1,-1,-1,-1,-1,-1,-1,-1,-1,-1,-1,-1,-1,-1,-1,-1,-1,-1,-1,-1,-1,-1,-1,-1,-1,-1,-1,-1,-1,-1,-1,-1,-1,-1,-1,-1,-1,-1,-1,-1,-1,-1,-1,-1,-1,-1,-1,-1],"loss_changes":[6.295704E4,1.190258E4,1.8863492E4,3.2512148E3,6.0644756E3,6.708536E3,4.4728164E3,1.193043E3,1.7789805E3,2.2287764E3,1.4660063E3,3.418593E3,2.258212E3,1.1713965E3,1.8766484E3,3.327627E2,6.6473047E2,6.7194434E2,8.984988E2,1.5948086E3,7.217676E2,1.2791715E3,9.872121E2,1.6934951E3,1.7050684E3,1.3734292E3,2.5266504E3,4.5561453E2,1.3281855E3,1.0356287E3,1.6803789E3,3.342627E2,5.767925E2,7.8898206E2,5.8975195E2,5.999959E2,5.693408E2,9.3748816E2,9.541765E2,1.1305854E3,7.4837476E2,8.941831E2,7.81449E2,1.2185375E3,1.3337024E3,1.0867926E3,6.3034033E2,1.0661492E3,1.3870181E3,4.089104E2,1.4936743E3,7.587114E2,8.7386176E2,9.694064E2,1.7658877E3,2.041101E1,1.1024898E2,1.2859102E3,7.126892E2,5.655131E2,1.932555E2,4.860581E2,1.3198438E3,0E0,0E0,0E0,0E0,0E0,0E0,0E0,0E0,0E0,0E0,0E0,0E0,0E0,0E0,0E0,0E0,0E0,0E0,0E0,0E0,0E0,0E0,0E0,0E0,0E0,0E0,0E0,0E0,0E0,0E0,0E0,0E0,0E0,0E0,0E0,0E0,0E0,0E0,0E0,0E0,0E0,0E0,0E0,0E0,0E0,0E0,0E0,0E0,0E0,0E0,0E0,0E0,0E0,0E0,0E0,0E0,0E0,0E0,0E0,0E0,0E0,0E0,0E0,0E0],"parents":[2147483647,0,0,1,1,2,2,3,3,4,4,5,5,6,6,7,7,8,8,9,9,10,10,11,11,12,12,13,13,14,14,15,15,16,16,17,17,18,18,19,19,20,20,21,21,22,22,23,23,24,24,25,25,26,26,27,27,28,28,29,29,30,30,31,31,32,32,33,33,34,34,35,35,36,36,37,37,38,38,39,39,40,40,41,41,42,42,43,43,44,44,45,45,46,46,47,47,48,48,49,49,50,50,51,51,52,52,53,53,54,54,55,55,56,56,57,57,58,58,59,59,60,60,61,61,62,62],"right_children":[2,4,6,8,10,12,14,16,18,20,22,24,26,28,30,32,34,36,38,40,42,44,46,48,50,52,54,56,58,60,62,64,66,68,70,72,74,76,78,80,82,84,86,88,90,92,94,96,98,100,102,104,106,108,110,112,114,116,118,120,122,124,126,-1,-1,-1,-1,-1,-1,-1,-1,-1,-1,-1,-1,-1,-1,-1,-1,-1,-1,-1,-1,-1,-1,-1,-1,-1,-1,-1,-1,-1,-1,-1,-1,-1,-1,-1,-1,-1,-1,-1,-1,-1,-1,-1,-1,-1,-1,-1,-1,-1,-1,-1,-1,-1,-1,-1,-1,-1,-1,-1,-1,-1,-1,-1,-1],"split_conditions":[8.237059E1,7.2985695E1,4.2E1,1.2498815E-1,-1.5E1,9.22817E1,9.537893E1,6.576669E1,1E0,7.02E1,4.6E1,-1.8E1,1.35E1,9.437E1,8.703E1,9.6051E1,4.45E1,-3.6306167E-1,6.83E1,7.949735E1,3.26E1,1.00729E2,3E0,1.0101E2,1.28E1,3.806111E-1,9.695E1,9.45E1,1.06874E2,1.05568E2,6.9E1,1E0,1.0549E2,1.1668E2,6.67722E1,2.66E1,1.98E1,9.815E1,3.15E1,-7.3E1,3.41E1,1.1E1,1.26659E2,1.44E1,9.8455E1,1.04615E2,8.832E1,8E0,1.0254E2,1.1591E2,1E0,9.181E1,4E0,1.09914E2,5.57E1,1.02589E2,7.25E1,5.29E1,1.07989E2,9.582E1,9.821875E1,9.409E1,1.4E1,-1.2907522E0,-1.4163685E-1,-8.923287E-1,4.8552133E-2,5.780885E-1,-6.492038E-1,-1.5794839E-1,-6.5102476E-1,-7.1310526E-1,1.9859044E-1,-5.702138E-1,-2.8887936E-1,-3.9186165E-1,-5.679814E-2,-1.0604938E0,-2.7921924E-1,-6.0570407E-1,-2.4776332E-1,3.0246083E-2,-3.026649E-1,-4.0729043E-1,-8.397282E-1,-3.152922E-1,-9.5387393E-1,6.7517865E-1,-3.199217E-1,-4.8083615E-1,-3.137857E-2,1.9805854E-2,1.2079402E0,-9.911496E-1,1.5071112E-1,-3.7377223E-1,3.58324E-1,-2.506213E-1,8.9282416E-2,4.718628E-1,1.1396755E0,5.297376E-2,2.0126323E-1,-6.729899E-1,1.0488092E0,4.6288377E-1,-1.1875855E0,-5.6560224E-1,5.8820504E-1,3.187676E-1,7.7932703E-1,-3.0753517E-1,-1.3020343E0,-1.7596702E-1,7.416695E-1,4.234116E-1,7.4968046E-1,-3.128885E-2,3.735759E-1,3.3446518E-1,-1.0060806E0,1.4150925E-1,1.2109002E0,-7.0063785E-2,6.807212E-1,9.849542E-1,1.7868327E0],"split_indices":[0,0,32,3,32,0,0,0,24,7,32,32,17,20,22,14,16,4,7,0,12,6,26,20,9,4,20,22,13,6,32,24,20,22,0,10,9,20,12,32,10,34,13,9,14,6,21,26,21,20,24,21,26,5,16,5,2,8,13,21,0,22,26,0,0,0,0,0,0,0,0,0,0,0,0,0,0,0,0,0,0,0,0,0,0,0,0,0,0,0,0,0,0,0,0,0,0,0,0,0,0,0,0,0,0,0,0,0,0,0,0,0,0,0,0,0,0,0,0,0,0,0,0,0,0,0,0],"split_type":[0,0,0,0,0,0,0,0,0,0,0,0,0,0,0,0,0,0,0,0,0,0,0,0,0,0,0,0,0,0,0,0,0,0,0,0,0,0,0,0,0,0,0,0,0,0,0,0,0,0,0,0,0,0,0,0,0,0,0,0,0,0,0,0,0,0,0,0,0,0,0,0,0,0,0,0,0,0,0,0,0,0,0,0,0,0,0,0,0,0,0,0,0,0,0,0,0,0,0,0,0,0,0,0,0,0,0,0,0,0,0,0,0,0,0,0,0,0,0,0,0,0,0,0,0,0,0],"sum_hessian":[1.1933E4,6.131E3,5.802E3,1.484E3,4.647E3,4.52E3,1.282E3,4.97E2,9.87E2,1.84E3,2.807E3,3.618E3,9.02E2,8.83E2,3.99E2,1.23E2,3.74E2,5.21E2,4.66E2,1.353E3,4.87E2,2.617E3,1.9E2,8.59E2,2.759E3,9.3E1,8.09E2,9E0,8.74E2,2E1,3.79E2,3.9E1,8.4E1,1.9E1,3.55E2,3.4E1,4.87E2,3.95E2,7.1E1,9.66E2,3.87E2,1.98E2,2.89E2,2.71E2,2.346E3,3.1E1,1.59E2,2.49E2,6.1E2,4.1E1,2.718E3,8.1E1,1.2E1,4.8E1,7.61E2,5E0,4E0,4.99E2,3.75E2,1.3E1,7E0,1.48E2,2.31E2,3.6E1,3E0,7.7E1,7E0,1E1,9E0,2.7E1,3.28E2,9E0,2.5E1,3.95E2,9.2E1,1.19E2,2.76E2,2.3E1,4.8E1,9.8E1,8.68E2,3.01E2,8.6E1,1.05E2,9.3E1,2.69E2,2E1,1.2E1,2.59E2,6.7E1,2.279E3,1.3E1,1.8E1,4E0,1.55E2,2.28E2,2.1E1,1.63E2,4.47E2,2.4E1,1.7E1,1.364E3,1.354E3,2E0,7.9E1,8E0,4E0,4E1,8E0,6.66E2,9.5E1,1E0,4E0,3E0,1E0,2.76E2,2.23E2,5E1,3.25E2,4E0,9E0,3E0,4E0,9E0,1.39E2,2.07E2,2.4E1],"tree_param":{"num_deleted":"0","num_feature":"35","num_nodes":"127","size_leaf_vector":"1"}},{"base_weights":[-1.2631645E-2,-1.4185147E0,3.2730136E0,-4.133442E0,-6.3253915E-1,2.0808847E0,6.122863E0,-5.297815E0,-2.4899416E0,-1.6394559E0,4.5409963E-1,1.716573E0,5.7356477E0,5.0365686E0,8.540666E0,-7.145672E0,-4.200169E0,-2.5971797E0,1.1758764E0,-2.7096827E0,-9.656217E-1,-1.4828931E0,7.507173E-1,1.607236E0,9.642804E0,3.3171363E0,8.853535E0,1.2352339E0,5.6529975E0,7.4774137E0,1.3408629E1,-8.120118E0,-4.9080567E0,-7.721247E0,-3.8091042E0,-4.437166E0,-1.6194409E0,-4.766548E0,-2.2144701E0,-1.8552442E0,1.7125629E-1,-7.51621E-1,-6.04978E0,-1.870014E-1,1.5533165E0,-6.0608077E0,1.7129692E0,1.221363E1,3.0227065E0,1.0756592E1,8.789571E-1,7.060792E0,1.5581829E1,1.18826475E1,4.541294E-1,3.4466243E0,6.547634E0,-2.8407195E0,7.8045626E0,1.6166454E1,8.286342E0,-1.1600597E0,-7.147254E-1,-4.083388E-1,-1.2402128E0,-8.806247E-1,1.5170307E-1,-2.9863143E-1,-6.1713886E-1,-5.62349E-1,-1.8611841E-1,-1.9259714E-1,2.4444972E-1,-6.207523E-1,-7.97345E-2,-1.5712659E-1,-3.882286E-1,-3.1549618E-1,-7.4179694E-2,-2.447634E-1,5.6985475E-2,-1.7901675E-1,1.8724777E-1,-8.676103E-1,-3.214844E-1,1.1642716E-2,-2.234454E-1,1.3008593E-1,4.6006513E-1,1.6602538E0,-8.196298E-1,2.3547831E-1,6.437876E-2,1.409312E0,7.1628827E-1,4.3753225E-1,-1.5918376E-1,1.3201575E0,1.3857052E-2,-3.380744E-1,4.0769956E-1,4.899558E-1,1.2535884E0,1.8918196E0,8.2125044E-1,1.3445604E0,1.2524568E-1,-3.990418E-1,2.4082808E-1,2.8978413E-1,1.3734447E0,5.261592E-1,9.0928555E-1,-5.923888E-1,5.300247E-1,6.2692344E-1,1.009886E0,1.2872224E0,2.4618902E0,1.1023709E0,-8.505872E-2],"categories":[],"categories_nodes":[],"categories_segments":[],"categories_sizes":[],"default_left":[0,0,0,0,0,0,0,0,0,0,0,0,0,0,0,0,0,0,0,0,0,0,0,0,0,0,0,0,0,0,0,0,0,0,0,0,0,0,0,0,0,0,0,0,0,0,0,0,0,0,0,0,0,0,0,0,0,0,0,0,0,0,0,0,0,0,0,0,0,0,0,0,0,0,0,0,0,0,0,0,0,0,0,0,0,0,0,0,0,0,0,0,0,0,0,0,0,0,0,0,0,0,0,0,0,0,0,0,0,0,0,0,0,0,0,0,0,0,0,0,0],"id":8,"left_children":[1,3,5,7,9,11,13,15,17,19,21,23,25,27,29,31,33,35,-1,37,39,41,43,45,47,49,51,53,55,57,59,61,63,65,67,69,71,73,75,77,79,81,83,85,87,89,91,93,95,97,99,101,103,105,107,109,111,113,115,117,119,-1,-1,-1,-1,-1,-1,-1,-1,-1,-1,-1,-1,-1,-1,-1,-1,-1,-1,-1,-1,-1,-1,-1,-1,-1,-1,-1,-1,-1,-1,-1,-1,-1,-1,-1,-1,-1,-1,-1,-1,-1,-1,-1,-1,-1,-1,-1,-1,-1,-1,-1,-1,-1,-1,-1,-1,-1,-1,-1,-1],"loss_changes":[5.5061277E4,1.7810902E4,1.2122727E4,3.5729863E3,7.085397E3,3.3454658E3,2.7226328E3,2.1929941E3,1.2208555E3,2.4211865E3,1.7908247E3,1.9716855E3,1.6898994E3,1.701248E3,1.5818965E3,8.47584E2,9.2069824E2,1.3852607E3,0E0,1.3115684E3,2.087831E3,1.3780624E3,2.0338488E3,1.845146E3,4.906748E2,2.3485796E3,1.0841279E3,8.512283E2,1.2150684E3,9.3019727E2,6.7124316E2,8.7194727E2,7.280532E2,6.94959E2,1.1924736E3,8.0852783E2,6.362883E2,1.4306499E3,1.1181382E3,1.6734792E3,9.481989E2,9.78991E2,3.9649878E2,7.749659E2,1.1141475E3,1.6363973E3,1.5308032E3,1.07894775E2,6.938185E1,8.289187E2,1.3624291E3,8.852163E2,3.3637012E2,9.946161E1,8.5208594E2,9.933779E2,1.4087578E3,2.572978E2,8.5606055E2,6.854951E2,5.5962146E2,0E0,0E0,0E0,0E0,0E0,0E0,0E0,0E0,0E0,0E0,0E0,0E0,0E0,0E0,0E0,0E0,0E0,0E0,0E0,0E0,0E0,0E0,0E0,0E0,0E0,0E0,0E0,0E0,0E0,0E0,0E0,0E0,0E0,0E0,0E0,0E0,0E0,0E0,0E0,0E0,0E0,0E0,0E0,0E0,0E0,0E0,0E0,0E0,0E0,0E0,0E0,0E0,0E0,0E0,0E0,0E0,0E0,0E0,0E0,0E0],"parents":[2147483647,0,0,1,1,2,2,3,3,4,4,5,5,6,6,7,7,8,8,9,9,10,10,11,11,12,12,13,13,14,14,15,15,16,16,17,17,19,19,20,20,21,21,22,22,23,23,24,24,25,25,26,26,27,27,28,28,29,29,30,30,31,31,32,32,33,33,34,34,35,35,36,36,37,37,38,38,39,39,40,40,41,41,42,42,43,43,44,44,45,45,46,46,47,47,48,48,49,49,50,50,51,51,52,52,53,53,54,54,55,55,56,56,57,57,58,58,59,59,60,60],"right_children":[2,4,6,8,10,12,14,16,18,20,22,24,26,28,30,32,34,36,-1,38,40,42,44,46,48,50,52,54,56,58,60,62,64,66,68,70,72,74,76,78,80,82,84,86,88,90,92,94,96,98,100,102,104,106,108,110,112,114,116,118,120,-1,-1,-1,-1,-1,-1,-1,-1,-1,-1,-1,-1,-1,-1,-1,-1,-1,-1,-1,-1,-1,-1,-1,-1,-1,-1,-1,-1,-1,-1,-1,-1,-1,-1,-1,-1,-1,-1,-1,-1,-1,-1,-1,-1,-1,-1,-1,-1,-1,-1,-1,-1,-1,-1,-1,-1,-1,-1,-1,-1],"split_conditions":[8.658342E1,7.416417E1,4E1,1E0,-1E0,9.756035E1,8.4E1,-2.53E1,5.57E1,1.0236E2,-5.5E0,1.6E1,1.0708E2,1.0026E2,7.48E1,7.163645E1,6.4E1,3.14E1,1.1758764E0,-4.23E1,1E0,1.068E1,1E0,8.995E1,2.23E2,4.87E1,6E0,1.23E1,1E0,6.43E1,1.8E1,9.258E1,2.6E1,7E0,1.1E1,7.201264E1,1.1721E2,1.1463E2,3.43E1,7.949735E1,9.927E1,3.51E1,3.57E1,3.67E1,9E0,4.57E1,1E0,1.18096E2,2.38E2,8.01E1,3.38E1,1.107E2,5.77E1,2.0592E1,6.92E1,1.1778E2,9.508623E1,9.003638E1,1.1281E2,6E0,-1.5E1,-1.1600597E0,-7.147254E-1,-4.083388E-1,-1.2402128E0,-8.806247E-1,1.5170307E-1,-2.9863143E-1,-6.1713886E-1,-5.62349E-1,-1.8611841E-1,-1.9259714E-1,2.4444972E-1,-6.207523E-1,-7.97345E-2,-1.5712659E-1,-3.882286E-1,-3.1549618E-1,-7.4179694E-2,-2.447634E-1,5.6985475E-2,-1.7901675E-1,1.8724777E-1,-8.676103E-1,-3.214844E-1,1.1642716E-2,-2.234454E-1,1.3008593E-1,4.6006513E-1,1.6602538E0,-8.196298E-1,2.3547831E-1,6.437876E-2,1.409312E0,7.1628827E-1,4.3753225E-1,-1.5918376E-1,1.3201575E0,1.3857052E-2,-3.380744E-1,4.0769956E-1,4.899558E-1,1.2535884E0,1.8918196E0,8.2125044E-1,1.3445604E0,1.2524568E-1,-3.990418E-1,2.4082808E-1,2.8978413E-1,1.3734447E0,5.261592E-1,9.0928555E-1,-5.923888E-1,5.300247E-1,6.2692344E-1,1.009886E0,1.2872224E0,2.4618902E0,1.1023709E0,-8.505872E-2],"split_indices":[0,0,32,24,32,0,32,33,8,23,33,25,23,23,2,0,7,19,0,33,24,1,24,23,26,16,26,33,24,2,17,23,34,26,34,0,23,6,19,0,22,12,19,12,25,16,34,5,26,2,19,22,16,1,7,22,0,0,23,25,34,0,0,0,0,0,0,0,0,0,0,0,0,0,0,0,0,0,0,0,0,0,0,0,0,0,0,0,0,0,0,0,0,0,0,0,0,0,0,0,0,0,0,0,0,0,0,0,0,0,0,0,0,0,0,0,0,0,0,0,0],"split_type":[0,0,0,0,0,0,0,0,0,0,0,0,0,0,0,0,0,0,0,0,0,0,0,0,0,0,0,0,0,0,0,0,0,0,0,0,0,0,0,0,0,0,0,0,0,0,0,0,0,0,0,0,0,0,0,0,0,0,0,0,0,0,0,0,0,0,0,0,0,0,0,0,0,0,0,0,0,0,0,0,0,0,0,0,0,0,0,0,0,0,0,0,0,0,0,0,0,0,0,0,0,0,0,0,0,0,0,0,0,0,0,0,0,0,0,0,0,0,0,0,0],"sum_hessian":[1.1918E4,8.347E3,3.571E3,1.873E3,6.474E3,2.519E3,1.052E3,1.095E3,7.78E2,3.36E3,3.114E3,2.292E3,2.27E2,7.28E2,3.24E2,4.06E2,6.89E2,7.73E2,5E0,1.297E3,2.063E3,4.13E2,2.701E3,2.262E3,3E1,1.29E2,9.8E1,1.02E2,6.26E2,2.68E2,5.6E1,2.81E2,1.25E2,6.7E1,6.22E2,2.67E2,5.06E2,2.5E2,1.047E3,1.157E3,9.06E2,3.57E2,5.6E1,1.246E3,1.455E3,3E1,2.232E3,2.1E1,9E0,3.1E1,9.8E1,7.9E1,1.9E1,6E0,9.6E1,1.82E2,4.44E2,8E0,2.6E2,3.5E1,2.1E1,5.9E1,2.22E2,1.14E2,1.1E1,6E1,7E0,4.63E2,1.59E2,1.82E2,8.5E1,4.71E2,3.5E1,1.83E2,6.7E1,7.57E2,2.9E2,5.33E2,6.24E2,1.19E2,7.87E2,2.56E2,1.01E2,2.8E1,2.8E1,1.086E3,1.6E2,1.345E3,1.1E2,2E0,2.8E1,1.394E3,8.38E2,1.4E1,7E0,7E0,2E0,2.5E1,6E0,4.2E1,5.6E1,5.8E1,2.1E1,1.2E1,7E0,5E0,1E0,2.9E1,6.7E1,1.74E2,8E0,2.97E2,1.47E2,6E0,2E0,1.58E2,1.02E2,2.7E1,8E0,1.6E1,5E0],"tree_param":{"num_deleted":"0","num_feature":"35","num_nodes":"121","size_leaf_vector":"1"}},{"base_weights":[8.613531E-3,-1.3202482E0,2.6859217E0,-4.4065833E0,-7.620753E-1,1.7939131E0,5.3958225E0,-6.777026E0,-3.557724E0,-1.8914568E0,-2.1218108E-2,2.3055536E-1,2.684416E0,3.6407685E0,7.842201E0,-7.6306896E0,-3.8980327E0,-3.9187639E0,-5.77841E-1,-3.442713E0,-1.3726459E0,-9.0102834E-1,6.48868E-1,-1.8231001E0,1.6163344E0,8.3693546E-1,3.4873986E0,6.146896E-1,5.662268E0,-2.0230713E0,8.278532E0,-8.435609E0,-3.5394003E0,-6.1025577E0,2.0613441E0,-3.741719E0,-1.0989986E1,-3.3246975E0,3.4882183E0,-4.251157E0,1.0691855E0,-2.0747964E0,-6.34483E-1,-5.3004026E0,-7.39385E-1,-5.703822E0,8.2134473E-1,-1.6194752E0,-1.6078433E0,3.5222015E0,7.47947E-1,-7.317633E-2,5.040228E0,2.9272614E0,5.685355E0,-6.838625E0,1.2446187E0,4.5333304E0,8.624023E0,-4.8971915E0,6.42908E0,9.712369E0,5.798748E0,2.9697222E-1,-8.737098E-1,2.1292401E-2,-6.648404E-1,4.1026305E-2,-7.92963E-1,-3.9851508E-1,6.088814E-1,-6.238408E-1,-3.310036E-1,-1.2931412E0,3.6747617E-1,-4.12531E-1,6.146982E-1,6.2208366E-2,1.329134E0,-1.0695502E0,-3.857018E-1,-4.0998968E-1,2.1512361E-1,-4.4549415E-1,-1.5980093E-1,-1.483105E-1,5.0260473E-2,-7.426172E-1,-9.859989E-3,-5.438489E-1,-5.753115E-2,-6.1298645E-1,9.929356E-1,-5.8228034E-3,1.615173E-1,2.6061947E-2,-3.0733526E-1,1.990848E-1,5.588627E-1,2.921999E-1,-1.5452022E-2,3.0968732E-1,-6.144145E-2,-1.8216416E-1,6.632965E-1,8.6261386E-1,2.6930228E-1,4.821305E-1,1.0742782E0,-1.0043615E0,1.25342E0,-3.4003428E-1,2.311404E-1,3.09319E-1,6.8751246E-1,1.0988554E0,5.857668E-1,-9.425749E-1,-3.2255556E-2,2.7373886E-2,7.899481E-1,7.64396E-1,1.1543306E0,8.7955475E-1,3.3223197E-1],"categories":[],"categories_nodes":[],"categories_segments":[],"categories_sizes":[],"default_left":[0,0,0,0,0,0,0,0,0,0,0,0,0,0,0,0,0,0,0,0,0,0,0,0,0,0,0,0,0,0,0,0,0,0,0,0,0,0,0,0,0,0,0,0,0,0,0,0,0,0,0,0,0,0,0,0,0,0,0,0,0,0,0,0,0,0,0,0,0,0,0,0,0,0,0,0,0,0,0,0,0,0,0,0,0,0,0,0,0,0,0,0,0,0,0,0,0,0,0,0,0,0,0,0,0,0,0,0,0,0,0,0,0,0,0,0,0,0,0,0,0,0,0,0,0],"id":9,"left_children":[1,3,5,7,9,11,13,15,17,19,21,23,25,27,29,31,33,35,37,39,41,43,45,47,49,51,53,55,57,59,61,63,65,67,69,71,73,75,77,79,81,83,85,87,89,91,93,95,-1,97,99,101,103,105,107,109,111,113,115,117,119,121,123,-1,-1,-1,-1,-1,-1,-1,-1,-1,-1,-1,-1,-1,-1,-1,-1,-1,-1,-1,-1,-1,-1,-1,-1,-1,-1,-1,-1,-1,-1,-1,-1,-1,-1,-1,-1,-1,-1,-1,-1,-1,-1,-1,-1,-1,-1,-1,-1,-1,-1,-1,-1,-1,-1,-1,-1,-1,-1,-1,-1,-1,-1],"loss_changes":[4.2205844E4,1.3654275E4,9.502217E3,2.418666E3,5.61847E3,4.123002E3,4.1533438E3,7.5425977E2,9.617031E2,2.1360664E3,2.3917942E3,3.065149E3,2.7964355E3,3.4772163E3,1.7643828E3,7.769658E2,9.978992E2,9.59166E2,1.1061477E3,2.4338594E3,1.0326951E3,1.2434025E3,2.528061E3,1.2337506E3,1.0615507E3,2.1923608E3,1.6023281E3,1.0836802E3,1.101084E3,4.6874945E2,1.3268125E3,7.27417E2,4.913872E2,6.5772E2,5.3565845E2,8.210947E2,5.8845996E2,4.7276385E2,1.1156144E3,1.3938281E3,5.793271E2,1.1526694E3,9.4061426E2,6.8485364E2,1.3021714E3,4.6714954E2,1.5662235E3,1.1734413E3,0E0,6.249236E2,8.6962213E2,8.117376E2,1.1268569E3,1.3784121E3,1.1105928E3,1.2435037E3,1.0583569E3,8.1848975E2,5.43958E2,2.8699066E2,4.3091705E1,8.396094E2,1.046876E3,0E0,0E0,0E0,0E0,0E0,0E0,0E0,0E0,0E0,0E0,0E0,0E0,0E0,0E0,0E0,0E0,0E0,0E0,0E0,0E0,0E0,0E0,0E0,0E0,0E0,0E0,0E0,0E0,0E0,0E0,0E0,0E0,0E0,0E0,0E0,0E0,0E0,0E0,0E0,0E0,0E0,0E0,0E0,0E0,0E0,0E0,0E0,0E0,0E0,0E0,0E0,0E0,0E0,0E0,0E0,0E0,0E0,0E0,0E0,0E0,0E0,0E0],"parents":[2147483647,0,0,1,1,2,2,3,3,4,4,5,5,6,6,7,7,8,8,9,9,10,10,11,11,12,12,13,13,14,14,15,15,16,16,17,17,18,18,19,19,20,20,21,21,22,22,23,23,24,24,25,25,26,26,27,27,28,28,29,29,30,30,31,31,32,32,33,33,34,34,35,35,36,36,37,37,38,38,39,39,40,40,41,41,42,42,43,43,44,44,45,45,46,46,47,47,49,49,50,50,51,51,52,52,53,53,54,54,55,55,56,56,57,57,58,58,59,59,60,60,61,61,62,62],"right_children":[2,4,6,8,10,12,14,16,18,20,22,24,26,28,30,32,34,36,38,40,42,44,46,48,50,52,54,56,58,60,62,64,66,68,70,72,74,76,78,80,82,84,86,88,90,92,94,96,-1,98,100,102,104,106,108,110,112,114,116,118,120,122,124,-1,-1,-1,-1,-1,-1,-1,-1,-1,-1,-1,-1,-1,-1,-1,-1,-1,-1,-1,-1,-1,-1,-1,-1,-1,-1,-1,-1,-1,-1,-1,-1,-1,-1,-1,-1,-1,-1,-1,-1,-1,-1,-1,-1,-1,-1,-1,-1,-1,-1,-1,-1,-1,-1,-1,-1,-1,-1,-1,-1,-1,-1],"split_conditions":[8.581885E1,7.201264E1,9.462532E1,-4.358524E-1,-1.3E1,1.0696E2,1.0995E2,1.0443E2,5.17E1,9.873E1,7.956562E1,1.0886E2,1.0187E2,1.1415E2,9.665E1,1.0612E2,7.005968E1,1.2174E2,4.88E1,1.13E2,1.0246E2,4.57E1,9.32E1,3.94E1,1.2799E1,1.2343E2,5.4E1,-2.3E1,9.981132E1,1.22124E2,-1.26E2,4.33E1,2.82E1,1.77E1,4.86E1,-2.62E1,1.06954E2,6.92E1,6.58E1,8.685E1,7.400106E1,2.79E1,1E0,1.2039728E0,7.444E0,4.06E1,1E0,5.23E1,-1.6078433E0,1.7E1,3.35E1,2.2089383E-1,8.782247E1,1.33E1,1.06E2,3.62E1,1.01654E2,5.22E1,3.5E1,2.3E1,6.97E1,7.02E1,3.0132484E-1,2.9697222E-1,-8.737098E-1,2.1292401E-2,-6.648404E-1,4.1026305E-2,-7.92963E-1,-3.9851508E-1,6.088814E-1,-6.238408E-1,-3.310036E-1,-1.2931412E0,3.6747617E-1,-4.12531E-1,6.146982E-1,6.2208366E-2,1.329134E0,-1.0695502E0,-3.857018E-1,-4.0998968E-1,2.1512361E-1,-4.4549415E-1,-1.5980093E-1,-1.483105E-1,5.0260473E-2,-7.426172E-1,-9.859989E-3,-5.438489E-1,-5.753115E-2,-6.1298645E-1,9.929356E-1,-5.8228034E-3,1.615173E-1,2.6061947E-2,-3.0733526E-1,1.990848E-1,5.588627E-1,2.921999E-1,-1.5452022E-2,3.0968732E-1,-6.144145E-2,-1.8216416E-1,6.632965E-1,8.6261386E-1,2.6930228E-1,4.821305E-1,1.0742782E0,-1.0043615E0,1.25342E0,-3.4003428E-1,2.311404E-1,3.09319E-1,6.8751246E-1,1.0988554E0,5.857668E-1,-9.425749E-1,-3.2255556E-2,2.7373886E-2,7.899481E-1,7.64396E-1,1.1543306E0,8.7955475E-1,3.3223197E-1],"split_indices":[0,0,0,4,32,20,23,23,8,20,0,23,23,20,20,20,0,21,16,23,23,16,20,10,27,20,32,32,0,14,28,8,10,9,16,33,13,7,7,20,0,10,24,30,27,33,24,16,0,9,11,30,0,9,21,10,13,16,10,32,7,15,30,0,0,0,0,0,0,0,0,0,0,0,0,0,0,0,0,0,0,0,0,0,0,0,0,0,0,0,0,0,0,0,0,0,0,0,0,0,0,0,0,0,0,0,0,0,0,0,0,0,0,0,0,0,0,0,0,0,0,0,0,0,0],"split_type":[0,0,0,0,0,0,0,0,0,0,0,0,0,0,0,0,0,0,0,0,0,0,0,0,0,0,0,0,0,0,0,0,0,0,0,0,0,0,0,0,0,0,0,0,0,0,0,0,0,0,0,0,0,0,0,0,0,0,0,0,0,0,0,0,0,0,0,0,0,0,0,0,0,0,0,0,0,0,0,0,0,0,0,0,0,0,0,0,0,0,0,0,0,0,0,0,0,0,0,0,0,0,0,0,0,0,0,0,0,0,0,0,0,0,0,0,0,0,0,0,0,0,0,0,0],"sum_hessian":[1.1861E4,7.927E3,3.934E3,1.213E3,6.714E3,2.961E3,9.73E2,3.18E2,8.95E2,2.659E3,4.055E3,1.075E3,1.886E3,5.68E2,4.05E2,2.44E2,7.4E1,7.98E2,9.7E1,6.65E2,1.994E3,1.753E3,2.302E3,4.33E2,6.42E2,5.72E2,1.314E3,2.28E2,3.4E2,1.7E1,3.88E2,2.03E2,4.1E1,5.4E1,2E1,7.8E2,1.8E1,5.8E1,3.9E1,5.64E2,1.01E2,1.021E3,9.73E2,6.1E1,1.692E3,6E1,2.242E3,4.28E2,5E0,2E2,4.42E2,4.71E2,1.01E2,1.049E3,2.65E2,1.7E1,2.11E2,2.48E2,9.2E1,1.3E1,4E0,2.44E2,1.44E2,5E0,1.98E2,1.9E1,2.2E1,1.2E1,4.2E1,8E0,1.2E1,1.13E2,6.67E2,1.6E1,2E0,5.4E1,4E0,3.1E1,8E0,3.1E1,5.33E2,1.7E1,8.4E1,1.69E2,8.52E2,5.57E2,4.16E2,4.3E1,1.8E1,5.6E1,1.636E3,5.9E1,1E0,1.064E3,1.178E3,1.87E2,2.41E2,1.16E2,8.4E1,1.29E2,3.13E2,6.8E1,4.03E2,1.9E1,8.2E1,4E1,1.009E3,2.28E2,3.7E1,1.5E1,2E0,3.9E1,1.72E2,1.55E2,9.3E1,4.8E1,4.4E1,6E0,7E0,1E0,3E0,1.17E2,1.27E2,6.4E1,8E1],"tree_param":{"num_deleted":"0","num_feature":"35","num_nodes":"125","size_leaf_vector":"1"}},{"base_weights":[4.3783538E-2,-1.1241056E0,2.7502716E0,-3.2900946E0,-4.5120212E-1,4.9071875E0,1.6334544E0,-5.6049695E0,-2.6403844E0,-2.1590774E0,-4.2781435E-2,4.322239E0,9.031507E0,7.8065044E-1,3.158864E0,-7.65884E0,-3.8855827E0,-3.0365405E0,-4.662649E-1,-8.486555E0,-1.914286E0,-4.5027864E-1,1.1394308E0,2.514593E0,5.0736837E0,-4.7735088E-2,9.966485E0,-6.8578607E-1,2.5435162E0,2.0713274E0,5.9757485E0,-8.025655E0,3.286875E0,-5.9724894E0,-1.1531149E0,-3.445402E0,-1.068115E0,-2.3445132E0,2.0426373E0,-9.830695E0,4.232704E0,-2.3040643E0,3.8087186E-1,-1.4176357E0,-9.6954115E-2,5.8529973E-1,2.9760334E0,-1.5669289E-1,3.3794906E0,2.9354596E0,5.7562137E0,3.7143526E0,-8.314781E0,3.6261647E0,1.0841773E1,-8.8478285E-1,1.0890799E1,1.5914979E0,5.373713E0,3.3751458E-1,3.8327281E0,8.645666E0,3.810503E0,-1.066791E0,-6.672541E-1,5.6005996E-1,-1.6649577E-1,1.5874783E0,-6.258263E-1,-1.8541943E-2,-9.2297125E-1,-2.2627063E-1,-4.1470647E-1,7.727023E-1,-1.5586011E-1,-8.3141434E-1,-1.5913251E-1,-2.0689594E-2,4.38629E-1,-7.329361E-1,-1.4131172E0,9.0996556E-2,6.1445415E-1,-2.6060468E-1,9.4270416E-2,-8.8487595E-1,1.0707138E-1,-5.6411856E-1,-1.14552E-1,5.2757314E-3,-3.3774313E-1,4.4467416E-2,8.7154245E-1,3.8834054E-2,4.521118E-1,3.2804674E-1,-2.2578788E-1,2.6488566E-1,6.2923044E-1,2.3949216E-1,9.3280697E-1,5.3440595E-1,9.927494E-1,8.577339E-1,-1.7676926E-1,-1.24736786E-1,-9.7697926E-1,1.0620686E0,1.519215E-1,7.75656E-2,1.1560272E0,-3.5567486E-1,-3.2199305E-2,1.3101974E0,-1.5841675E-1,-6.234323E-1,1.8554485E-1,7.5817126E-1,1.334009E-1,-5.267667E-1,7.871009E-2,3.0277568E-1,1.0772067E0,7.2536707E-1,1.2983415E0,2.0650724E-1,6.340286E-1],"categories":[],"categories_nodes":[],"categories_segments":[],"categories_sizes":[],"default_left":[0,0,0,0,0,0,0,0,0,0,0,0,0,0,0,0,0,0,0,0,0,0,0,0,0,0,0,0,0,0,0,0,0,0,0,0,0,0,0,0,0,0,0,0,0,0,0,0,0,0,0,0,0,0,0,0,0,0,0,0,0,0,0,0,0,0,0,0,0,0,0,0,0,0,0,0,0,0,0,0,0,0,0,0,0,0,0,0,0,0,0,0,0,0,0,0,0,0,0,0,0,0,0,0,0,0,0,0,0,0,0,0,0,0,0,0,0,0,0,0,0,0,0,0,0,0,0],"id":10,"left_children":[1,3,5,7,9,11,13,15,17,19,21,23,25,27,29,31,33,35,37,39,41,43,45,47,49,51,53,55,57,59,61,63,65,67,69,71,73,75,77,79,81,83,85,87,89,91,93,95,97,99,101,103,105,107,109,111,113,115,117,119,121,123,125,-1,-1,-1,-1,-1,-1,-1,-1,-1,-1,-1,-1,-1,-1,-1,-1,-1,-1,-1,-1,-1,-1,-1,-1,-1,-1,-1,-1,-1,-1,-1,-1,-1,-1,-1,-1,-1,-1,-1,-1,-1,-1,-1,-1,-1,-1,-1,-1,-1,-1,-1,-1,-1,-1,-1,-1,-1,-1,-1,-1,-1,-1,-1,-1],"loss_changes":[3.7361508E4,1.2033106E4,8.574828E3,2.9285234E3,4.3950547E3,2.892168E3,3.05329E3,1.4816797E3,1.3163584E3,1.8672314E3,2.450684E3,1.4352383E3,1.2738096E3,3.900121E3,2.5670596E3,8.052988E2,1.3331785E3,1.037749E3,1.1216139E3,8.109514E2,1.0493511E3,1.2928575E3,1.3253633E3,7.28302E2,1.0805723E3,4.974043E2,7.154336E2,1.9078875E3,1.8371108E3,1.8585554E3,1.3198164E3,6.009697E2,8.952501E1,9.297158E2,8.033044E2,8.793877E2,9.7835535E2,5.982601E2,5.386642E2,3.3746143E2,2.6171349E1,9.8488477E2,1.0982291E3,1.1566237E3,1.3615764E3,1.1428578E3,1.2057019E3,5.707316E2,4.8984448E2,6.134625E2,9.251797E2,3.084123E2,3.922931E1,2.491328E2,8.516992E2,1.2184E3,4.0693652E2,1.0733016E3,1.5240679E3,7.803101E2,1.6543477E3,5.337876E2,5.6534534E2,0E0,0E0,0E0,0E0,0E0,0E0,0E0,0E0,0E0,0E0,0E0,0E0,0E0,0E0,0E0,0E0,0E0,0E0,0E0,0E0,0E0,0E0,0E0,0E0,0E0,0E0,0E0,0E0,0E0,0E0,0E0,0E0,0E0,0E0,0E0,0E0,0E0,0E0,0E0,0E0,0E0,0E0,0E0,0E0,0E0,0E0,0E0,0E0,0E0,0E0,0E0,0E0,0E0,0E0,0E0,0E0,0E0,0E0,0E0,0E0,0E0,0E0,0E0,0E0],"parents":[2147483647,0,0,1,1,2,2,3,3,4,4,5,5,6,6,7,7,8,8,9,9,10,10,11,11,12,12,13,13,14,14,15,15,16,16,17,17,18,18,19,19,20,20,21,21,22,22,23,23,24,24,25,25,26,26,27,27,28,28,29,29,30,30,31,31,32,32,33,33,34,34,35,35,36,36,37,37,38,38,39,39,40,40,41,41,42,42,43,43,44,44,45,45,46,46,47,47,48,48,49,49,50,50,51,51,52,52,53,53,54,54,55,55,56,56,57,57,58,58,59,59,60,60,61,61,62,62],"right_children":[2,4,6,8,10,12,14,16,18,20,22,24,26,28,30,32,34,36,38,40,42,44,46,48,50,52,54,56,58,60,62,64,66,68,70,72,74,76,78,80,82,84,86,88,90,92,94,96,98,100,102,104,106,108,110,112,114,116,118,120,122,124,126,-1,-1,-1,-1,-1,-1,-1,-1,-1,-1,-1,-1,-1,-1,-1,-1,-1,-1,-1,-1,-1,-1,-1,-1,-1,-1,-1,-1,-1,-1,-1,-1,-1,-1,-1,-1,-1,-1,-1,-1,-1,-1,-1,-1,-1,-1,-1,-1,-1,-1,-1,-1,-1,-1,-1,-1,-1,-1,-1,-1,-1,-1,-1,-1],"split_conditions":[8.658342E1,7.443812E1,-7E0,-4.358524E-1,-3.1E1,1.0043627E2,1.1446E2,9.785E1,1.1265E2,8.946E1,2.2E1,1E0,9.182E1,1.0892E2,1.049E2,7.400106E1,7.070934E1,1.0904E2,9.986E1,8E0,-6.4E0,6.69E1,6E0,1.56E1,1.0619E2,3E0,1.0362E2,1.3E1,9.3032005E1,1.1561E2,-6E1,6.71E1,-3.2038E1,2E0,3.26E1,3.14E1,1.46E1,2.89E1,5E0,7.36E1,-2.0434E1,7.32E1,6.46E1,9.523E1,2.1E1,9.6E1,1.0558E2,6.99E1,1.0794E2,1.1E1,3.68E1,7.59E1,1.034713E2,5.16E1,-2.8E0,9.769E1,2.29E2,2E0,1.66E1,4.72E1,9.876166E1,7E0,1.06E2,-1.066791E0,-6.672541E-1,5.6005996E-1,-1.6649577E-1,1.5874783E0,-6.258263E-1,-1.8541943E-2,-9.2297125E-1,-2.2627063E-1,-4.1470647E-1,7.727023E-1,-1.5586011E-1,-8.3141434E-1,-1.5913251E-1,-2.0689594E-2,4.38629E-1,-7.329361E-1,-1.4131172E0,9.0996556E-2,6.1445415E-1,-2.6060468E-1,9.4270416E-2,-8.8487595E-1,1.0707138E-1,-5.6411856E-1,-1.14552E-1,5.2757314E-3,-3.3774313E-1,4.4467416E-2,8.7154245E-1,3.8834054E-2,4.521118E-1,3.2804674E-1,-2.2578788E-1,2.6488566E-1,6.2923044E-1,2.3949216E-1,9.3280697E-1,5.3440595E-1,9.927494E-1,8.577339E-1,-1.7676926E-1,-1.24736786E-1,-9.7697926E-1,1.0620686E0,1.519215E-1,7.75656E-2,1.1560272E0,-3.5567486E-1,-3.2199305E-2,1.3101974E0,-1.5841675E-1,-6.234323E-1,1.8554485E-1,7.5817126E-1,1.334009E-1,-5.267667E-1,7.871009E-2,3.0277568E-1,1.0772067E0,7.2536707E-1,1.2983415E0,2.0650724E-1,6.340286E-1],"split_indices":[0,0,34,4,32,0,20,23,23,20,32,24,22,23,23,0,0,20,20,25,33,15,25,17,20,29,23,25,0,22,28,15,1,25,18,12,17,12,26,2,1,15,7,20,9,32,20,2,22,25,18,2,0,16,33,23,26,25,17,16,0,26,21,0,0,0,0,0,0,0,0,0,0,0,0,0,0,0,0,0,0,0,0,0,0,0,0,0,0,0,0,0,0,0,0,0,0,0,0,0,0,0,0,0,0,0,0,0,0,0,0,0,0,0,0,0,0,0,0,0,0,0,0,0,0,0,0],"split_type":[0,0,0,0,0,0,0,0,0,0,0,0,0,0,0,0,0,0,0,0,0,0,0,0,0,0,0,0,0,0,0,0,0,0,0,0,0,0,0,0,0,0,0,0,0,0,0,0,0,0,0,0,0,0,0,0,0,0,0,0,0,0,0,0,0,0,0,0,0,0,0,0,0,0,0,0,0,0,0,0,0,0,0,0,0,0,0,0,0,0,0,0,0,0,0,0,0,0,0,0,0,0,0,0,0,0,0,0,0,0,0,0,0,0,0,0,0,0,0,0,0,0,0,0,0,0,0],"sum_hessian":[1.1818E4,8.256E3,3.562E3,1.956E3,6.3E3,1.214E3,2.348E3,4.27E2,1.529E3,1.215E3,5.085E3,1.065E3,1.49E2,1.507E3,8.41E2,1.93E2,2.34E2,1.293E3,2.36E2,4.4E1,1.171E3,3.782E3,1.303E3,3.14E2,7.51E2,1.4E1,1.35E2,8.23E2,6.84E2,6.08E2,2.33E2,1.87E2,6E0,1.32E2,1.02E2,1.07E3,2.23E2,1.35E2,1.01E2,4E1,4E0,1.001E3,1.7E2,1.011E3,2.771E3,1.002E3,3.01E2,7.7E1,2.37E2,1.83E2,5.68E2,1E1,4E0,1.7E1,1.18E2,8.1E2,1.3E1,5.13E2,1.71E2,3.07E2,3.01E2,1.03E2,1.3E2,6.1E1,1.26E2,4E0,2E0,1E0,1.31E2,9.2E1,1E1,4E2,6.7E2,1.1E1,2.12E2,1.4E1,1.21E2,5.2E1,4.9E1,2.7E1,1.3E1,2E0,2E0,9.16E2,8.5E1,1.1E1,1.59E2,6E1,9.51E2,2.651E3,1.2E2,9.86E2,1.6E1,1.13E2,1.88E2,2.9E1,4.8E1,1.91E2,4.6E1,1.7E2,1.3E1,5.19E2,4.9E1,5E0,5E0,1E0,3E0,3E0,1.4E1,8E0,1.1E2,1.4E2,6.7E2,1.1E1,2E0,1.6E1,4.97E2,1.1E2,6.1E1,2.2E1,2.85E2,2.71E2,3E1,8E1,2.3E1,7.8E1,5.2E1],"tree_param":{"num_deleted":"0","num_feature":"35","num_nodes":"127","size_leaf_vector":"1"}},{"base_weights":[5.1752836E-2,-1.1434544E0,2.128341E0,-2.1902068E0,-1.203914E-1,4.3909793E0,1.2763803E0,-3.5445192E0,-1.5217065E0,-8.708515E-1,6.156469E-1,3.4297743E0,6.5389867E0,-1.3299891E0,1.633692E0,-4.3706546E0,-2.0659232E0,-1.7279762E0,8.827254E-1,-1.4917873E0,1.8759646E-1,6.1847544E-3,1.6448001E0,1.6372598E0,4.215851E0,6.095876E0,1.4717893E1,-8.267825E-1,-9.082805E0,1.2198464E0,3.4890473E0,-5.4330487E0,-3.1013474E0,-1.7349445E0,-8.290702E0,-1.1236353E0,-2.8557315E0,2.919153E0,-2.9373016E0,-2.9648542E0,-7.288578E-1,3.5167596E0,-5.051023E-1,5.755785E-1,-2.5176425E0,9.543157E-1,3.3280406E0,3.8184211E0,4.9739763E-1,1.1961531E1,4.012868E0,-9.850461E-1,6.6015744E0,1.6872652E1,5.740985E0,2.2466147E0,-2.0148172E0,-1.9563324E0,-1.048015E1,9.892154E-1,3.7552052E0,9.649122E0,3.050042E0,-1.227326E0,-5.0658625E-1,-3.3533582E-1,7.0996684E-1,-1.3662638E-1,-5.7513964E-1,-1.0598261E0,1.6746506E-1,-1.7778395E-1,-5.3235455E-3,-2.577949E-1,-7.2394925E-1,6.4534885E-1,1.0136912E-1,-4.0835005E-1,7.7981013E-1,-7.575559E-1,-2.5613493E-1,7.2035855E-1,-9.572217E-2,6.58961E-1,9.876454E-2,4.9659163E-1,-9.7721085E-2,6.175275E-1,2.7551396E-2,-1.145891E0,-2.0860448E-1,-1.610237E-1,1.4314418E-1,2.3106919E-1,6.1677384E-1,2.2405015E-1,8.0431366E-1,-2.5824323E-2,5.7272154E-1,-5.4537963E-2,1.4091464E0,2.0472084E-1,4.8902735E-1,1.0128591E0,-2.4557672E-1,1.5022163E-1,7.155264E-1,1.7969211E0,6.8622005E-1,6.880644E-1,5.9117507E-2,1.0525717E0,8.885222E-2,3.166389E-1,-2.5597546E-1,-9.599907E-1,2.354538E-1,2.0796052E-1,-1.1293448E0,-1.0899208E-1,1.2456131E-1,-3.176125E-1,4.331152E-1,1.3261235E0,2.2228234E-1,2.383505E-1,7.5760955E-1],"categories":[],"categories_nodes":[],"categories_segments":[],"categories_sizes":[],"default_left":[0,0,0,0,0,0,0,0,0,0,0,0,0,0,0,0,0,0,0,0,0,0,0,0,0,0,0,0,0,0,0,0,0,0,0,0,0,0,0,0,0,0,0,0,0,0,0,0,0,0,0,0,0,0,0,0,0,0,0,0,0,0,0,0,0,0,0,0,0,0,0,0,0,0,0,0,0,0,0,0,0,0,0,0,0,0,0,0,0,0,0,0,0,0,0,0,0,0,0,0,0,0,0,0,0,0,0,0,0,0,0,0,0,0,0,0,0,0,0,0,0,0,0,0,0,0,0],"id":11,"left_children":[1,3,5,7,9,11,13,15,17,19,21,23,25,27,29,31,33,35,37,39,41,43,45,47,49,51,53,55,57,59,61,63,65,67,69,71,73,75,77,79,81,83,85,87,89,91,93,95,97,99,101,103,105,107,109,111,113,115,117,119,121,123,125,-1,-1,-1,-1,-1,-1,-1,-1,-1,-1,-1,-1,-1,-1,-1,-1,-1,-1,-1,-1,-1,-1,-1,-1,-1,-1,-1,-1,-1,-1,-1,-1,-1,-1,-1,-1,-1,-1,-1,-1,-1,-1,-1,-1,-1,-1,-1,-1,-1,-1,-1,-1,-1,-1,-1,-1,-1,-1,-1,-1,-1,-1,-1,-1],"loss_changes":[2.9344084E4,8.0357207E3,8.320041E3,3.35258E3,2.0973228E3,2.415955E3,2.9254805E3,1.487332E3,1.2339897E3,1.2358689E3,1.2023896E3,1.1457031E3,1.2294746E3,1.4710713E3,2.1157246E3,1.0417266E3,8.9419446E2,1.5568569E3,1.5410786E3,1.3295969E3,1.606827E3,1.7330962E3,8.255094E2,6.221428E2,8.4503125E2,1.249044E3,2.5130957E2,1.3080415E3,2.0853455E2,1.3171953E3,1.3308354E3,1.0077803E3,9.492837E2,6.1407324E2,5.2365234E2,1.0446936E3,9.530869E2,8.62214E2,8.808819E2,7.322151E2,1.4234753E3,9.260825E2,1.4951943E3,1.6516849E3,8.328008E2,6.226776E2,5.837637E2,5.5527783E2,6.5748846E2,3.8062952E2,9.4718555E2,4.171549E2,9.0405176E2,3.0370361E1,2.527745E1,1.1150264E3,7.365508E2,1.8735564E2,2.1756738E2,1.1059115E3,7.642666E2,8.557351E2,1.4028467E3,0E0,0E0,0E0,0E0,0E0,0E0,0E0,0E0,0E0,0E0,0E0,0E0,0E0,0E0,0E0,0E0,0E0,0E0,0E0,0E0,0E0,0E0,0E0,0E0,0E0,0E0,0E0,0E0,0E0,0E0,0E0,0E0,0E0,0E0,0E0,0E0,0E0,0E0,0E0,0E0,0E0,0E0,0E0,0E0,0E0,0E0,0E0,0E0,0E0,0E0,0E0,0E0,0E0,0E0,0E0,0E0,0E0,0E0,0E0,0E0,0E0,0E0,0E0,0E0],"parents":[2147483647,0,0,1,1,2,2,3,3,4,4,5,5,6,6,7,7,8,8,9,9,10,10,11,11,12,12,13,13,14,14,15,15,16,16,17,17,18,18,19,19,20,20,21,21,22,22,23,23,24,24,25,25,26,26,27,27,28,28,29,29,30,30,31,31,32,32,33,33,34,34,35,35,36,36,37,37,38,38,39,39,40,40,41,41,42,42,43,43,44,44,45,45,46,46,47,47,48,48,49,49,50,50,51,51,52,52,53,53,54,54,55,55,56,56,57,57,58,58,59,59,60,60,61,61,62,62],"right_children":[2,4,6,8,10,12,14,16,18,20,22,24,26,28,30,32,34,36,38,40,42,44,46,48,50,52,54,56,58,60,62,64,66,68,70,72,74,76,78,80,82,84,86,88,90,92,94,96,98,100,102,104,106,108,110,112,114,116,118,120,122,124,126,-1,-1,-1,-1,-1,-1,-1,-1,-1,-1,-1,-1,-1,-1,-1,-1,-1,-1,-1,-1,-1,-1,-1,-1,-1,-1,-1,-1,-1,-1,-1,-1,-1,-1,-1,-1,-1,-1,-1,-1,-1,-1,-1,-1,-1,-1,-1,-1,-1,-1,-1,-1,-1,-1,-1,-1,-1,-1,-1,-1,-1,-1,-1,-1],"split_conditions":[8.4976616E1,-9E0,-9E0,7.386235E1,1.0577E2,1.20004E2,9.936E1,1E0,1.1591E2,6.84E1,2.3E1,1E0,2.2E2,4.47E1,9.462532E1,-2.24E1,7.04E1,1.7709E1,3.42E1,1.1006E2,3.1E1,1.93E1,6.88E1,7.272613E-1,4.79E1,2.9E1,1.16E2,1.2595E1,1.9333297E-1,8E0,2.68E1,8.685E1,2.0529304E0,1.1831E2,7.332514E1,7.991327E1,7.21E1,-1.8973513E-1,-1.5E1,-1.16E2,4.99E1,3.43E1,4.56E1,2.44E1,1.94E1,5.4864544E-1,6E0,6E0,5E1,5.39E1,1.10155E2,6E1,1.0942E2,7.4E1,3.3552E1,4.76E1,4.0372454E-2,8.5706955E1,9.067E1,-2.24E1,2.6014704E-1,3.098E1,5.62E1,-1.227326E0,-5.0658625E-1,-3.3533582E-1,7.0996684E-1,-1.3662638E-1,-5.7513964E-1,-1.0598261E0,1.6746506E-1,-1.7778395E-1,-5.3235455E-3,-2.577949E-1,-7.2394925E-1,6.4534885E-1,1.0136912E-1,-4.0835005E-1,7.7981013E-1,-7.575559E-1,-2.5613493E-1,7.2035855E-1,-9.572217E-2,6.58961E-1,9.876454E-2,4.9659163E-1,-9.7721085E-2,6.175275E-1,2.7551396E-2,-1.145891E0,-2.0860448E-1,-1.610237E-1,1.4314418E-1,2.3106919E-1,6.1677384E-1,2.2405015E-1,8.0431366E-1,-2.5824323E-2,5.7272154E-1,-5.4537963E-2,1.4091464E0,2.0472084E-1,4.8902735E-1,1.0128591E0,-2.4557672E-1,1.5022163E-1,7.155264E-1,1.7969211E0,6.8622005E-1,6.880644E-1,5.9117507E-2,1.0525717E0,8.885222E-2,3.166389E-1,-2.5597546E-1,-9.599907E-1,2.354538E-1,2.0796052E-1,-1.1293448E0,-1.0899208E-1,1.2456131E-1,-3.176125E-1,4.331152E-1,1.3261235E0,2.2228234E-1,2.383505E-1,7.5760955E-1],"split_indices":[0,32,34,0,20,5,20,24,20,2,32,24,25,11,0,33,7,27,10,14,11,17,7,3,8,10,32,27,30,25,18,20,30,21,0,0,7,4,32,28,16,19,8,10,17,3,25,26,33,16,5,32,20,7,1,8,30,0,20,33,3,27,16,0,0,0,0,0,0,0,0,0,0,0,0,0,0,0,0,0,0,0,0,0,0,0,0,0,0,0,0,0,0,0,0,0,0,0,0,0,0,0,0,0,0,0,0,0,0,0,0,0,0,0,0,0,0,0,0,0,0,0,0,0,0,0,0],"split_type":[0,0,0,0,0,0,0,0,0,0,0,0,0,0,0,0,0,0,0,0,0,0,0,0,0,0,0,0,0,0,0,0,0,0,0,0,0,0,0,0,0,0,0,0,0,0,0,0,0,0,0,0,0,0,0,0,0,0,0,0,0,0,0,0,0,0,0,0,0,0,0,0,0,0,0,0,0,0,0,0,0,0,0,0,0,0,0,0,0,0,0,0,0,0,0,0,0,0,0,0,0,0,0,0,0,0,0,0,0,0,0,0,0,0,0,0,0,0,0,0,0,0,0,0,0,0,0],"sum_hessian":[1.1821E4,7.503E3,4.318E3,3.708E3,3.795E3,1.18E3,3.138E3,1.224E3,2.484E3,1.879E3,1.916E3,8.17E2,3.63E2,3.78E2,2.76E3,7.84E2,4.4E2,2.288E3,1.96E2,1.184E3,6.95E2,1.204E3,7.12E2,2.5E2,5.67E2,3.46E2,1.7E1,3.56E2,2.2E1,2.258E3,5.02E2,4.25E2,3.59E2,4.19E2,2.1E1,1.491E3,7.97E2,1.28E2,6.8E1,4.03E2,7.81E2,1.19E2,5.76E2,9.83E2,2.21E2,5.06E2,2.06E2,8.5E1,1.65E2,1.3E1,5.54E2,2.3E1,3.23E2,1.3E1,4E0,9.9E1,2.57E2,4E0,1.8E1,2.071E3,1.87E2,3.2E1,4.7E2,2E1,4.05E2,3.51E2,8E0,3.85E2,3.4E1,1.7E1,4E0,9.25E2,5.66E2,7.51E2,4.6E1,4.4E1,8.4E1,6.2E1,6E0,3.1E1,3.72E2,2.1E1,7.6E2,5.3E1,6.6E1,4.5E1,5.31E2,4.9E1,9.34E2,9E0,2.12E2,7.9E1,4.27E2,1.53E2,5.3E1,6.3E1,2.2E1,1.45E2,2E1,2E0,1.1E1,1.72E2,3.82E2,2E0,2.1E1,3.2E1,2.91E2,1.1E1,2E0,3E0,1E0,1.3E1,8.6E1,2.4E1,2.33E2,1E0,3E0,1E0,1.7E1,2.27E2,1.844E3,1.4E1,1.73E2,2.1E1,1.1E1,4.11E2,5.9E1],"tree_param":{"num_deleted":"0","num_feature":"35","num_nodes":"127","size_leaf_vector":"1"}},{"base_weights":[4.2386295E-4,-1.0816399E0,1.5524591E0,-2.8493936E0,-5.818665E-1,1.6494723E-1,2.3597672E0,-3.314757E0,1.010401E0,-1.8916206E0,-1.3615067E-1,4.250978E0,-9.339314E-2,1.243893E0,3.253693E0,-7.6543517E0,-3.0768456E0,2.8908777E0,-1.2792603E0,-2.7765927E0,3.8823485E-1,-4.6868718E-1,2.171814E0,-4.271322E0,6.0225816E0,-1.189142E0,6.6714996E-1,9.911793E-1,4.458608E0,2.1720521E0,4.8808856E0,-9.952627E0,-2.7388694E0,-4.2582784E0,-2.0710378E0,-4.279939E0,4.125062E0,-2.0771897E0,1.3602765E0,-3.6182323E0,-8.738892E-1,-3.6332688E-1,4.435375E0,-1.0584257E0,3.50313E-1,1.8306386E0,9.375573E0,-7.569607E0,1.210021E0,7.4155626E0,5.002534E-1,-1.7399625E0,1.5421686E0,-6.133605E-1,1.5218459E0,-3.1877275E0,1.2142937E0,9.98305E0,3.0395038E0,1.1021998E0,3.256468E0,3.9689395E0,7.593514E0,-1.4771257E-1,-1.1610799E0,2.976595E-1,-5.782639E-1,-2.654643E-1,-4.9650523E-1,1.9820668E-2,-2.884346E-1,-2.4974279E-3,-7.468042E-1,2.9079E-1,9.5684654E-1,-1.2317808E-1,-1.1312292E0,-3.878195E-1,2.0583303E-1,2.2261171E-1,-2.4651968E-1,-7.588591E-2,6.130032E-1,2.3337197E-1,8.054959E-1,-2.0912714E-1,-4.46936E-2,1.6075192E-2,4.262832E-1,-4.425493E-1,2.18919E-1,1.7670912E-1,1.139087E0,-8.719093E-1,-1.21478274E-1,5.7213795E-1,-4.731682E-1,3.8627788E-1,9.776705E-1,-4.2887625E-1,1.1591249E0,-1.2543963E-1,-5.552901E-1,8.074751E-1,3.508822E-2,1.3631335E-3,-3.9150777E-1,1.8390821E-1,-4.1665688E-1,-1.0944965E-1,-1.1476458E0,-2.0481233E-1,1.4341633E-1,1.2347203E0,4.2115174E-2,3.5879582E-1,-8.4152335E-1,1.406306E-1,-2.8001583E-1,2.6029065E-1,5.990872E-1,8.58637E-1,3.3856156E-1,8.16009E-2,8.1926805E-1],"categories":[],"categories_nodes":[],"categories_segments":[],"categories_sizes":[],"default_left":[0,0,0,0,0,0,0,0,0,0,0,0,0,0,0,0,0,0,0,0,0,0,0,0,0,0,0,0,0,0,0,0,0,0,0,0,0,0,0,0,0,0,0,0,0,0,0,0,0,0,0,0,0,0,0,0,0,0,0,0,0,0,0,0,0,0,0,0,0,0,0,0,0,0,0,0,0,0,0,0,0,0,0,0,0,0,0,0,0,0,0,0,0,0,0,0,0,0,0,0,0,0,0,0,0,0,0,0,0,0,0,0,0,0,0,0,0,0,0,0,0,0,0,0,0],"id":12,"left_children":[1,3,5,7,9,11,13,15,17,19,21,23,25,27,29,31,33,35,37,39,41,43,45,47,49,51,53,55,57,59,61,63,65,67,69,71,73,75,-1,77,79,81,83,85,87,89,91,93,95,97,99,101,103,105,107,109,111,113,115,117,119,121,123,-1,-1,-1,-1,-1,-1,-1,-1,-1,-1,-1,-1,-1,-1,-1,-1,-1,-1,-1,-1,-1,-1,-1,-1,-1,-1,-1,-1,-1,-1,-1,-1,-1,-1,-1,-1,-1,-1,-1,-1,-1,-1,-1,-1,-1,-1,-1,-1,-1,-1,-1,-1,-1,-1,-1,-1,-1,-1,-1,-1,-1,-1],"loss_changes":[1.9983193E4,6.1923936E3,5.4749023E3,2.7784902E3,3.1912576E3,1.8993976E3,3.078254E3,1.4001816E3,7.2274255E2,2.801518E3,3.1323464E3,1.6412251E3,1.411679E3,1.1134468E3,3.0078652E3,7.748374E2,1.5466582E3,8.318652E2,9.307405E2,1.598229E3,1.1848235E3,1.7232173E3,1.2461179E3,3.52661E2,6.8092285E2,1.0467798E3,1.0953806E3,1.1945127E3,7.5363257E2,1.1937012E3,1.6619209E3,6.574341E2,4.347298E2,6.679971E2,1.3090986E3,1.8972714E2,4.955907E2,5.560086E2,0E0,1.0306387E3,1.5248713E3,8.496331E2,4.452362E2,1.3089509E3,1.1073568E3,1.1133152E3,3.325381E2,7.706555E1,2.4151294E2,5.5782666E2,1.0588964E3,1.0631628E3,9.076814E2,8.301835E2,1.0904052E3,1.1152037E3,8.730303E2,4.469159E2,5.3906793E2,6.222249E2,8.9940186E2,1.3553672E3,6.877197E2,0E0,0E0,0E0,0E0,0E0,0E0,0E0,0E0,0E0,0E0,0E0,0E0,0E0,0E0,0E0,0E0,0E0,0E0,0E0,0E0,0E0,0E0,0E0,0E0,0E0,0E0,0E0,0E0,0E0,0E0,0E0,0E0,0E0,0E0,0E0,0E0,0E0,0E0,0E0,0E0,0E0,0E0,0E0,0E0,0E0,0E0,0E0,0E0,0E0,0E0,0E0,0E0,0E0,0E0,0E0,0E0,0E0,0E0,0E0,0E0,0E0,0E0],"parents":[2147483647,0,0,1,1,2,2,3,3,4,4,5,5,6,6,7,7,8,8,9,9,10,10,11,11,12,12,13,13,14,14,15,15,16,16,17,17,18,18,19,19,20,20,21,21,22,22,23,23,24,24,25,25,26,26,27,27,28,28,29,29,30,30,31,31,32,32,33,33,34,34,35,35,36,36,37,37,39,39,40,40,41,41,42,42,43,43,44,44,45,45,46,46,47,47,48,48,49,49,50,50,51,51,52,52,53,53,54,54,55,55,56,56,57,57,58,58,59,59,60,60,61,61,62,62],"right_children":[2,4,6,8,10,12,14,16,18,20,22,24,26,28,30,32,34,36,38,40,42,44,46,48,50,52,54,56,58,60,62,64,66,68,70,72,74,76,-1,78,80,82,84,86,88,90,92,94,96,98,100,102,104,106,108,110,112,114,116,118,120,122,124,-1,-1,-1,-1,-1,-1,-1,-1,-1,-1,-1,-1,-1,-1,-1,-1,-1,-1,-1,-1,-1,-1,-1,-1,-1,-1,-1,-1,-1,-1,-1,-1,-1,-1,-1,-1,-1,-1,-1,-1,-1,-1,-1,-1,-1,-1,-1,-1,-1,-1,-1,-1,-1,-1,-1,-1,-1,-1,-1,-1,-1,-1],"split_conditions":[8E0,9.863E1,1.067E2,1.1552E2,9.896E1,1.47E1,1.062E2,8.685E1,3.28E1,1.1547E2,7.16E1,6.44E1,6.78E1,7.64E1,7.13E1,-1.2288E1,6.9E1,2.47E1,1.3E1,7.06E1,5.64E1,5.15E1,7.4E1,-1E1,1.0724E2,3.44E1,5.24E1,-5.855E0,1.44E1,1.6947E1,3.5E1,3.09E1,5.14E1,2.67E1,1.2688E1,9.2E1,6E0,9.842E1,1.3602765E0,2.01E1,1.1766E2,3.28E1,7.21E1,6.76E1,1.1961E2,4.61E1,-1.5541E1,1.21766E2,1.04445E2,1.1047E1,7.05E1,7.758389E-1,1.56E1,1.14089E2,3.56E1,5.31E1,9.8366E1,8E1,3.61E1,-1E0,1.06777E2,7.16E1,4.98E1,-1.4771257E-1,-1.1610799E0,2.976595E-1,-5.782639E-1,-2.654643E-1,-4.9650523E-1,1.9820668E-2,-2.884346E-1,-2.4974279E-3,-7.468042E-1,2.9079E-1,9.5684654E-1,-1.2317808E-1,-1.1312292E0,-3.878195E-1,2.0583303E-1,2.2261171E-1,-2.4651968E-1,-7.588591E-2,6.130032E-1,2.3337197E-1,8.054959E-1,-2.0912714E-1,-4.46936E-2,1.6075192E-2,4.262832E-1,-4.425493E-1,2.18919E-1,1.7670912E-1,1.139087E0,-8.719093E-1,-1.21478274E-1,5.7213795E-1,-4.731682E-1,3.8627788E-1,9.776705E-1,-4.2887625E-1,1.1591249E0,-1.2543963E-1,-5.552901E-1,8.074751E-1,3.508822E-2,1.3631335E-3,-3.9150777E-1,1.8390821E-1,-4.1665688E-1,-1.0944965E-1,-1.1476458E0,-2.0481233E-1,1.4341633E-1,1.2347203E0,4.2115174E-2,3.5879582E-1,-8.4152335E-1,1.406306E-1,-2.8001583E-1,2.6029065E-1,5.990872E-1,8.58637E-1,3.3856156E-1,8.16009E-2,8.1926805E-1],"split_indices":[32,20,20,23,23,9,23,20,18,20,7,2,7,2,2,1,2,10,26,15,8,8,15,34,22,18,16,1,9,27,10,11,16,10,27,28,26,20,0,9,13,18,2,15,20,16,1,14,13,27,15,30,9,6,10,8,14,2,19,34,6,2,16,0,0,0,0,0,0,0,0,0,0,0,0,0,0,0,0,0,0,0,0,0,0,0,0,0,0,0,0,0,0,0,0,0,0,0,0,0,0,0,0,0,0,0,0,0,0,0,0,0,0,0,0,0,0,0,0,0,0,0,0,0,0],"split_type":[0,0,0,0,0,0,0,0,0,0,0,0,0,0,0,0,0,0,0,0,0,0,0,0,0,0,0,0,0,0,0,0,0,0,0,0,0,0,0,0,0,0,0,0,0,0,0,0,0,0,0,0,0,0,0,0,0,0,0,0,0,0,0,0,0,0,0,0,0,0,0,0,0,0,0,0,0,0,0,0,0,0,0,0,0,0,0,0,0,0,0,0,0,0,0,0,0,0,0,0,0,0,0,0,0,0,0,0,0,0,0,0,0,0,0,0,0,0,0,0,0,0,0,0,0],"sum_hessian":[1.1897E4,7.01E3,4.887E3,1.544E3,5.466E3,1.798E3,3.089E3,1.378E3,1.66E2,1.387E3,4.079E3,1.06E2,1.692E3,1.375E3,1.714E3,7E1,1.308E3,9.1E1,7.5E1,9.99E2,3.88E2,3.566E3,5.13E2,1.8E1,8.8E1,6.93E2,9.99E2,1.276E3,9.9E1,1.031E3,6.83E2,4.7E1,2.3E1,6E2,7.08E2,1.3E1,7.8E1,7.2E1,3E0,6.92E2,3.07E2,3.28E2,6E1,2.073E3,1.493E3,4.91E2,2.2E1,1.1E1,7E0,7E1,1.8E1,5.77E2,1.16E2,4E2,5.99E2,6.4E1,1.212E3,1.9E1,8E1,5.2E2,5.11E2,5.13E2,1.7E2,8E0,3.9E1,8E0,1.5E1,1.85E2,4.15E2,1.87E2,5.21E2,6E0,7E0,6.5E1,1.3E1,6.7E1,5E0,6.62E2,3E1,1.04E2,2.03E2,3.1E2,1.8E1,3.9E1,2.1E1,7.7E2,1.303E3,1.425E3,6.8E1,2.6E1,4.65E2,5E0,1.7E1,9E0,2E0,4E0,3E0,2.9E1,4.1E1,1.3E1,5E0,5.13E2,6.4E1,1.7E1,9.9E1,3.37E2,6.3E1,5.68E2,3.1E1,5.2E1,1.2E1,7.6E1,1.136E3,1.5E1,4E0,7.7E1,3E0,4.83E2,3.7E1,4.14E2,9.7E1,5.6E1,4.57E2,1.4E1,1.56E2],"tree_param":{"num_deleted":"0","num_feature":"35","num_nodes":"125","size_leaf_vector":"1"}},{"base_weights":[-7.058088E-2,-1.2698253E0,1.1583769E0,-1.6794244E0,5.254443E-1,4.1865354E0,7.528468E-1,-3.6691709E0,-1.3669766E0,-2.3326836E0,8.8254195E-1,2.6967623E0,5.9185233E0,2.8747316E-2,1.454993E0,-2.7769125E0,-5.5710607E0,2.9194922E0,-1.4730088E0,-2.2454843E-1,-5.948295E0,-3.226208E0,1.0707245E0,-1.24948636E-1,3.664652E0,4.727114E0,9.831374E0,-1.3614856E0,3.2414997E-1,1.0521699E0,4.3930526E0,-2.9398572E0,8.09481E0,-7.5412602E0,-3.1575122E0,-3.1970077E0,5.1345253E0,-6.9353375E0,-1.3966166E0,5.721079E0,-1.1556535E0,-6.6775594E0,6.7303443E0,-7.7770467E0,-1.0669194E0,1.0121403E0,1.4760729E1,-1.0631777E0,7.306949E0,6.771942E0,2.8223333E0,-2.396775E0,5.7184606E0,5.842994E0,1.3456076E1,5.371866E-1,-2.8212426E0,-4.737345E-2,1.9553725E0,-2.959E-1,1.5649807E0,5.156304E0,4.7950703E-1,2.008243E-1,-3.2233378E-1,-3.8764E-1,1.0736078E0,-8.977173E-1,-5.1610196E-1,-1.1836852E-1,-5.824601E-1,-5.0149524E-1,8.9643997E-1,1.8789765E0,4.114932E-1,-4.54151E-1,-1.2785676E0,9.350694E-1,-1.4225776E-1,1.0339872E0,1.4877319E-2,-4.2868015E-1,1.9206195E-1,-7.5532717E-1,3.9678842E-1,1.0616913E-1,9.033825E-1,-1.3771856E0,-4.0019378E-1,2.3882034E-1,-3.086647E-1,3.2138547E-1,6.604554E-2,2.5378877E-1,1.7989047E0,2.594137E-1,-2.842821E-1,-3.5095266E-1,1.0100559E0,8.439825E-1,2.2098599E-2,4.659554E-1,1.3855657E-1,-1.1279997E0,1.8639801E-2,6.2911147E-1,-1.4224002E-1,7.915617E-1,-6.184826E-1,1.457129E0,3.339329E-2,3.1224805E-1,-1.4706734E-1,-1.2293499E0,-2.3418668E-1,2.1514367E-2,-2.0806412E-1,1.4019161E-1,6.414775E-1,-8.400868E-2,3.4241062E-1,9.7127356E-2,2.728735E-1,-1.09928526E-1,5.7812357E-1,-8.72456E-1,1.6200256E-1],"categories":[],"categories_nodes":[],"categories_segments":[],"categories_sizes":[],"default_left":[0,0,0,0,0,0,0,0,0,0,0,0,0,0,0,0,0,0,0,0,0,0,0,0,0,0,0,0,0,0,0,0,0,0,0,0,0,0,0,0,0,0,0,0,0,0,0,0,0,0,0,0,0,0,0,0,0,0,0,0,0,0,0,0,0,0,0,0,0,0,0,0,0,0,0,0,0,0,0,0,0,0,0,0,0,0,0,0,0,0,0,0,0,0,0,0,0,0,0,0,0,0,0,0,0,0,0,0,0,0,0,0,0,0,0,0,0,0,0,0,0,0,0,0,0,0,0],"id":13,"left_children":[1,3,5,7,9,11,13,15,17,19,21,23,25,27,29,31,33,35,37,39,41,43,45,47,49,51,53,55,57,59,61,63,65,67,69,71,73,75,77,79,81,83,85,87,89,91,93,95,97,99,101,103,105,107,109,111,113,115,117,119,121,123,125,-1,-1,-1,-1,-1,-1,-1,-1,-1,-1,-1,-1,-1,-1,-1,-1,-1,-1,-1,-1,-1,-1,-1,-1,-1,-1,-1,-1,-1,-1,-1,-1,-1,-1,-1,-1,-1,-1,-1,-1,-1,-1,-1,-1,-1,-1,-1,-1,-1,-1,-1,-1,-1,-1,-1,-1,-1,-1,-1,-1,-1,-1,-1,-1],"loss_changes":[1.7591521E4,4.443076E3,7.2359644E3,3.053087E3,1.148227E3,1.7799053E3,2.6437612E3,1.1164141E3,1.9373037E3,9.514392E2,7.75876E2,1.0273533E3,1.4499658E3,1.052189E3,3.1198657E3,8.3159717E2,9.8428467E2,1.4118848E3,1.7224385E3,4.494919E2,4.7026172E2,4.240718E2,7.517893E2,6.841323E2,7.137395E2,1.7651416E3,9.911709E2,1.2459639E3,1.2806497E3,1.6063645E3,9.473999E2,6.376836E2,2.6295154E2,3.5013525E2,5.0374945E2,6.6400146E2,9.808135E2,7.402014E2,1.1558496E3,2.8157233E2,6.8249194E2,4.401538E2,2.9581772E1,2.617207E2,2.2370216E2,7.3579456E2,1.1218268E2,5.736329E2,3.6783514E2,6.427822E2,5.7954846E2,7.134564E2,9.004033E2,9.713347E2,5.512261E2,1.0220101E3,1.1245659E3,9.1959546E2,9.5849634E2,1.3005029E3,1.1601831E3,1.0462329E3,5.704967E2,0E0,0E0,0E0,0E0,0E0,0E0,0E0,0E0,0E0,0E0,0E0,0E0,0E0,0E0,0E0,0E0,0E0,0E0,0E0,0E0,0E0,0E0,0E0,0E0,0E0,0E0,0E0,0E0,0E0,0E0,0E0,0E0,0E0,0E0,0E0,0E0,0E0,0E0,0E0,0E0,0E0,0E0,0E0,0E0,0E0,0E0,0E0,0E0,0E0,0E0,0E0,0E0,0E0,0E0,0E0,0E0,0E0,0E0,0E0,0E0,0E0,0E0,0E0,0E0],"parents":[2147483647,0,0,1,1,2,2,3,3,4,4,5,5,6,6,7,7,8,8,9,9,10,10,11,11,12,12,13,13,14,14,15,15,16,16,17,17,18,18,19,19,20,20,21,21,22,22,23,23,24,24,25,25,26,26,27,27,28,28,29,29,30,30,31,31,32,32,33,33,34,34,35,35,36,36,37,37,38,38,39,39,40,40,41,41,42,42,43,43,44,44,45,45,46,46,47,47,48,48,49,49,50,50,51,51,52,52,53,53,54,54,55,55,56,56,57,57,58,58,59,59,60,60,61,61,62,62],"right_children":[2,4,6,8,10,12,14,16,18,20,22,24,26,28,30,32,34,36,38,40,42,44,46,48,50,52,54,56,58,60,62,64,66,68,70,72,74,76,78,80,82,84,86,88,90,92,94,96,98,100,102,104,106,108,110,112,114,116,118,120,122,124,126,-1,-1,-1,-1,-1,-1,-1,-1,-1,-1,-1,-1,-1,-1,-1,-1,-1,-1,-1,-1,-1,-1,-1,-1,-1,-1,-1,-1,-1,-1,-1,-1,-1,-1,-1,-1,-1,-1,-1,-1,-1,-1,-1,-1,-1,-1,-1,-1,-1,-1,-1,-1,-1,-1,-1,-1,-1,-1,-1,-1,-1,-1,-1,-1],"split_conditions":[8.215273E1,1.1229E2,-1.5E1,7.005968E1,8.913E0,9.390841E1,1E0,1.7E1,2.23E1,1.1177E2,6.18E1,3.35E1,1.168E2,9.884E1,9.588579E1,7.06E1,6.71E1,1.042E2,-1.11E2,9.8038E1,1.2298E2,6.8746315E1,1.21495E2,3.2263E1,9.595E1,9.8109E1,3.48E1,3.64E1,1.1429E2,-9E0,4.36E1,-6E0,-4.436E1,4.95E1,1.94E1,5.53E1,1.0469E2,1.92E1,9.1519E1,7.464392E1,7.559E0,1.104E2,7.652307E1,9.848E1,8.474123E-2,2.79E1,7.679057E1,3.41E1,8.459486E1,7.01E1,3.54E1,2.9E1,1.76E1,3.44E1,5.91E1,4.91E1,1.1415E1,3.6E1,3.35E1,1.1292E2,1.0898E2,9.489E1,7.08E1,2.008243E-1,-3.2233378E-1,-3.8764E-1,1.0736078E0,-8.977173E-1,-5.1610196E-1,-1.1836852E-1,-5.824601E-1,-5.0149524E-1,8.9643997E-1,1.8789765E0,4.114932E-1,-4.54151E-1,-1.2785676E0,9.350694E-1,-1.4225776E-1,1.0339872E0,1.4877319E-2,-4.2868015E-1,1.9206195E-1,-7.5532717E-1,3.9678842E-1,1.0616913E-1,9.033825E-1,-1.3771856E0,-4.0019378E-1,2.3882034E-1,-3.086647E-1,3.2138547E-1,6.604554E-2,2.5378877E-1,1.7989047E0,2.594137E-1,-2.842821E-1,-3.5095266E-1,1.0100559E0,8.439825E-1,2.2098599E-2,4.659554E-1,1.3855657E-1,-1.1279997E0,1.8639801E-2,6.2911147E-1,-1.4224002E-1,7.915617E-1,-6.184826E-1,1.457129E0,3.339329E-2,3.1224805E-1,-1.4706734E-1,-1.2293499E0,-2.3418668E-1,2.1514367E-2,-2.0806412E-1,1.4019161E-1,6.414775E-1,-8.400868E-2,3.4241062E-1,9.7127356E-2,2.728735E-1,-1.09928526E-1,5.7812357E-1,-8.72456E-1,1.6200256E-1],"split_indices":[0,23,34,0,27,0,24,34,10,21,2,12,23,23,0,7,2,23,32,13,21,0,13,27,22,13,12,11,22,32,33,34,1,16,9,16,23,17,13,0,27,22,0,22,30,18,0,11,0,15,12,10,9,12,16,16,27,18,18,23,22,23,2,0,0,0,0,0,0,0,0,0,0,0,0,0,0,0,0,0,0,0,0,0,0,0,0,0,0,0,0,0,0,0,0,0,0,0,0,0,0,0,0,0,0,0,0,0,0,0,0,0,0,0,0,0,0,0,0,0,0,0,0,0,0,0,0],"split_type":[0,0,0,0,0,0,0,0,0,0,0,0,0,0,0,0,0,0,0,0,0,0,0,0,0,0,0,0,0,0,0,0,0,0,0,0,0,0,0,0,0,0,0,0,0,0,0,0,0,0,0,0,0,0,0,0,0,0,0,0,0,0,0,0,0,0,0,0,0,0,0,0,0,0,0,0,0,0,0,0,0,0,0,0,0,0,0,0,0,0,0,0,0,0,0,0,0,0,0,0,0,0,0,0,0,0,0,0,0,0,0,0,0,0,0,0,0,0,0,0,0,0,0,0,0,0,0],"sum_hessian":[1.1934E4,6.04E3,5.894E3,4.918E3,1.122E3,6.95E2,5.199E3,6.66E2,4.252E3,1.24E2,9.98E2,3.75E2,3.2E2,2.56E3,2.639E3,4.55E2,2.11E2,1.02E2,4.15E3,7.9E1,4.5E1,4.3E1,9.55E2,9.6E1,2.79E2,2.47E2,7.3E1,4.48E2,2.112E3,2.322E3,3.17E2,4.49E2,6E0,1.15E2,9.6E1,2.7E1,7.5E1,5.6E1,4.094E3,1E1,6.9E1,4.3E1,2E0,1.3E1,3E1,9.52E2,3E0,8.6E1,1E1,5.8E1,2.21E2,3E1,2.17E2,3.6E1,3.7E1,1.95E2,2.53E2,1.721E3,3.91E2,6.4E2,1.682E3,2.65E2,5.2E1,2.4E1,4.25E2,1E0,5E0,7E1,4.5E1,5.6E1,4E1,2.4E1,3E0,4E0,7.1E1,4.1E1,1.5E1,9E0,4.085E3,5E0,5E0,3.4E1,3.5E1,4E1,3E0,1E0,1E0,4E0,9E0,1.1E1,1.9E1,1.3E2,8.22E2,1E0,2E0,2.8E1,5.8E1,2E0,8E0,4.6E1,1.2E1,9.6E1,1.25E2,6E0,2.4E1,2.01E2,1.6E1,3.1E1,5E0,3.4E1,3E0,8.5E1,1.1E2,1.1E1,2.42E2,1.525E3,1.96E2,3.49E2,4.2E1,5.59E2,8.1E1,1.115E3,5.67E2,2.4E1,2.41E2,5E0,4.7E1],"tree_param":{"num_deleted":"0","num_feature":"35","num_nodes":"127","size_leaf_vector":"1"}},{"base_weights":[-3.8254812E-2,-1.556142E0,9.885755E-1,-3.2893357E0,-1.1893477E0,5.836578E-1,3.1284914E0,-2.3149343E0,-4.8125834E0,-1.7897016E0,-4.6438578E-1,9.14663E-2,1.4837884E0,7.3413813E-1,3.943747E0,-3.0798187E0,8.748373E-1,-5.677023E0,-3.1987095E0,-3.0624013E0,-1.3993819E0,-6.21082E-1,6.0980663E0,-8.1281394E-1,5.8820313E-1,5.390483E-1,2.1887689E0,1.457221E0,-5.0960636E0,1.6620924E0,5.017846E0,-1.4204189E0,-4.4141793E0,1.0382487E1,-5.396433E-1,-6.3830028E0,-2.6843193E0,-4.146567E0,2.5650816E0,-5.9843287E0,-2.5582979E0,6.4867014E-1,-1.7695694E0,1.0479287E1,-6.7787963E-1,2.5701454E0,1.4703691E1,-1.5831404E0,8.06362E-1,-1.6477431E0,9.326392E-1,6.523071E-1,-8.704505E0,-4.747017E0,2.3876014E0,9.0984064E-1,8.265994E0,-8.547038E0,2.269165E0,6.170679E0,6.885466E-1,4.71776E0,1.0474018E1,-3.2303682E-1,3.4732595E-2,-6.350567E-1,-3.1606147E-1,-1.8269883E-1,1.2768482E0,1.0725878E0,-1.0634368E-1,-7.716911E-1,-3.3746645E-1,-1.4307348E-1,-1.1674696E0,-6.8070894E-1,-2.0200835E-1,4.5796248E-1,-2.7373219E-2,-1.1343268E0,-4.6563044E-1,-6.27824E-1,-1.957886E-1,4.2227885E-1,-2.0051083E-2,-2.4896066E-1,-9.052354E-2,1.3558501E0,-1.9864148E-2,-3.8780385E-1,-4.916164E-2,-2.0104077E-1,8.275847E-1,1.6330522E0,-1.5957299E-1,-1.0252837E-3,-2.410959E-1,-2.7398902E-1,1.3921712E-1,-2.2642277E-1,2.5626E-1,3.459115E-1,6.19465E-2,5.470542E-2,9.891433E-1,-1.5862296E0,-2.3482971E-1,-6.8125015E-1,2.8173706E-1,2.1194239E-1,6.2377E-1,1.2475306E-2,4.6981964E-1,4.7425452E-1,1.5109711E0,-1.0416172E0,2.4681015E-1,9.842377E-1,-5.6822413E-1,1.7147103E-1,9.5729256E-1,-2.355011E-1,2.0586143E-1,4.0081182E-1,6.642857E-1,1.1613648E0,4.4792365E-2],"categories":[],"categories_nodes":[],"categories_segments":[],"categories_sizes":[],"default_left":[0,0,0,0,0,0,0,0,0,0,0,0,0,0,0,0,0,0,0,0,0,0,0,0,0,0,0,0,0,0,0,0,0,0,0,0,0,0,0,0,0,0,0,0,0,0,0,0,0,0,0,0,0,0,0,0,0,0,0,0,0,0,0,0,0,0,0,0,0,0,0,0,0,0,0,0,0,0,0,0,0,0,0,0,0,0,0,0,0,0,0,0,0,0,0,0,0,0,0,